tree
version=v4
num_class=1
num_tree_per_iteration=1
label_index=0
max_feature_idx=90
objective=poisson
feature_names=xg_rolling_home xg_rolling_away xg_rolling_conceded_home xg_rolling_conceded_away xgot_rolling_home xgot_rolling_away xgot_rolling_conceded_home xgot_rolling_conceded_away shots_rolling_home shots_rolling_away shots_on_target_rolling_home shots_on_target_rolling_away ppda_rolling_home ppda_rolling_away prog_passes_rolling_home prog_passes_rolling_away prog_carries_rolling_home prog_carries_rolling_away touches_in_box_rolling_home touches_in_box_rolling_away final_third_entries_rolling_home final_third_entries_rolling_away poss_won_att3rd_rolling_home poss_won_att3rd_rolling_away possession_rolling_home possession_rolling_away goals_rolling_home goals_rolling_away goals_rolling_conceded_home goals_rolling_conceded_away xg_venue_rolling_home xg_venue_rolling_away xgot_venue_rolling_home xgot_venue_rolling_away goals_venue_rolling_home goals_venue_rolling_away shots_venue_rolling_home shots_venue_rolling_away xg_overperformance_home xg_overperformance_away shots_on_target_pct_home shots_on_target_pct_away clean_sheet_pct_home clean_sheet_pct_away h2h_win_pct_home h2h_goal_diff_home h2h_matches xg_rolling_rel_home xg_rolling_rel_away xgot_rolling_rel_home xgot_rolling_rel_away shots_rolling_rel_home shots_rolling_rel_away momentum_home momentum_away draw_rate_home draw_rate_away league_draw_rate xg_diff_abs defensive_strength days_rest_home days_rest_away days_rest_diff is_midweek season_stage league_avg_goals points_diff position_diff is_relegation_battle is_title_race points_to_safety points_to_leader match_importance lineup_changes_home lineup_changes_away lineup_stability_home lineup_stability_away formation_change_home formation_change_away squad_rotation_rate_home squad_rotation_rate_away odds_prob_home odds_prob_draw odds_prob_away yellows_rolling_home yellows_rolling_away yellows_rolling_conceded_home yellows_rolling_conceded_away referee_yellows_rolling fouls_rolling_home fouls_rolling_away
feature_infos=[0.3403990833898391:3.3738247234497862] [0.38703015473602781:3.6822466250240931] [0.31036220770316708:3.2246375378538219] [0.3543520338912014:3.0801545963937969] [0.029921977309044199:4.1764267051733484] [0.029921977309044199:3.9493926432119313] [0.022975344523497199:3.5043640216577225] [0.1939141693598404:3.4427291722567013] [4.2489912222451283:23.913554579275797] [3.8226074424901788:24.510688166334297] [1:10.825380166200723] [1.492585715504708:10.771132014391622] [3.4121014300871675:14.25150292278142] [3.4705942480627221:14.04903820308755] [43.016888774347976:169.1970205693228] [49.756551902867443:167.08995095947645] [19.763066776566511:121.78614531204911] [18.719333007498157:109.88740150354548] [6.8217189631636801:57.963565324338838] [6.8811895877468263:56.270381548809908] [28.985332480410136:96.867882905809097] [31.985178964310773:96.978977663179521] [1:12.37329272767726] [1:11.090999199719802] [26.062148150698611:74.059885464693963] [27.524494904682577:74.900162888494208] [1:5.4828020703575424] [1:4.8435384543379225] [1:5.4279364232752716] [1:5.7355147380856764] [0.5558203121652936:3.4814282086625767] [0.4223265008491448:3.3531767220701845] [0.33638211484883501:3.937627393943298] [0.16325724664110611:3.5647592034456341] [1:5.0066204438100552] [1:4.5627639793873165] [4.8445901534497882:25.732665842157523] [4.6253266643389939:22.346573756620192] [-1.0730604996064239:1.4712982184988077] [-1.167389951573643:1.4756749772919524] [0.097176053910180998:0.64807068000773294] [0.14703568252125929:0.64103369403500099] [0:1] [0:1] [0:1] [-5:4.666666666666667] [0:10] [0.2485069507824782:2.5610970699709652] [0.2907155606582118:2.8008333307018516] [0.018981465703020999:3.3216134029055508] [0.022607268344464099:3.1186337414494965] [0.39185554024248409:1.8846792644658847] [0.349060005449914:1.9242181441664099] [-1.6666666666666667:1.6000000000000001] [-1.5333333333333334:1.6666666666666667] [0:0.65000000000000002] [0:0.7142857142857143] [0:1] [3.614761117676224e-05:2.5928206849821542] [0.5702735108616197:2.5774176079939863] [2:2640] [2:2283] [-2198:2554] [0:1] [0:1] [0:8] [-66:66] [-19:19] [0:1] [0:1] [-19:53] [0:66] [0:1.28] [0:11] [0:11] [0:1] [0:1] [0:1] [0:1] [0:8.8000000000000007] [0:8.5999999999999996] [0.043141192333144403:0.90626601966458797] [0.059675905953519001:0.4672884952969843] [0.0261587440259268:0.85200140749004227] [1:5] [1:4.7999999999999998] [1:4.2000000000000002] [1:4.0999999999999996] [2.5:7] [5.5999999999999996:20.100000000000001] [5.4000000000000004:19.899999999999999]
tree_sizes=1897 1964 1976 1976 1975 1968 1978 1970 1978 1965 1984 1977 1981 1983 1982 1975 1981 1979 1971 1987 1975 1982 1975 1968 1962 1970 1967 1974 1975 1977 1973 1965 1976 1980 1978 1988 1977 1978 1987 1985 1968 1963 1972 1981 1978 1971 1968 1977 1984 1969 1978 1982 1989 1969 1988 1986 1974 1963 1989 1972 1988 1984 1971 1975 1990 1969 1975 1987 1981 1986 1989 1983 1962 1979 1991 1977 1977 1946 1955 1981 1963 1974 1973 1966 1973 1972 1978 1974 1965 1973 1972 1982 1975 1979 1992 1971 1975 1975 1955 1973 1988 1977 1982 1986 1980 1974 1988 1978 1983 1985 1983 1969 1984 1984 1952 1988 1974 1976 1982 1978 1976 1979 1983 1972 1988 1770 1974 1983 1977 1965 1957 1950 1986 1972 1980 1879 1993 1969 1964 1989 1972 1971 1966 1979 1984 1955 1974 1971 1973 1970 1990 1979 1975

Tree=0
num_leaves=17
num_cat=0
split_feature=85 85 15 85 84 64 42 12 41 17 83 54 84 2 12 83
split_gain=57.2399 12.2694 10.5756 8.19169 7.50791 6.75122 5.85701 5.24777 5.47524 5.07831 5.83995 5.07001 4.87319 4.79261 5.04471 4.74804
threshold=2.5277777777777781 2.0500000000000003 77.847916270052579 3.2928571428571431 2.8819444444444451 0.24999999999999997 0.067108299589693915 4.9482595809080694 0.39696442508624658 32.100956647668504 0.40633017141828787 -0.19999999999999993 2.5857142857142863 0.84988037576647246 5.2458883390248889 0.50849976299503463
decision_type=2 2 2 2 2 2 2 2 2 2 2 2 2 2 2 2
left_child=1 7 3 12 9 -5 -4 8 -1 10 -3 -7 -2 -8 -15 -16
right_child=2 4 6 5 -6 11 13 -9 -10 -11 -12 -13 -14 14 15 -17
leaf_value=0.8789141269404448 0.87655064883881295 0.87550613744114003 0.87136399682463939 0.8982016348678824 0.87696052592401685 0.89472206095142437 0.87016647043891149 0.87024141068050975 0.86603097017022102 0.87188706606376798 0.86974910466731814 0.8803142292742957 0.88231983835827632 0.88136344026046232 0.87705976550773312 0.87033921542234061
leaf_weight=728.40562152862549 2045.3243942260742 5055.424446105957 1181.8501806259155 202.6028881072998 2532.5361013412476 164.01186180114746 540.27436828613281 15330.285200119019 231.54615783691406 12633.737236976624 1152.9069108963013 636.75193405151367 1263.8561115264893 1341.0381641387939 6492.9401760101318 612.63254261016846
leaf_count=151 424 1048 245 42 525 34 112 3178 48 2619 239 132 262 278 1346 127
internal_value=0.873578 0.872079 0.877479 0.880508 0.873229 0.886288 0.876194 0.870569 0.875803 0.872727 0.874437 0.88327 0.878755 0.876829 0.877256 0.87648
internal_weight=52146.1 37664.8 14481.3 4312.55 21374.6 1003.37 10168.7 16290.2 959.952 18842.1 6208.33 800.764 3309.18 8986.89 8446.61 7105.57
internal_count=10810 7808 3002 894 4431 208 2108 3377 199 3906 1287 166 686 1863 1751 1473
is_linear=0
shrinkage=1


Tree=1
num_leaves=17
num_cat=0
split_feature=85 86 86 90 12 15 90 80 87 29 81 3 39 64 14 8
split_gain=53.0277 22.5496 13.1032 9.24902 7.86389 7.58508 7.16144 6.94463 6.01021 8.70663 5.86526 5.03856 4.67964 4.31466 4.08715 4.04296
threshold=2.5277777777777781 2.3875000000000006 2.7750000000000004 11.816666666666668 4.8470471474740817 72.466839658054383 14.050000000000002 1.7750000000000001 3.0500000000000003 1.9473415963111098 0.16867338257432268 1.4883056770983021 -0.38868176749046823 0.3475232198142415 73.467382489153422 11.70676805926553
decision_type=2 2 2 2 2 2 2 2 2 2 2 2 2 2 2 2
left_child=1 3 6 11 -3 -4 -2 -7 12 -10 -6 -1 -8 14 -12 -14
right_child=2 4 5 -5 10 7 8 -9 9 -11 13 -13 15 -15 -16 -17
leaf_value=-0.0054543641662211113 0.00081285116335385959 0.0066766972516261389 0.014197246104063747 -0.0015120344930805018 -0.0067953830453703276 0.016066748819241486 0.012274440833223222 0.0047397405314584303 0.0059556457649781241 0.025128649439529561 0.0097479275676888716 -0.0019926704873644797 0.005493981847075351 -0.000299032423800593 0.0018639391754257998 0.00040185068322007658
leaf_weight=7459.7803549766541 6245.4858622550964 1144.3933491706848 700.29792785644531 12980.453154563904 582.5138053894043 319.4639949798584 300.8062744140625 2997.1827845573425 456.53967046737671 174.76962757110596 385.57124328613281 3207.0700297355652 1551.0444374084473 7979.9557332992554 3868.7737240791321 1792.4269132614136
leaf_count=1550 1291 237 144 2695 121 66 62 619 94 36 80 666 320 1656 803 370
internal_value=-2.23558e-07 -0.00144762 0.00374386 -0.00282112 0.000878586 0.00729103 0.00238925 0.0058318 0.00469124 0.0112691 0.000360638 -0.00441386 0.00355084 0.000701615 0.00257922 0.00276501
internal_weight=52146.5 37608.5 14538 23647.3 13961.2 4016.94 10521.1 3316.65 4275.59 631.309 12816.8 10666.9 3644.28 12234.3 4254.34 3343.47
internal_count=10810 7808 3002 4911 2897 829 2173 685 882 130 2660 2216 752 2539 883 690
is_linear=0
shrinkage=0.073


Tree=2
num_leaves=17
num_cat=0
split_feature=85 85 15 66 17 85 64 66 47 81 12 23 45 47 12 28
split_gain=49.1321 11.2064 9.24138 7.31331 8.27293 7.12983 5.91676 4.81072 6.36906 4.63941 4.27034 4.78689 4.23118 4.3653 4.16877 4.16099
threshold=2.5277777777777781 2.0500000000000003 77.847916270052579 -9.4999999999999982 32.100956647668504 3.2928571428571431 0.24999999999999997 -24.499999999999996 1.0385072412081884 0.68668725784341789 7.0112332764478955 3.3575245381716923 0.95000000000000007 0.70322891809502197 4.999883502437565 2.9678862467248099
decision_type=2 2 2 2 2 2 2 2 2 2 2 2 2 2 2 2
left_child=1 7 5 -3 9 12 -7 8 -1 -5 11 -4 13 -2 -9 -13
right_child=2 3 10 4 -6 6 -8 14 -10 -11 -12 15 -14 -15 -16 -17
leaf_value=-0.010194032833608634 -0.0014601291032074817 -0.0030761577811089375 -0.00029571996503602592 0.0032572278835459371 -0.00073604153834096685 0.022696789980405207 0.0089189954416447857 0.0019407274323495279 0.005738667421292129 -0.0052324288060762629 0.00016625690805494289 0.0039880642745954301 -7.51205922103336e-05 0.0073369045104757172 -0.0028467732921437228 0.014745273717200269
leaf_weight=857.40949058532715 346.29954195022583 4084.1832971572876 1480.1813154220581 5147.6968121528625 11745.139702320099 209.22562456130981 814.45675134658813 1039.735634803772 158.132568359375 367.23783731460571 3169.1277346611023 5378.9376134872437 744.69856786727905 2250.8412084579468 14154.732235431671 198.90958690643311
leaf_count=179 71 849 305 1066 2440 42 166 215 33 76 654 1108 153 462 2950 41
internal_value=-5.13214e-07 -0.00139735 0.00359405 -0.00029825 0.000358911 0.00640623 0.0117385 -0.00284439 -0.00771013 0.00269135 0.00239335 0.00339292 0.00477187 0.00616279 -0.00251898 0.00437228
internal_weight=52146.9 37554.3 14592.7 21344.3 17260.1 4365.52 1023.68 16210 1015.54 5514.93 10227.2 7058.03 3341.84 2597.14 15194.5 5577.85
internal_count=10810 7808 3002 4431 3582 894 208 3377 212 1142 2108 1454 686 533 3165 1149
is_linear=0
shrinkage=0.073


Tree=3
num_leaves=17
num_cat=0
split_feature=88 88 86 37 66 83 84 66 79 86 88 7 67 12 79 86
split_gain=63.6385 14.6104 11.8682 7.98652 7.22415 6.86825 7.20524 6.24638 5.18154 4.83726 4.75589 4.72334 4.39418 4.30804 4.47093 4.20194
threshold=4.6961538461538472 5.3038461538461545 2.3166666666666669 14.036085265643246 -9.4999999999999982 0.50849976299503463 2.8819444444444451 -8.4999999999999982 1.4500000000000002 2.9500000000000006 3.552777777777778 1.790306786199837 1.0000000180025095e-35 5.7194472823703011 2.4500000000000006 2.6125000000000003
decision_type=2 2 2 2 2 2 2 2 2 2 2 2 2 2 2 2
left_child=2 3 5 9 -3 6 -1 15 12 -2 -9 -8 -6 14 -12 -4
right_child=1 4 7 -5 8 -7 11 10 -10 -11 13 -13 -14 -15 -16 -17
leaf_value=-0.0029390994940802573 0.0017897715849639071 0.0014597127479782895 -0.0064704469237164258 -0.0026699884238625422 0.023634615571793489 -0.007369555982624067 0.0011919004782231907 -0.0073536281328948627 0.0061493561488087638 0.0064454430964250931 0.0001333682564631982 0.014814523544344826 0.0090419130173449453 0.00011910549300808971 0.006472859043383696 0.00041271144184258559
leaf_weight=18743.365504741669 8583.6419253349304 1751.8234233856201 1181.625307559967 1952.2205424308777 165.72168779373169 1759.3179707527161 892.86043787002563 361.35677576065063 5877.792151927948 1381.4088411331177 1031.1944003105164 160.04212331771851 330.33582210540771 5790.5703587532043 1397.6089415550232 786.39831018447876
leaf_count=3901 1776 363 246 406 34 368 185 75 1209 284 213 33 68 1198 288 163
internal_value=-7.49247e-07 0.0032267 -0.00201576 0.00159888 0.00561373 -0.00299763 -0.00260893 -9.10903e-06 0.00675497 0.00243548 0.000841342 0.00326572 0.0139241 0.00120201 0.00378255 -0.00371858
internal_weight=52147.3 20042.9 32104.3 11917.3 8125.67 21555.6 19796.3 10548.8 6373.85 9965.05 8580.73 1052.9 496.058 8219.37 2428.8 1968.02
internal_count=10810 4140 6670 2466 1674 4487 4119 2183 1311 2060 1774 218 102 1699 501 409
is_linear=0
shrinkage=0.073


Tree=4
num_leaves=17
num_cat=0
split_feature=85 90 90 42 17 90 83 17 27 84 18 15 84 36 26 59
split_gain=43.797 12.9811 9.69732 6.00596 5.52631 5.49232 5.17693 6.04145 5.48613 5.15456 4.44869 4.03698 3.99165 3.83913 3.70203 4.29373
threshold=2.5277777777777781 11.816666666666668 17.450000000000003 0.067108299589693915 28.408361316145946 14.050000000000002 0.51364904073314244 29.654402945091324 2.1516285585185808 2.5857142857142863 27.505142721845971 77.221064148766473 2.6125000000000003 15.125796900061516 1.4557748042067269 1.6597787947678777
decision_type=2 2 2 2 2 2 2 2 2 2 2 2 2 2 2 2
left_child=1 6 3 9 -3 -5 7 8 14 -2 -7 -4 -6 -10 -1 -16
right_child=2 4 11 5 12 10 -8 -9 13 -11 -12 -13 -14 -15 15 -17
leaf_value=-0.0026905520833081747 -0.0044008416482926877 0.0036958053099021481 0.01747825338133158 0.0022899152658198817 -0.0010285025319754948 0.0061966679173922597 -0.0061990677013507751 -0.0032327431556464421 -0.006225162713726245 0.0038181393623398555 -0.0004800775177255562 0.0039558001168873069 0.0015731424608979496 0.0022474338975948865 0.0026486527464653067 0.012562089435043373
leaf_weight=500.38501167297363 1003.9930934906006 1818.2293581962585 358.62402391433716 7345.259120464325 15778.445649147034 4502.2992696762085 2191.1976065635681 10486.4677734375 848.61436033248901 683.12274360656738 602.11195611953735 176.03981113433838 3923.6077427864075 428.46217393875122 1212.2299289703369 288.56489515304565
leaf_count=104 207 377 72 1507 3285 917 461 2190 177 140 123 36 813 89 252 60
internal_value=-1.00627e-06 -0.00132475 0.00338012 0.00301484 -0.000154736 0.0035688 -0.00290261 -0.00237762 0.000356864 -0.00107119 0.00540851 0.0130319 -0.000510242 -0.00338032 0.00274326 0.00455694
internal_weight=52147.7 37476.2 14671.5 14136.8 21520.3 12449.7 15955.9 13764.7 3278.26 1687.12 5104.41 534.664 19702.1 1277.08 2001.18 1500.79
internal_count=10810 7808 3002 2894 4475 2547 3333 2872 682 347 1040 108 4098 266 416 312
is_linear=0
shrinkage=0.073


Tree=5
num_leaves=17
num_cat=0
split_feature=86 84 86 19 15 15 22 7 11 87 2 14 48 44 6 81
split_gain=39.3587 12.2088 9.96419 10.2788 5.77177 5.65273 5.54963 4.49889 4.42853 4.87081 4.29338 4.25947 4.14975 4.12399 4.1003 3.92603
threshold=2.6125000000000003 2.8452380952380958 2.0500000000000003 24.935538779983549 72.466839658054383 85.010857346324471 4.1321046320630908 0.57873197238972174 3.00832153649552 2.0500000000000003 1.2607277925450178 92.674557701422103 1.4886430296429187 0.52500000000000013 1.2233714448446553 0.81047997302424013
decision_type=2 2 2 2 2 2 2 2 2 2 2 2 2 2 2 2
left_child=1 2 15 8 -2 6 -3 -6 10 -10 -4 -7 -9 -5 -15 -1
right_child=4 5 3 13 7 11 -8 12 9 -11 -12 -13 -14 14 -16 -17
leaf_value=-0.0028175194659593311 0.0080064825397532964 0.0019533927832692398 -0.0012575617104798368 -0.0044226831140114801 0.013694551283010493 -0.0011965218065051329 0.010853921879839509 0.0032655587038959775 -0.0020528833791004157 0.000870392262328955 0.0064794041972428594 0.0057280263765339227 -0.0025947733193210989 0.0045694440025691955 -0.0038352466337580465 -0.012433015071546958
leaf_weight=14600.872786521912 1448.1440720558167 766.14814424514771 571.68196105957031 4057.4301657676697 208.94123363494873 1818.0973982810974 729.85836029052734 9558.0585069656372 4344.074688911438 10098.080512046814 1149.6773962974548 639.86871480941772 689.8335394859314 622.26415538787842 614.8928337097168 230.01076698303223
leaf_count=3049 293 157 118 848 43 376 149 1963 904 2092 238 132 143 129 128 48
internal_value=-1.20141e-06 -0.00109206 -0.00151181 -0.000506002 0.00368601 0.00275966 0.0062978 0.00308738 0.00040826 -8.70412e-06 0.0039082 0.000604972 0.00287078 -0.00329763 0.000389786 -0.00296687
internal_weight=52147.9 40243 36289 21458.1 11905 3953.97 1496.01 10456.8 16163.5 14442.2 1721.36 2457.97 10247.9 5294.59 1237.16 14830.9
internal_count=10810 8368 7554 4457 2442 814 306 2149 3352 2996 356 508 2106 1105 257 3097
is_linear=0
shrinkage=0.073


Tree=6
num_leaves=17
num_cat=0
split_feature=86 90 84 86 32 7 17 90 90 39 7 41 22 9 62 37
split_gain=36.4597 20.1137 11.2969 10.0776 6.1344 5.98555 5.88037 5.72687 5.21777 4.68085 4.49896 6.61819 4.46008 4.27197 4.58747 3.6066
threshold=2.6125000000000003 11.816666666666668 2.8819444444444451 2.0500000000000003 1.406337480546054 1.5853293030007143 25.997202110776097 17.105555555555558 15.292857142857146 -0.022048354928500647 1.6564119941482451 0.31038187870813366 4.1071499101456688 9.1348306726092066 1.0000000180025095e-35 14.711623152794528
decision_type=2 2 2 2 2 2 2 2 2 2 2 2 2 2 2 2
left_child=1 4 3 -3 5 15 -6 10 13 -10 -5 -12 -4 14 -2 -1
right_child=8 2 12 7 6 -7 -8 -9 9 -11 11 -13 -14 -15 -16 -17
leaf_value=-0.0046334572277774155 0.0049129077345960925 -0.0023495717489370651 0.0018653984815276442 3.772414192681601e-05 0.0070600760077150927 -0.00086943019792491564 -0.0020005427852236488 0.01057434787199724 0.0032711497046239981 0.010891023177725544 0.0097295017889113978 0.0010912595155006105 0.0076824821777899399 0.0025027690554345629 0.018326143291531226 -0.0090018684956924711
leaf_weight=5615.2562189102173 530.17470169067383 8294.6729187965393 1516.7600879669189 11275.269734859467 407.81619358062744 1991.1070256233215 5931.7048540115356 316.40592098236084 823.72029590606689 901.16977643966675 663.56257009506226 1645.9500231742859 1310.9405708312988 9510.7289233207703 183.18154144287109 1229.7842288017273
leaf_count=1180 108 1730 311 2336 85 416 1242 64 166 182 137 340 267 1949 37 260
internal_value=-1.3895e-06 -0.00105381 0.000217705 -0.000335791 -0.00315064 -0.00439396 -0.00141719 0.0008656 0.00353896 0.00725398 0.000639231 0.00357454 0.00456333 0.00291189 0.00836205 -0.00541875
internal_weight=52148.2 40199.2 25023.6 22195.9 15175.7 8836.15 6339.52 13901.2 11949 1724.89 13584.8 2309.51 2827.7 10224.1 713.356 6845.04
internal_count=10810 8368 5185 4607 3183 1856 1327 2877 2442 348 2813 477 578 2094 145 1440
is_linear=0
shrinkage=0.073


Tree=7
num_leaves=17
num_cat=0
split_feature=88 88 85 88 19 81 81 86 90 86 12 85 20 85 44 14
split_gain=54.7022 12.343 12.0927 7.15653 6.64483 6.28571 5.98858 5.56701 5.1252 5.05063 6.19499 4.88942 4.90896 4.62966 4.2608 4.22643
threshold=4.6961538461538472 5.3038461538461545 2.5277777777777781 3.6961538461538468 28.581994723424849 0.31796379485660808 0.30978381899356666 2.683333333333334 16.725000000000005 2.2361111111111116 4.922892881056824 3.5277777777777781 60.744699680400679 3.1055555555555561 0.90833333333333344 68.887997870954038
decision_type=2 2 2 2 2 2 2 2 2 2 2 2 2 2 2 2
left_child=2 4 3 -1 7 -3 -5 8 -2 -8 -11 12 14 -4 -7 -9
right_child=1 5 13 6 -6 11 9 15 -10 10 -12 -13 -14 -15 -16 -17
leaf_value=-0.0060525883276510359 0.00080207753136826568 0.0010959378366435278 0.0001907957193803471 -0.0051061959431427289 -0.0027052250171734058 0.007212368141739923 -0.0027121929549667767 0.015288011911800539 0.013518622043636505 0.0067401018896155081 -0.0008949260645374445 0.014978552877548953 0.001860012059170531 0.0059384655355267414 -0.0043380518993890995 0.0041317670722935953
leaf_weight=2823.5885586738586 7116.1429038047791 1632.061231136322 5470.6844792366028 3159.6907806396484 1730.1279029846191 4709.4860782623291 11070.281329154968 193.98176193237305 173.01077890396118 609.52203369140625 7978.1800861358643 319.12581348419189 1379.0605902671814 865.07661628723145 176.23289585113525 2742.2264499664307
leaf_count=594 1474 336 1122 668 361 958 2327 39 35 125 1659 63 281 175 36 557
internal_value=-1.58036e-06 0.0029752 -0.00187946 -0.00258515 0.00147788 0.00515364 -0.00215593 0.00218596 0.00110437 -0.00168157 -0.000352657 0.00615904 0.00570923 0.000976063 0.00679511 0.00486997
internal_weight=52148.5 20171.5 31977 25641.3 11955.5 8215.97 22817.7 10225.4 7289.15 19658 8587.7 6583.91 6264.78 6335.76 4885.72 2936.21
internal_count=10810 4140 6670 5373 2466 1674 4779 2105 1509 4111 1784 1338 1275 1297 994 596
is_linear=0
shrinkage=0.073


Tree=8
num_leaves=17
num_cat=0
split_feature=90 90 30 87 15 21 17 65 24 17 72 14 43 16 37 48
split_gain=25.2954 10.271 7.84953 7.7226 7.35477 6.0241 5.45941 5.50946 5.28344 4.99124 5.28872 4.97114 4.12336 4.1599 3.87896 3.78938
threshold=11.816666666666668 16.225000000000005 1.5551885446046461 2.0500000000000003 72.954268522506752 56.775471740811504 35.026114797187773 2.5716221447928773 54.69177126769133 30.215578653716261 0.27960000000000007 76.370883451343914 0.053251318462149005 40.552405858168413 14.634578219713609 0.6045866131627663
decision_type=2 2 2 2 2 2 2 2 2 2 2 2 2 2 2 2
left_child=2 3 5 -2 -3 14 15 11 -7 10 -4 -8 -9 -14 -1 -5
right_child=1 4 9 6 -6 8 7 12 -10 -11 -12 -13 13 -15 -16 -17
leaf_value=-0.0013962574992166352 -0.0010481043065354463 0.012260967830306861 -0.0025020150240969482 0.0092973311631373862 0.0031909605288103298 -0.0061678681068445306 0.0074831598112952164 0.004222164128398073 0.00091473879640623004 -0.0016148037172758808 0.0050079602025614022 0.0010514815444769301 -7.8368784647370196e-05 -0.0040201672011757617 -0.0080798962147867279 0.0023072147720826219
leaf_weight=6212.143449306488 8408.9743995666504 684.61173009872437 737.6874828338623 427.85080146789551 1571.2810063362122 4324.3603506088257 862.89684152603149 746.64644956588745 644.17461585998535 4461.9561619758606 1546.3146991729736 2489.2103838920593 3899.0800971984863 2251.4362950325012 500.24036121368408 12379.913984298706
leaf_count=1301 1747 135 153 87 320 914 175 154 135 936 321 508 807 468 106 2543
internal_value=-1.78807e-06 0.00118663 -0.0021768 0.000845399 0.00594493 -0.00332181 0.00153609 0.000280076 -0.00524901 -0.000193741 0.00258111 0.00270805 -0.000899532 -0.00152178 -0.00189483 0.00254097
internal_weight=52148.8 33721.9 18426.9 31466 2255.89 11680.9 23057 10249.3 4968.53 6745.96 2284 3352.11 6897.16 6150.52 6712.38 12807.8
internal_count=10810 6944 3866 6489 455 2456 4742 2112 1049 1410 474 683 1429 1275 1407 2630
is_linear=0
shrinkage=0.073


Tree=9
num_leaves=17
num_cat=0
split_feature=85 86 86 66 85 80 15 12 67 86 3 48 49 29 87 8
split_gain=34.3702 15.6065 9.01382 7.72532 6.51398 6.06018 5.91145 5.58347 5.40592 4.81371 4.35728 3.84083 3.7681 3.61048 8.46283 4.54327
threshold=2.5277777777777781 2.3875000000000006 2.7750000000000004 -15.499999999999998 2.0500000000000003 1.7750000000000001 72.717214586758132 5.7312945732408531 -4.4999999999999991 1.8819444444444446 1.4014111793254733 0.92126957173583834 1.0844286895133382 2.1895384711273511 3.0500000000000003 11.73152520999618
decision_type=2 2 2 2 2 2 2 2 2 2 2 2 2 2 2 2
left_child=1 4 8 12 11 -4 -7 10 -2 -10 -5 -1 -3 -11 15 -15
right_child=2 3 5 7 -6 6 -8 -9 9 13 -12 -13 -14 14 -16 -17
leaf_value=-0.0017084959045279738 -0.0008819480848125562 -0.0052501517320219801 0.014124877831777811 0.0053878051203030209 -0.001200292888731623 0.011203210884278551 0.0035698419094412023 0.00033623520754078951 -0.0018114192468577676 0.0024714969795711621 0.00011044735484753044 -0.0046199962693166613 0.0044514993560965995 0.0089925867487057453 0.020999892596185166 0.0014929601947903878
leaf_weight=3630.8302206993103 2835.9743204116821 1469.4918642044067 424.52321577072144 2601.650351524353 12450.543588161469 656.79923486709595 3072.4061698913574 8463.754533290863 1030.2465977668762 4846.8289904594421 1228.5927720069885 7230.6920232772827 249.22305059432983 740.52452039718628 186.10081481933594 1030.7957038879395
leaf_count=766 581 308 84 534 2610 128 617 1751 212 983 252 1535 52 150 37 210
internal_value=-1.92622e-06 -0.00118306 0.00297176 0.000742114 -0.00234039 0.0058572 0.00491512 0.00138317 0.00184825 0.00283691 0.00369581 -0.00364701 -0.0038416 0.00354116 0.00618821 0.00463004
internal_weight=52149 37324.8 14824.2 14012.7 23312.1 4153.73 3729.21 12294 10670.5 7834.5 3830.24 10861.5 1718.71 6804.25 1957.42 1771.32
internal_count=10810 7808 3002 2897 4911 829 745 2537 2173 1592 786 2301 360 1380 397 360
is_linear=0
shrinkage=0.073


Tree=10
num_leaves=17
num_cat=0
split_feature=88 88 85 90 15 83 21 12 59 90 88 65 86 3 86 28
split_gain=48.2358 10.7191 10.3138 7.95397 7.70808 5.87377 5.08761 5.49422 5.6127 5.47925 5.02194 4.7749 4.62078 4.06981 4.00057 3.93084
threshold=4.6961538461538472 5.3038461538461545 2.9500000000000006 11.816666666666668 105.85199640661612 0.50849976299503463 48.238041879558587 6.609271332669814 1.0625425912186166 11.225000000000001 3.7029411764705888 2.6990128908659941 2.5857142857142863 0.91702297604972605 2.5277777777777781 1.4011038887094069
decision_type=2 2 2 2 2 2 2 2 2 2 2 2 2 2 2 2
left_child=2 4 3 5 11 14 15 8 -8 -10 -5 -2 -4 -13 -1 -3
right_child=1 6 12 10 -6 -7 7 -9 9 -11 -12 13 -14 -15 -16 -17
leaf_value=-0.0035080480126799965 0.0039055878276148329 -0.0066410176920689845 0.00084286692791592948 -0.0048885833646421318 -0.0028559152462204057 -0.007543309373661088 0.00094216185128339421 0.0028479542127257452 0.0010929441186506585 0.0093469817830892522 -0.00067073129273968106 -0.0073260342464795541 0.0088546652352283015 0.0012158605142913014 0.00012774498154547755 0.0027960823513522044
leaf_weight=9096.4772171974182 4662.8270215988159 295.95491790771484 1013.4378480911255 1662.0381956100464 1917.1844549179077 1642.8216948509216 657.43881607055664 2438.3171696662903 494.48924970626831 3256.2770137786865 15886.509512901306 315.58370447158813 618.1697211265564 5089.1488008499146 1958.4405698776245 1144.0880379676819
leaf_count=1929 950 60 206 349 401 354 133 494 102 654 3304 66 123 1049 405 231
internal_value=-2.08335e-06 0.00278198 -0.00177257 -0.00207761 0.00138579 -0.00346938 0.00480089 0.00563052 0.00716895 0.00825959 -0.00107038 0.00219384 0.00388022 0.000716515 -0.00286368 0.000854452
internal_weight=52149.2 20271.3 31877.9 30246.3 11984.7 12697.7 8286.57 6846.52 4408.21 3750.77 17548.5 10067.6 1631.61 5404.73 11054.9 1440.04
internal_count=10810 4140 6670 6341 2466 2688 1674 1383 889 756 3653 2065 329 1115 2334 291
is_linear=0
shrinkage=0.073


Tree=11
num_leaves=17
num_cat=0
split_feature=85 90 90 67 82 11 2 67 23 42 87 57 12 2 59 89
split_gain=30.1939 9.28657 7.1468 5.48949 4.98981 5.46683 4.87293 4.65466 4.56597 4.77828 4.43372 3.81213 3.80094 3.65003 3.5687 3.44448
threshold=2.5277777777777781 11.105555555555556 17.450000000000003 -4.4999999999999991 0.14227452335472698 3.00832153649552 0.84988037576647246 -9.4999999999999982 3.838769871316543 0.10872559335169396 3.2928571428571431 0.33423423423423426 5.1943776107977859 2.0988588717368679 1.2748540272032594 15.133333333333335
decision_type=2 2 2 2 2 2 2 2 2 2 2 2 2 2 2 2
left_child=1 15 3 12 -3 -6 -5 -7 9 -8 -11 -10 -2 -9 -4 -1
right_child=2 4 14 6 5 7 8 13 11 10 -12 -13 -14 -15 -16 -17
leaf_value=-0.0032091801325813359 0.006824816069030645 -0.0080156433664879505 0.017995049309365279 -0.0027283553192693579 0.0034090997167104025 -0.0032968553232691641 -0.0037688480443714236 -1.0303911163078035e-05 0.0045998511148510873 0.0022545236663944002 0.012986060814466864 0.013436866949809934 -0.00076735662919640501 -0.0059628968733434545 0.0060792824039546927 0.0026521067801823632
leaf_weight=10330.963785171509 393.09672117233276 447.3931999206543 224.67161464691162 668.62840747833252 2017.2797923088074 2886.5205664634705 676.56320714950562 20441.453323841095 5600.3840799331665 3198.2133059501648 219.36141538619995 273.19971656799316 3310.2814917564392 564.09180498123169 334.48797798156738 562.86368560791016
leaf_count=2193 79 94 43 136 418 607 137 4260 1126 643 43 55 675 118 65 118
internal_value=-2.25722e-06 -0.0011132 0.00277514 0.00245914 -0.000372049 -0.00023994 0.00330194 -0.000548166 0.00370674 0.00183422 0.00294431 0.00501146 3.77831e-05 -0.000170305 0.0108731 -0.00290606
internal_weight=52149.5 37250.6 14898.9 14339.7 26356.7 25909.3 10636.4 23892.1 9967.72 4094.14 3417.57 5873.58 3703.38 21005.5 559.16 10893.8
internal_count=10810 7808 3002 2894 5497 5403 2140 4985 2004 823 686 1181 754 4378 108 2311
is_linear=0
shrinkage=0.073


Tree=12
num_leaves=17
num_cat=0
split_feature=88 88 88 15 86 9 79 83 82 7 48 21 15 41 30 28
split_gain=43.8326 9.62054 7.91446 6.97462 6.19606 5.09351 4.61093 4.6704 4.27156 4.13833 4.11932 4.08147 3.89449 5.135 3.86396 3.64973
threshold=4.6961538461538472 5.3038461538461545 3.6961538461538468 105.85199640661612 2.3166666666666669 9.2036878685731303 1.4500000000000002 0.38127100795378993 0.29573440952231372 1.9132814442300325 0.95108072257027709 48.348288358964105 108.97996534212967 0.39456538272749248 2.3012810438330011 1.4011038887094069
decision_type=2 2 2 2 2 2 2 2 2 2 2 2 2 2 2 2
left_child=2 3 9 8 10 -6 -3 11 -2 -1 -4 15 -13 -14 -7 -8
right_child=1 6 4 -5 5 14 7 -9 -10 -11 -12 12 13 -15 -16 -17
leaf_value=-0.0059535536412364445 0.0015201063266434846 0.010726724103816306 -0.00084768278091321332 -0.0027243414344696698 0.0060523620260009865 -0.00066427801049048383 -0.0067901928696593597 0.00057227498780162002 0.0060742462075737422 0.0041546407043649919 -0.0030270797628056205 0.0065788423625723347 -0.0054009341296830894 0.0091871185557980944 0.0059017768441095653 0.0032457895498048599
leaf_weight=2874.5954298973083 8842.0614280700684 598.19605445861816 8111.8715357780457 1909.6603555679321 726.42166042327881 8599.3109445571899 250.37373733520508 1611.6573233604431 1253.8195605278015 232.98743152618408 10755.532473087311 4485.9863243103027 343.21456384658813 205.57261610031128 505.61374282836914 842.73185634613037
leaf_count=612 1812 119 1704 401 147 1775 51 330 253 49 2279 893 70 42 104 169
internal_value=-2.36354e-06 0.0026439 -0.001695 0.00132059 -0.00131593 0.000169724 0.00454897 0.00407106 0.002086 -0.00519473 -0.00209023 0.00499077 0.00586872 5.85724e-05 -0.000299312 0.00094426
internal_weight=52149.6 20343.3 31806.3 12005.5 28698.8 9831.35 8337.73 7739.54 10095.9 3107.58 18867.4 6127.88 5034.77 548.787 9104.92 1093.11
internal_count=10810 4140 6670 2466 6009 2026 1674 1555 2065 661 3983 1225 1005 112 1879 220
is_linear=0
shrinkage=0.073


Tree=13
num_leaves=17
num_cat=0
split_feature=88 85 88 83 15 88 66 85 64 12 85 20 82 23 12 33
split_gain=40.6869 9.23771 9.0203 6.93044 6.24047 5.5799 5.00865 4.82222 4.63051 4.65813 4.41888 4.29112 4.27735 3.64887 3.33389 3.15293
threshold=4.6583333333333341 2.9500000000000006 5.3038461538461545 0.51364904073314244 105.85199640661612 3.6306818181818183 -9.4999999999999982 1.9500000000000002 0.48684210526315791 4.9705547342620653 3.5277777777777781 63.011679232539414 0.29573440952231372 2.9472379236757278 5.0272411004541988 2.099172876522847
decision_type=2 2 2 2 2 2 2 2 2 2 2 2 2 2 2 2
left_child=1 3 4 5 12 -1 -4 15 9 -9 -8 -3 13 -2 -6 -7
right_child=2 11 6 -5 14 7 10 8 -10 -11 -12 -13 -14 -15 -16 -17
leaf_value=-0.0050318526471089991 -0.0026899069000935307 0.0053206531120077762 0.00092169136104074015 -0.0058149233295748861 0.0061185311553750227 -0.0026420702185561084 0.0048536457024311664 0.006270626705771663 -0.0019545368210116105 -3.5783507680173331e-05 0.013487706575137001 -0.0049224969950591403 0.0059471503739123672 0.0019397046546784501 -0.0035745003315142713 -0.011646962983689228
leaf_weight=2345.4428453445435 1022.412700176239 1373.1298775672913 1777.1792154312134 2278.6686406135559 211.84883689880371 6957.1958141326904 6265.5357975959778 669.47240400314331 8209.7743911743164 9201.945023059845 333.09522819519043 258.74689960479736 1266.2457628250122 8020.4648432731628 1744.8782625198364 213.76015281677246
leaf_count=501 209 275 363 493 44 1478 1248 138 1715 1921 63 52 254 1642 368 46
internal_value=-2.49535e-06 -0.00165293 0.00251665 -0.00194513 0.00125528 -0.0016255 0.00436349 -0.00130899 -0.000673485 0.000391636 0.00529 0.00369467 0.0019728 0.00141594 -0.00252349 -0.00291096
internal_weight=52149.8 31508.1 20641.7 29876.3 12265.9 27597.6 8375.81 25252.1 18081.2 9871.42 6598.63 1631.88 10309.1 9042.88 1956.73 7170.96
internal_count=10810 6619 4191 6292 2517 5799 1674 5298 3774 2059 1311 327 2105 1851 412 1524
is_linear=0
shrinkage=0.073


Tree=14
num_leaves=17
num_cat=0
split_feature=86 90 86 32 3 17 90 48 81 37 23 66 90 39 52 45
split_gain=24.9144 13.279 7.97441 5.27693 5.64501 5.29247 4.63637 4.84369 3.79694 3.47412 3.88106 3.40969 3.38162 4.10942 3.45927 3.75889
threshold=2.6125000000000003 11.816666666666668 2.0500000000000003 1.406337480546054 1.4883056770983021 25.997202110776097 17.105555555555558 0.64046725496891665 0.74353446132558532 14.711623152794528 4.9850988870969974 -8.4999999999999982 15.292857142857146 -0.022048354928500647 0.63072952506505564 1.3166666666666669
decision_type=2 2 2 2 2 2 2 2 2 2 2 2 2 2 2 2
left_child=1 3 8 4 9 -5 7 -4 -3 10 -1 -6 14 -14 -2 -16
right_child=12 2 6 5 11 -7 -8 -9 -10 -11 -12 -13 13 -15 15 -17
leaf_value=-0.0055224706296980539 0.011736064160564445 -0.0013699448910162689 0.0055074479609759884 0.0070475412866897701 -0.006327136678248981 -0.001550947719847258 0.0086268013206815004 0.00055146604538465417 -0.011233160765453056 -0.0086345621729431929 -0.00096056157186891645 0.00021536159563110606 0.0021451012756223448 0.0091677565051690377 0.0026370196892403215 -0.0022807277752614902
leaf_weight=3352.1622686386108 206.82134389877319 8718.868824005127 1132.7338409423828 407.9342679977417 524.60712718963623 5854.8490672111511 426.11070442199707 14583.181452274323 213.14186096191406 1155.2728247642517 1414.9820713996887 2219.9823307991028 847.87880659103394 935.3631854057312 9246.9999461174011 909.09613943099976
leaf_count=719 41 1825 231 85 112 1242 83 3001 45 252 304 469 166 182 1870 183
internal_value=-2.62698e-06 -0.000881887 0.000144293 -0.00260551 -0.00377227 -0.000990374 0.0011128 0.000908868 -0.00160568 -0.00504065 -0.00416903 -0.00103418 0.002893 0.00583043 0.00238723 0.00219653
internal_weight=52150 40003.8 25074 14929.8 8667.01 6262.78 16142 15715.9 8932.01 5922.42 4767.14 2744.59 12146.2 1783.24 10362.9 10156.1
internal_count=10810 8368 5185 3183 1856 1327 3315 3232 1870 1275 1023 581 2442 348 2094 2053
is_linear=0
shrinkage=0.073


Tree=15
num_leaves=17
num_cat=0
split_feature=66 87 89 12 15 23 29 5 48 17 13 3 16 52 12 31
split_gain=11.7873 10.249 5.44395 5.19198 4.63902 4.99265 4.65656 4.40896 4.36294 4.0784 5.004 4.15406 4.31504 4.2036 4.16506 3.82214
threshold=-6.4999999999999991 2.4365079365079372 14.535714285714286 6.5240033206735761 107.36459253439104 5.8658472571309739 3.2068104443089056 0.79785007500520122 1.2790264994417699 32.100956647668504 7.7011696786230601 1.5078963487200909 33.756655874992582 0.76731949042140879 5.1148682787011905 1.6696586979337777
decision_type=2 2 2 2 2 2 2 2 2 2 2 2 2 2 2 2
left_child=3 9 4 15 6 -6 -3 -4 -9 -2 11 14 -13 -14 -11 -1
right_child=1 2 7 -5 5 -7 -8 8 -10 10 -12 12 13 -15 -16 -17
leaf_value=0.0008887184502399414 0.0012073490859632733 0.0018514997680786262 0.014918413414120341 -0.0030843381042062355 -0.0052302549677461854 0.0084281859649877593 0.013779124120921733 0.0033863398655356301 0.014194689191369668 0.0031120572043707821 -0.0031457936472239229 -0.0014071408876346907 0.0099870384229949673 0.0022633496252346856 -0.0014605913670866669 -0.0033705506763135355
leaf_weight=4359.5440902709961 7723.1953444480896 8950.9996113777161 229.62253379821777 7771.9049038887024 884.93471336364746 169.85198068618774 177.94626760482788 2263.3856401443481 218.44624185562134 1201.6674613952637 3812.7254910469055 1351.4098734855652 464.09574747085571 1976.8357830047607 9081.510055065155 1512.0366296768188
leaf_count=904 1597 1819 45 1643 184 35 36 454 44 246 799 280 95 411 1897 321
internal_value=-2.71477e-06 0.000650507 0.00232894 -0.00184654 0.00155457 -0.00302788 0.00208437 0.0052362 0.00433902 -0.00019446 -0.000799851 -0.000164177 0.00190064 0.00373317 -0.00092595 -0.000207635
internal_weight=52150.1 38506.6 12895.2 13643.5 10183.7 1054.79 9128.95 2711.45 2481.83 25611.4 17888.2 14075.5 3792.34 2440.93 10283.2 5871.58
internal_count=10810 7942 2617 2868 2074 219 1855 543 498 5325 3728 2929 786 506 2143 1225
is_linear=0
shrinkage=0.073


Tree=16
num_leaves=17
num_cat=0
split_feature=84 83 82 11 64 3 37 13 17 13 17 25 13 7 11 53
split_gain=13.5622 8.65507 5.92916 5.50976 4.92147 4.19799 6.41447 4.5165 3.96703 4.90157 3.77001 3.89111 3.71772 3.64416 3.58226 3.76522
threshold=2.5857142857142863 0.2920293265839275 0.24458047880623762 7.1570878090357395 0.48684210526315791 1.8594902347565714 10.299395953926368 7.8576906348206146 28.408361316145946 7.6162272131868516 25.817122435804269 44.794872821377957 6.6143351517122779 2.1400008947382352 3.434265540830348 -0.087499999999999883
decision_type=2 2 2 2 2 2 2 2 2 2 2 2 2 2 2 2
left_child=1 5 -3 10 8 7 -7 14 -4 -10 -2 -12 -13 -8 -1 -16
right_child=3 2 4 -5 -6 6 13 -9 9 -11 11 12 -14 -15 15 -17
leaf_value=0.0041710646088472603 0.0080680513397099855 -0.0049995923459822201 0.0038501136081086963 -0.0063035922396766173 -0.0021781372824644508 0.00054072818946448477 0.014326599500075357 -0.0027017334583305506 0.00016058927483334506 -0.003895790541564326 0.0039134579670510299 0.0019946041813458841 -0.0011449727878121243 0.0018468221405308139 -0.0018608654009308696 0.0019537264509251291
leaf_weight=1730.0307445526123 545.13717746734619 2291.631495475769 1221.4196004867554 426.68949842453003 11873.737594127655 821.36087703704834 409.83991527557373 1930.1326813697815 9312.5464091300964 1913.3725790977478 3671.3542232513428 7375.2534999847412 2761.5688495635986 180.03832626342773 2349.9362082481384 3336.1297821998596
leaf_count=353 112 495 254 90 2488 169 84 402 1948 403 734 1501 569 37 484 687
internal_value=-2.76143e-06 -0.000743163 -0.00144953 0.00186909 -0.00111491 0.00100405 0.00471535 0.000443329 -0.000100435 -0.000530539 0.00211226 0.0018769 0.001139 0.0105229 0.00126227 0.000376718
internal_weight=52150.2 37370.2 26612.7 14780 24321.1 10757.5 1411.24 9346.23 12447.3 11225.9 14353.3 13808.2 10136.8 589.878 7416.1 5686.07
internal_count=10810 7804 5588 3006 5093 2216 290 1926 2605 2351 2916 2804 2070 121 1524 1171
is_linear=0
shrinkage=0.073


Tree=17
num_leaves=17
num_cat=0
split_feature=85 90 90 83 11 18 64 26 12 90 29 70 26 4 37 57
split_gain=23.5491 7.36198 5.82545 5.65871 4.53788 5.02573 4.32293 3.85806 3.42178 3.41515 4.1507 3.8488 4.00877 3.52361 3.45961 4.66836
threshold=2.5277777777777781 11.105555555555556 17.450000000000003 0.073664839888131453 3.00832153649552 13.111916414806879 0.75000000000000011 1.9473415963111098 4.8687420856166819 14.050000000000002 2.7580292261322987 24.500000000000004 2.2983226873222287 2.0235172639651071 10.511043628445316 0.25693072024593766
decision_type=2 2 2 2 2 2 2 2 2 2 2 2 2 2 2 2
left_child=1 7 9 -3 -5 -6 -7 -1 -9 11 -11 12 13 -2 -14 -16
right_child=2 3 -4 4 5 6 -8 8 -10 10 -12 -13 14 -15 15 -17
leaf_value=-0.0035659916605524505 0.00049103273231201623 -0.009091554296125258 0.0096480492202269605 0.0031087197322252009 -0.0049897798631927245 0.00028470521417864558 -0.0021944328542391239 0.006830085323680255 -0.0013165634381511922 0.0029743331304335941 0.010710311275688358 0.010576433582183209 0.0088282917290278089 -0.010061201214142416 0.0055301932528893007 -0.0059557506010448694
leaf_weight=7223.097692489624 6701.5315608978271 387.17011308670044 574.08418560028076 2034.5300478935242 1249.4210147857666 17916.527246952057 4739.3880014419556 299.85169506072998 3270.3792285919189 5553.3115940093994 396.32272243499756 227.53314113616943 579.66631364822388 172.94135189056396 532.82448720932007 291.66936206817627
leaf_count=1550 1356 82 108 419 264 3739 993 62 699 1096 78 46 116 35 108 59
internal_value=-2.81027e-06 -0.000989949 0.002435 -0.000331571 -0.000200698 -0.000482482 -0.000233779 -0.00259559 -0.000631479 0.00214832 0.0034902 0.0012094 0.000951556 0.000225098 0.00450597 0.00146336
internal_weight=52150.2 37120.4 15029.9 26327 25939.9 23905.3 22655.9 10793.3 3570.23 14455.8 5949.63 8506.17 8278.63 6874.47 1404.16 824.494
internal_count=10810 7808 3002 5497 5415 4996 4732 2311 761 2894 1174 1720 1674 1391 283 167
is_linear=0
shrinkage=0.073


Tree=18
num_leaves=17
num_cat=0
split_feature=88 88 85 88 15 90 21 20 79 26 90 83 20 59 38 20
split_gain=35.2442 7.67976 7.66516 5.8919 5.26565 4.85255 4.24842 3.98512 3.81027 3.70652 3.62318 3.57718 4.63396 3.82986 3.5432 3.37969
threshold=4.6583333333333341 5.3038461538461545 2.9500000000000006 3.6306818181818183 105.85199640661612 12.950000000000001 48.238041879558587 64.482539792077731 2.3666666666666671 1.9351561102539303 17.105555555555558 0.36628943419103055 47.279911174558301 1.0573687415727091 0.14935717389356004 65.79123836058281
decision_type=2 2 2 2 2 2 2 2 2 2 2 2 2 2 2 2
left_child=2 4 3 -1 10 9 8 -4 -3 -5 -2 15 -13 -14 -10 -8
right_child=1 6 7 5 -6 -7 11 -9 14 -11 -12 12 13 -15 -16 -17
leaf_value=-0.0051591299243184527 0.0016259258245397887 0.0058345135091519137 0.0046520475457429303 -0.0029644122918591458 -0.0023165535426978878 -0.0001949564759738829 0.006290953501004181 -0.0062333311104198642 -0.0044756919509693965 -0.00068861239593492906 0.011310665106815027 -0.0052566704550798381 -0.0053582906018593791 0.0057887620303906867 0.006081062621322352 0.00031859691982773734
leaf_weight=2564.0075507164001 10139.492154598236 471.73040294647217 1443.7633371353149 11787.968106746674 1944.7945666313171 9766.9504766464233 4844.0933527946472 204.38567304611206 767.42850065231323 5643.0823721885681 210.20635223388672 384.01212024688721 196.2323956489563 1000.1284470558167 217.20979261398315 564.8469033241272
leaf_count=554 2065 94 286 2513 412 2031 950 41 154 1194 40 79 40 202 43 112
internal_value=-2.86776e-06 0.00233251 -0.00154501 -0.00181344 0.0011679 -0.00149792 0.00402748 0.00330029 0.000438516 -0.00222782 0.00182294 0.00477489 0.00171691 0.00395784 -0.0021438 0.00566782
internal_weight=52150.3 20740.2 31410.2 29762 12294.5 27198 8445.68 1648.15 1456.37 17431.1 10349.7 6989.31 1580.37 1196.36 984.638 5408.94
internal_count=10810 4191 6619 6292 2517 5738 1674 327 291 3707 2105 1383 321 242 197 1062
is_linear=0
shrinkage=0.073


Tree=19
num_leaves=17
num_cat=0
split_feature=88 88 90 17 83 37 12 79 42 7 23 52 88 59 21 23
split_gain=32.7068 7.07676 6.41523 5.7385 5.59561 4.77684 4.05891 4.23568 4.23622 3.88392 3.74994 3.8672 3.87524 3.74482 3.94717 3.63926
threshold=4.6583333333333341 5.3038461538461545 14.050000000000002 32.461188332188094 0.51364904073314244 14.036085265643246 8.6094224480627695 1.4500000000000002 0.092715930566970264 1.5802025973586431 5.6960722462403881 1.0126826979172814 3.8062500000000004 1.5601863927090023 51.093948940342372 3.2491829800283165
decision_type=2 2 2 2 2 2 2 2 2 2 2 2 2 2 2 2
left_child=2 5 3 4 10 -2 7 -3 -9 -4 11 12 -1 14 -10 -11
right_child=1 6 9 -5 -6 -7 -8 8 13 15 -12 -13 -14 -15 -16 -17
leaf_value=-0.004127145759883136 0.0017544747789958591 0.010067216662346208 -0.00026921184234464856 -0.0028259241907214782 -0.0054575012671372099 -0.0021569674531799104 -0.0049977685105406016 -0.00063595453525188751 0.00042569135282444995 -0.0020322573749178381 0.004666804431080987 -0.0027074274853374279 0.0017804989735382723 0.0086919436052502654 0.0048170274355835915 0.0069582255330358014
leaf_weight=700.01709938049316 10326.086998939514 598.83374452590942 4968.6603593826294 16235.997350215912 1078.7470006942749 1982.7966113090515 266.37749814987183 1041.3358888626099 1478.7721433639526 335.02336740493774 870.55412769317627 2513.7064657211304 3817.7580938339233 920.90195083618164 4173.6131587028503 841.28052186965942
leaf_count=149 2099 116 1025 3455 237 418 54 208 295 69 183 533 797 180 821 171
internal_value=-2.95806e-06 0.00224241 -0.00149144 -0.00200686 -0.000525786 0.00112415 0.00386526 0.00415308 0.00368755 0.000623215 0.000147118 -0.00041206 0.000864456 0.00437293 0.0036687 0.00439518
internal_weight=52150.5 20788.7 31361.7 25216.8 8980.78 12308.9 8479.83 8213.46 7614.62 6144.96 7902.04 7031.48 4517.78 6573.29 5652.39 1176.3
internal_count=10810 4191 6619 5354 1899 2517 1674 1620 1504 1265 1662 1479 946 1296 1116 240
is_linear=0
shrinkage=0.073


Tree=20
num_leaves=17
num_cat=0
split_feature=88 85 86 90 85 37 89 23 45 81 86 26 89 9 81 28
split_gain=30.3545 7.10617 6.81508 6.63699 4.81186 4.12009 4.83911 4.10387 3.98353 3.86748 3.85704 3.72042 5.79407 4.48688 3.7015 3.74661
threshold=4.6583333333333341 2.0500000000000003 2.683333333333334 17.105555555555558 2.9500000000000006 14.199857321629237 14.414285714285716 2.9472379236757278 -1.211111111111111 0.62072128589340736 2.5857142857142863 2.068881037252098 9.8819444444444464 14.633141903954447 0.393036934498808 1.4367164201652822
decision_type=2 2 2 2 2 2 2 2 2 2 2 2 2 2 2 2
left_child=1 14 3 5 11 6 7 -2 -4 -10 -6 -3 13 -13 -1 -16
right_child=2 4 8 -5 10 -7 -8 -9 9 -11 -12 12 -14 -15 15 -17
leaf_value=-0.0050974843213461496 -0.0039678064757970354 -0.0015503946970651023 -0.0010415564919046406 0.011436791064773253 0.00040474066546612839 -0.0022141563502652084 0.0042000252645388115 0.0011697679692660474 0.0052473949807059503 0.00034269262372029516 0.0076648757059171032 -0.00795211099996955 0.0020139912981667102 0.0059119538830934007 0.00092029343473778568 -0.0028575529301090061
leaf_weight=2950.2574982643127 929.4713830947876 13354.5397772789 769.28691816329956 327.52181529998779 1021.5683727264404 1913.20663022995 2614.8819231987 7617.8051753044128 5651.964343547821 1011.3312449455261 631.59390306472778 588.26842594146729 3817.3549733161926 157.48251152038574 1743.8598318099976 7050.1837391853333
leaf_count=646 190 2808 155 61 205 403 524 1552 1108 198 122 124 796 33 372 1513
internal_value=-3.03876e-06 -0.00143967 0.00215604 0.00117256 -0.000587614 0.000915199 0.00145184 0.000610729 0.00392911 0.00450342 0.00318035 -0.000935432 0.000863698 -0.00502035 -0.0028593 -0.00210807
internal_weight=52150.6 31315.1 20835.5 13402.9 19570.8 13075.4 11162.2 8547.28 7432.58 6663.3 1653.16 17917.6 4563.11 745.751 11744.3 8794.04
internal_count=10810 6619 4191 2730 4088 2669 2266 1742 1461 1306 327 3761 953 157 2531 1885
is_linear=0
shrinkage=0.073


Tree=21
num_leaves=17
num_cat=0
split_feature=88 66 85 90 86 82 85 26 14 13 49 90 23 45 26 72
split_gain=28.175 6.63967 6.59121 5.48245 5.12758 5.39847 4.47461 3.6949 3.81383 3.75323 3.5262 4.50664 3.48549 3.4432 3.41495 3.41335
threshold=4.6961538461538472 -6.4999999999999991 2.0500000000000003 17.105555555555558 2.683333333333334 0.22041338108234593 3.1055555555555561 1.986312972427396 113.45960141057299 4.7546212850815577 0.96167493797191572 11.414285714285716 2.9472379236757278 -1.211111111111111 1.7292155491215919 0.53280000000000005
decision_type=2 2 2 2 2 2 2 2 2 2 2 2 2 2 2 2
left_child=2 10 -1 4 12 -6 7 9 -9 -4 11 -2 -3 -7 -8 -5
right_child=1 3 6 15 5 13 14 8 -10 -11 -12 -13 -14 -15 -16 -17
leaf_value=-0.0027421085097341187 -0.0049681577016185306 -0.0024544651878652605 0.0043356513959307529 0.0055925562700897512 -0.00077512349204702212 -0.0025659570729946075 -0.0021831771536546013 0.0016013432123646904 -0.0037519823868269794 -0.0017170205271581352 0.0031258205389407632 0.00036685411778124375 0.0020976241496938816 0.0059432165877602158 0.0075248662469921471 0.018536905764962874
leaf_weight=11786.012854099274 1152.8811287879944 1008.8098182678223 570.09119081497192 270.33957624435425 889.03196048736572 268.81598663330078 280.79483461380005 4676.6801733970642 835.69516038894653 12750.990828990936 1425.5687742233276 3143.7922348976135 8004.5686564445496 4288.8591980934143 615.27050876617432 182.47673416137695
leaf_count=2547 245 206 120 50 175 53 55 974 175 2679 291 637 1616 834 120 33
internal_value=-3.10905e-06 0.00209376 -0.00137615 0.0029049 0.00265693 0.00442558 -0.000560004 -0.000799937 0.000789213 -0.00145776 -1.96633e-05 -0.00106398 0.00158781 0.00544068 0.00447949 0.0108163
internal_weight=52150.7 20635.1 31515.5 14912.9 14460.1 5446.71 19729.5 18833.5 5512.38 13321.1 5722.24 4296.67 9013.38 4557.68 896.065 452.816
internal_count=10810 4140 6670 2967 2884 1062 4123 3948 1149 2799 1173 882 1822 887 175 83
is_linear=0
shrinkage=0.073


Tree=22
num_leaves=17
num_cat=0
split_feature=86 85 86 66 17 41 23 85 59 48 13 44 17 21 51 66
split_gain=17.8457 11.1777 5.09625 6.07873 5.0498 5.02335 4.0137 3.80832 4.61896 3.69395 4.2981 3.61256 3.50397 4.19971 4.37014 3.58516
threshold=2.6125000000000003 2.0500000000000003 1.8166666666666669 -8.4999999999999982 34.756056263499879 0.43636203339596269 3.4127626659093573 2.7888888888888892 1.670542633649664 0.68369947070777071 6.6835646524478722 0.86607142857142871 26.979070658894297 48.845080534510366 0.93972386716860978 -24.499999999999996
decision_type=2 2 2 2 2 2 2 2 2 2 2 2 2 2 2 2
left_child=1 9 -3 -4 5 -5 -6 -2 11 10 -1 -9 13 -11 -15 -14
right_child=7 2 3 4 6 -7 -8 8 -10 12 -12 -13 15 14 -16 -17
leaf_value=0.0085256021832080114 0.0015776643559346193 -0.0020058039902904217 -0.0018262339484938662 0.0018389923770652202 -0.0030369487590392987 0.0077942126083288829 0.000801733170801411 0.0041833841500175549 0.012423307298167279 -0.0071669711229314067 -0.0012337837217330529 -0.0054283182295491294 -0.0082136253379269525 -0.0011740321475820199 0.011205512288271682 -0.0028482738638281233
leaf_weight=325.99364185333252 8548.7913970947266 4896.60862159729 4370.6084232330322 8520.8035864830017 1929.8322381973267 828.62691831588745 5855.2941331863403 3175.6340827941895 344.87936210632324 208.43788194656372 915.27008199691772 222.73077535629272 708.3182544708252 312.25743341445923 295.27645492553711 10691.400728702545
leaf_count=69 1725 1033 920 1741 400 168 1203 608 66 45 195 43 158 68 63 2305
internal_value=-3.16772e-06 -0.000753134 0.000119521 0.000603584 0.00122354 0.00236713 -0.00014946 0.00242846 0.0043707 -0.00246545 0.00132713 0.00355252 -0.00285106 0.00176777 0.00483821 -0.00318193
internal_weight=52150.8 39858.7 26401.8 21505.2 17134.6 9349.43 7785.13 12292 3743.24 13457 1241.26 3398.36 12215.7 815.972 607.534 11399.7
internal_count=10810 8368 5465 4432 3512 1909 1603 2442 717 2903 264 651 2639 176 131 2463
is_linear=0
shrinkage=0.073


Tree=23
num_leaves=17
num_cat=0
split_feature=86 84 86 67 17 17 41 15 20 13 82 35 15 2 1 23
split_gain=16.5472 7.15359 5.82429 6.5639 4.93976 4.2329 5.14821 4.21928 5.2986 3.72395 3.22129 3.18777 3.14369 3.13417 4.14505 3.64638
threshold=2.6125000000000003 2.8452380952380958 1.8166666666666669 -5.4999999999999991 25.817122435804269 34.756056263499879 0.31986887852615603 85.010857346324471 53.693096558539189 4.7885532377842646 0.15759006838303466 1.6144858625508898 72.466839658054383 1.7695188063719558 1.1568511583853498 4.9984146241886194
decision_type=2 2 2 2 2 2 2 2 2 2 2 2 2 2 2 2
left_child=1 2 10 -4 -3 13 -7 8 -6 -8 -1 -10 -2 15 -15 -5
right_child=12 4 3 5 7 6 9 -9 11 -11 -12 -13 -14 14 -16 -17
leaf_value=-0.01029958045716255 0.0054231960352506235 0.014495999451644686 -0.0024789685975079526 -9.2005172426817505e-05 0.00067422250228943448 0.0015620518594994578 0.0051422353404251137 -0.00030069483027734514 0.0044759201448656893 -0.0024236577222938476 -0.002525289763170937 0.01433407928091128 0.0018937994631685504 0.010046262319686085 0.0014706738410349678 0.0034949154279552848
leaf_weight=295.48828506469727 1537.9137840270996 166.80094051361084 7113.8137874603271 7512.3208699226379 826.29923534393311 2998.0877137184143 364.98741245269775 2316.9917874336243 358.41232538223267 6819.479296207428 7487.2269344329834 343.39573907852173 10784.037816524506 457.19491767883301 878.52069616317749 1889.8666567802429
leaf_count=65 293 34 1523 1559 165 625 76 477 70 1432 1606 68 2149 93 183 392
internal_value=-3.2193e-06 -0.000726537 -0.00105402 -0.00056341 0.00219639 8.7822e-05 -0.000978345 0.00166196 0.00463968 -0.00203886 -0.00282088 0.00930414 0.00233456 0.00109912 0.00440833 0.000628675
internal_weight=52150.8 39828.9 35817 28034.3 4011.9 20920.5 10182.6 3845.1 1528.11 7184.47 7782.72 701.808 12322 10737.9 1335.72 9402.19
internal_count=10810 8368 7554 5883 814 4360 2133 780 303 1508 1671 138 2442 2227 276 1951
is_linear=0
shrinkage=0.073


Tree=24
num_leaves=17
num_cat=0
split_feature=88 88 12 90 7 66 16 37 56 45 40 87 43 26 7 50
split_gain=25.0491 6.96522 5.82464 5.64302 5.53038 5.52891 5.15538 5.60049 4.25314 4.20073 4.16466 3.87126 3.94281 3.90085 3.80041 3.75354
threshold=4.925824175824177 3.6961538461538468 4.9482595809080694 14.050000000000002 1.5802025973586431 -6.4999999999999991 27.840121402434217 15.661842294744618 0.28991596638655465 1.0000000180025095e-35 0.43030960385352035 2.3875000000000006 0.25972946061782121 1.5633302243414764 1.9132814442300325 0.77572091222035311
decision_type=2 2 2 2 2 2 2 2 2 2 2 2 2 2 2 2
left_child=1 14 -3 6 -5 -2 -4 -8 -7 11 -6 -10 15 -14 -1 -13
right_child=5 2 3 4 10 8 7 -9 9 -11 -12 12 13 -15 -16 -17
leaf_value=-0.0051240974775848651 0.00023388899448900123 0.0029575483482746291 0.0015753011916051121 -0.00013665043994248315 0.0035860109108831854 0.0020858749642180541 -0.0015211956603689246 -0.0060870319462644181 0.0034123587280454632 0.0028752647912921956 0.015990889006772212 0.021301359436375972 0.013706698768868915 0.0025295702583582247 0.0046250070019553981 0.0097316064031839223
leaf_weight=2797.9929013252258 4169.677206993103 2141.0526514053345 2641.93816614151 5318.3119082450867 1165.3805975914001 6159.9619693756104 21009.15096950531 1536.8846726417542 896.24815130233765 2464.601667881012 164.8217077255249 225.71513652801514 241.03779125213623 540.17111825942993 230.30601167678833 447.6231894493103
leaf_count=612 849 438 552 1091 235 1215 4458 337 177 483 33 43 46 105 49 87
internal_value=-3.24541e-06 -0.0010268 -0.000727705 -0.000975638 0.00091578 0.00249755 -0.00147501 -0.00183257 0.00335727 0.00498303 0.00512562 0.00719152 0.00951799 0.00598238 -0.00438166 0.0136152
internal_weight=52150.9 37005.8 33977.5 31836.5 6648.51 15145 25188 22546 10975.4 4815.4 1330.2 2350.8 1454.55 781.209 3028.3 673.338
internal_count=10810 7805 7144 6706 1359 3005 5347 4795 2156 941 268 458 281 151 661 130
is_linear=0
shrinkage=0.073


Tree=25
num_leaves=17
num_cat=0
split_feature=85 86 66 86 80 17 71 15 7 18 32 5 85 15 7 26
split_gain=15.6346 8.30037 5.50969 4.8203 5.48348 4.22305 4.59724 4.16064 4.12561 3.95052 5.78159 3.84558 3.59165 3.41964 3.57673 3.37907
threshold=2.5277777777777781 2.3875000000000006 -15.499999999999998 2.7750000000000004 1.7750000000000001 29.381487486684104 9.5000000000000018 72.717214586758132 1.6689807174333253 21.31136947910932 1.2418095097514616 1.5907894142635601 2.0500000000000003 76.455826261258608 1.5853293030007143 2.0040371475060281
decision_type=2 2 2 2 2 2 2 2 2 2 2 2 2 2 2 2
left_child=1 8 15 13 -5 -4 -7 -6 12 -10 -11 -9 -1 14 -2 -3
right_child=3 2 5 4 7 6 -8 11 9 10 -12 -13 -14 -15 -16 -17
leaf_value=-0.003170281398278543 0.0016009046532039059 -0.0048161115093847892 0.0038394209982510136 0.011691038385783782 0.0082397507236923687 0.0022799261765320527 -0.00089637983721148329 0.00089572279514497921 -0.0013257311635394547 0.012863502412289283 0.0012413731070585546 0.0077073885328164601 -0.0011660333974029273 0.00036304007890451521 0.007184890724275271 0.0038189021879364441
leaf_weight=8970.4965515136719 2023.0046529769897 1400.4331893920898 2434.4622783660889 446.07648372650146 700.5500864982605 4207.8187298774719 5740.2544474601746 2666.6895670890808 2288.8467559814453 285.30744791030884 1140.9080500602722 529.68206930160522 10176.687321662903 7971.0745344161987 877.22575807571411 291.41657114028931
leaf_count=1960 395 299 495 84 128 864 1178 513 486 60 242 104 2163 1607 171 61
internal_value=-3.28619e-06 -0.000814552 0.000580016 0.00196608 0.00402213 0.00111408 0.000446838 0.00314344 -0.0016732 0.000552441 0.00356861 0.00202549 -0.00210518 0.00114442 0.00329095 -0.00332698
internal_weight=52150.9 36936.6 14074.4 15214.3 4343 12382.5 9948.07 3896.92 22862.2 3715.06 1426.22 3196.37 19147.2 10871.3 2900.23 1691.85
internal_count=10810 7808 2897 3002 829 2537 2042 745 4911 788 302 617 4123 2173 566 360
is_linear=0
shrinkage=0.073


Tree=26
num_leaves=17
num_cat=0
split_feature=88 88 84 88 15 66 86 49 82 82 79 20 57 30 41 20
split_gain=22.7015 5.47069 5.45618 5.0605 4.27435 4.12244 5.04115 3.67841 3.55445 3.26455 3.24316 3.61969 4.61548 3.09377 3.22103 3.17147
threshold=4.6583333333333341 5.3038461538461545 2.8819444444444451 3.6961538461538468 110.66202294393035 -4.4999999999999991 1.8166666666666669 0.54975385229762241 0.27607120009832986 0.29573440952231372 1.4500000000000002 58.21559776960266 0.2766264025997916 2.4043302794160901 0.31768723308550428 52.838016633510669
decision_type=2 2 2 2 2 2 2 2 2 2 2 2 2 2 2 2
left_child=2 4 3 -1 9 -5 8 -3 -7 -2 11 12 -9 14 -8 -15
right_child=1 7 -4 5 -6 6 13 10 -10 -11 -12 -13 -14 15 -16 -17
leaf_value=-0.0044512006078049997 0.00086179549934683195 -0.0028867706251236754 0.0020055513520846457 -0.0026229364226070932 -0.0032241814179687052 -0.0040101408482711536 0.001571087028547274 0.019716855073218496 0.0021388975727299662 0.0047334017846220105 0.0032260811267358562 8.3314652897452813e-05 0.0042325551629298431 0.013563366545016949 -0.0009384713222569044 0.002049325299933701
leaf_weight=2865.0447611808777 9852.578727722168 488.01211977005005 2514.9078164100647 7762.954418182373 1224.6217522621155 3095.2927217483521 3775.2030386924744 222.9760308265686 597.01050615310669 1316.2149624824524 7529.812726020813 176.72345113754272 191.06505060195923 164.06265306472778 9798.947765827179 575.53478145599365
leaf_count=630 1998 96 516 1680 261 667 786 42 129 258 1466 34 36 34 2057 120
internal_value=-3.30622e-06 0.00185149 -0.00125399 -0.00154038 0.00086923 -0.00121663 -0.000610157 0.00326527 -0.0030151 0.00131833 0.00363535 0.00884641 0.0125794 1.00111e-05 -0.000240303 0.00460789
internal_weight=52151 21002 31149 28634.1 12393.4 25769 18006.1 8608.59 3692.3 11168.8 8120.58 590.765 414.041 14313.7 13574.2 739.597
internal_count=10810 4191 6619 6103 2517 5473 3793 1674 796 2256 1578 112 78 2997 2843 154
is_linear=0
shrinkage=0.073


Tree=27
num_leaves=17
num_cat=0
split_feature=85 84 17 64 12 17 13 85 1 28 15 2 12 54 2 10
split_gain=13.9404 4.64353 8.46075 6.15551 4.22996 5.54517 4.01573 4.7152 4.43812 5.17681 3.84643 3.38392 3.59013 3.39565 3.344 3.13148
threshold=2.5277777777777781 2.8452380952380958 25.817122435804269 0.48684210526315791 4.922892881056824 35.431520124593597 7.6162272131868516 1.8660714285714288 1.5413000719560039 1.4367164201652822 77.847916270052579 0.84988037576647246 5.2458883390248889 -0.47738095238095229 1.4110857056153054 6.804886651549455
decision_type=2 2 2 2 2 2 2 2 2 2 2 2 2 2 2 2
left_child=1 3 -3 4 5 -1 8 -8 15 -10 -2 -12 13 -13 -9 -6
right_child=10 2 -4 -5 6 -7 7 14 9 -11 11 12 -14 -15 -16 -17
leaf_value=0.0094142545599624483 0.0035970013415234084 0.016915163353258971 0.0008659649059591934 -0.0020906811494171189 0.0014375969350728475 -0.0010997329728154933 -0.0071611027897529825 -0.0037352015996165956 0.0033104070759080641 -0.0030015327617758667 -0.0044500869436268223 -0.0042188705433428382 0.00080062112691578881 0.0059547511895206027 0.001573861086734418 -0.0060923619641091503
leaf_weight=554.64315032958984 4673.2892498970032 183.92472457885742 3628.6113843917847 15796.78751707077 8210.6073904037476 515.1193208694458 895.99494123458862 1225.9080066680908 869.03400182723999 3400.9852271080017 557.91539859771729 200.64585304260254 8485.7385144233704 1342.1215844154358 1304.5754179954529 305.0934944152832
leaf_count=113 894 37 740 3369 1730 106 194 259 185 735 112 39 1696 261 276 64
internal_value=-3.32839e-06 -0.000770994 0.00164112 -0.00104909 -9.68483e-05 0.00434888 -0.000390388 -0.00260977 0.000204167 -0.00171623 0.00185236 0.00108191 0.00138998 0.00462966 -0.000997008 0.00116745
internal_weight=52151 36891.3 3812.54 33078.7 17282 1069.76 16212.2 3426.48 12785.7 4270.02 15259.7 10586.4 10028.5 1542.77 2530.48 8515.7
internal_count=10810 7808 777 7031 3662 219 3443 729 2714 920 3002 2108 1996 300 535 1794
is_linear=0
shrinkage=0.073


Tree=28
num_leaves=17
num_cat=0
split_feature=86 90 86 30 59 37 1 81 13 7 12 11 6 43 49 15
split_gain=12.9685 8.19284 5.47687 5.3738 4.2666 4.1227 3.74458 3.48229 3.41434 3.30193 3.17256 3.1384 3.5067 3.10407 3.16884 2.93317
threshold=2.6125000000000003 11.816666666666668 2.0500000000000003 1.5342031062637254 1.5518291149655137 14.133781139855637 0.88336423910191264 0.74353446132558532 6.1848931973857573 0.57873197238972174 7.0112332764478955 3.4108236508118877 1.416852695970092 0.088511898750908716 0.56416180851673936 72.466839658054383
decision_type=2 2 2 2 2 2 2 2 2 2 2 2 2 2 2 2
left_child=1 3 7 5 11 -1 8 -3 -4 -2 -8 -5 -13 -12 -15 -11
right_child=9 2 6 4 -6 -7 10 -9 -10 15 13 12 -14 14 -16 -17
leaf_value=-0.0023825406788390126 0.010758473393964255 -0.001079772828082654 0.013339771821279987 -0.0068134094177792776 0.0040660136735650399 -0.0064500193271297065 0.0013814552434886346 -0.010635619246740391 0.0030657613726159686 0.0048585623326744829 0.0032630353837295001 0.00062498047863624655 -0.0046084056304970273 -0.007803159895435321 -0.0010199203951781019 0.0014600097394928814
leaf_weight=7572.0617170333862 228.20479440689087 8646.9349851608276 213.3803858757019 471.2774772644043 1013.8950939178467 1611.9460339546204 10220.880362033844 208.16898250579834 904.14937925338745 1551.9343819618225 803.56742191314697 3131.6838827133179 872.1569938659668 408.12549877166748 3661.3965287208557 10631.270153522491
leaf_count=1645 45 1825 42 101 215 361 2085 45 182 291 163 671 190 86 757 2106
internal_value=-3.35542e-06 -0.000646744 0.000155086 -0.00201674 -0.000209109 -0.00309679 0.000952682 -0.00130478 0.00503042 0.00205645 0.00065057 -0.00117837 -0.000514308 -0.000881799 -0.00170098 0.00189318
internal_weight=52151 39739.6 25066.6 14673 5489.01 9184.01 16211.5 8855.1 1117.53 12411.4 15094 4475.12 4003.84 4873.09 4069.52 12183.2
internal_count=10810 8368 5185 3183 1177 2006 3315 1870 224 2442 3091 962 861 1006 843 2397
is_linear=0
shrinkage=0.073


Tree=29
num_leaves=17
num_cat=0
split_feature=88 88 83 83 84 30 57 37 64 65 34 64 65 84 49 66
split_gain=20.3712 7.43796 4.56986 4.10788 4.26542 3.64078 3.52579 3.49274 3.62523 3.40071 3.62004 3.2964 4.78572 3.79956 4.02933 3.59153
threshold=4.5477272727272737 5.3038461538461545 0.29373333429790432 0.50849976299503463 2.8452380952380958 1.2221947942348528 0.34873053125666748 15.292615169068371 0.48684210526315791 2.4912143040905588 1.3683631860793064 0.4032507739938081 2.9425824175824182 2.683333333333334 0.83524549001238113 -6.4999999999999991
decision_type=2 2 2 2 2 2 2 2 2 2 2 2 2 2 2 2
left_child=3 2 5 4 -1 -2 -7 8 -4 10 -3 15 13 -13 -15 -11
right_child=1 9 7 -5 -6 6 -8 -9 -10 11 -12 12 -14 14 -16 -17
leaf_value=-0.0016353313440838132 0.0060961978840483556 0.0084513322856890911 0.0012379422425398145 -0.0048629290181464958 0.0025124804738069183 0.00099088320266271204 0.01076142136468595 -0.003795568867453033 -0.001187003891435838 -0.00046590701250043422 -0.00089314600033395892 0.0014609826965394032 -0.0040781548840831414 0.00142404291764013 0.0084575434926463279 0.0074993909401288202
leaf_weight=19252.126353740692 1044.5830183029175 254.68180370330811 7385.8593125343323 1942.0948362350464 1417.9940338134766 5025.8043446540833 204.89863204956055 1306.9122891426086 5916.9118218421936 361.15691900253296 1664.1678404808044 2181.4983186721802 492.47086334228516 678.09393358230591 1211.4716153144836 1810.3227124214172
leaf_count=4117 207 49 1530 436 289 1008 41 282 1226 72 322 425 98 130 231 347
internal_value=-3.36556e-06 0.00125891 0.000513083 -0.00165244 -0.00135064 0.00216075 0.00137424 -0.000194441 0.000159136 0.00305853 0.000345714 0.00383099 0.00271578 0.00353837 0.0059351 0.00617328
internal_weight=52151 29538.8 20885 22612.2 20670.1 6275.29 5230.7 14609.7 13302.8 8653.86 1918.85 6735.01 4563.53 4071.06 1889.57 2171.48
internal_count=10810 5968 4294 4842 4406 1256 1049 3038 2756 1674 371 1303 884 786 361 419
is_linear=0
shrinkage=0.073


Tree=30
num_leaves=17
num_cat=0
split_feature=85 66 89 47 16 27 29 8 47 35 82 11 52 46 85 29
split_gain=12.0275 5.23369 5.22516 4.07088 4.01292 3.35972 4.2141 6.05208 4.4407 3.3308 3.2499 3.14775 2.995 2.92332 2.8786 2.83907
threshold=2.5277777777777781 -24.499999999999996 14.535714285714286 1.0449842553227324 37.35194176425378 1.2494753301908263 2.1895384711273511 11.594819610886971 0.81667304120187834 1.2520297385882972 0.15210006492706421 3.4486820391231672 1.1426634724865954 8.5000000000000018 1.6833333333333336 2.0040371475060281
decision_type=2 2 2 2 2 2 2 2 2 2 2 2 2 2 2 2
left_child=1 3 4 -1 -3 11 9 8 -8 -7 -6 -2 -9 -12 -15 -11
right_child=5 2 -4 -5 10 6 7 12 -10 15 13 -13 -14 14 -16 -17
leaf_value=-0.0058644025451148442 0.0023456386419866736 -0.00029396011191984569 0.001608269012565321 0.0033825380362395882 -0.010075355495038095 0.0060033341818754781 0.0035555407411583381 0.00063763039901423867 0.011639262251569501 0.0014323534062607385 -0.0030478557853307357 -0.0035569501631482212 0.010050963272214849 -0.0063885229752907871 0.00012136824205743586 -0.002762493860681317
leaf_weight=1626.5248980522156 826.45093584060669 19879.955487251282 5252.3586759567261 300.15110445022583 265.06796455383301 767.00039768218994 674.79229307174683 1687.9596452713013 784.95936822891235 8260.1801080703735 5182.2030296325684 1152.23876953125 201.73665809631348 398.56839513778687 3931.6974759101868 959.23278141021729
leaf_count=361 160 4202 1087 65 58 147 132 331 150 1626 1110 227 40 88 837 189
internal_value=-3.38595e-06 -0.000718253 -0.000513739 -0.0044223 -0.000889648 0.00171591 0.00213247 0.00437356 0.0079046 0.0013805 -0.00210051 -0.00109011 0.00164426 -0.00187795 -0.000477188 0.000995576
internal_weight=52151.1 36836.5 34909.9 1926.68 29657.5 15314.6 13335.9 3349.45 1459.75 9986.41 9777.54 1978.69 1889.7 9512.47 4330.27 9219.41
internal_count=10810 7808 7382 426 6295 3002 2615 653 282 1962 2093 387 371 2035 925 1815
is_linear=0
shrinkage=0.073


Tree=31
num_leaves=17
num_cat=0
split_feature=86 85 89 47 13 17 48 24 13 17 21 36 72 66 17 48
split_gain=11.3214 7.92895 3.87089 3.7524 3.71802 3.27463 3.21981 6.10271 3.89612 3.17454 3.83728 3.16062 3.09922 3.3635 3.19602 3.04586
threshold=2.6125000000000003 2.0500000000000003 9.2250000000000014 0.79165842702002587 5.4549970897585327 30.215578653716261 0.68369947070777071 49.373457091817166 6.8322308727395358 26.979070658894297 48.845080534510366 13.85201469811733 0.20485 -23.499999999999996 33.047183289899252 0.94296624465270074
decision_type=2 2 2 2 2 2 2 2 2 2 2 2 2 2 2 2
left_child=1 6 -3 4 5 -4 7 8 -1 10 -8 -12 15 -14 -15 -5
right_child=-2 2 3 12 -6 -7 9 -9 -10 -11 11 -13 13 14 -16 -17
leaf_value=0.015439575846494649 0.0019165478177227699 -0.0043446108849058045 -0.0065709224133852625 0.0017566141626460397 -0.0018879720952153806 0.0048392449672117147 -0.006648802914142893 -0.0037206406179992597 0.0028128879510060404 -0.002741537674814941 -8.9256889703051386e-05 0.010454769912517167 -0.004210781592615398 0.0028726127751964336 0.00065162254420439002 -0.0027738112594892588
leaf_weight=184.93933963775635 12456.902328968048 993.07177019119263 159.97870635986328 1232.9992141723633 5740.196967124939 820.70925283432007 204.78869342803955 608.23824405670166 442.81582832336426 11249.899385452271 319.03909969329834 287.51936769485474 571.97534322738647 5564.0184478759766 9111.4810099601746 2202.5031147003174
leaf_count=39 2442 212 34 252 1202 169 45 130 95 2463 70 61 123 1132 1882 459
internal_value=-3.38463e-06 -0.000605976 0.00012619 0.00030108 -0.00117797 0.00297478 -0.00205965 0.00148736 0.00653803 -0.00242338 0.00198446 0.00490428 0.000833301 0.00127969 0.00149388 -0.00114699
internal_weight=52151.1 39694.2 26396.9 25403.9 6720.88 980.688 13297.2 1235.99 627.755 12061.2 811.347 606.558 18683 15247.5 14675.5 3435.5
internal_count=10810 8368 5465 5253 1405 203 2903 264 134 2639 176 131 3848 3137 3014 711
is_linear=0
shrinkage=0.073


Tree=32
num_leaves=17
num_cat=0
split_feature=88 88 90 90 17 81 87 88 47 12 21 12 6 41 41 7
split_gain=18.1277 4.83721 4.51632 4.22143 4.16996 4.58574 4.00431 3.86711 3.84816 3.32375 4.46834 3.93403 3.94141 3.36036 3.61531 3.28495
threshold=4.6583333333333341 3.6306818181818183 12.950000000000001 11.225000000000001 32.100956647668504 0.19929759389515567 2.7888888888888892 5.2899159663865554 0.98452538778323373 6.609271332669814 48.238041879558587 6.2320728989322456 1.4342130071922468 0.40522182452209987 0.36626955232630137 1.9132814442300325
decision_type=2 2 2 2 2 2 2 2 2 2 2 2 2 2 2 2
left_child=1 15 4 8 5 -3 -7 -5 -2 10 13 -12 -13 14 -9 -1
right_child=3 2 -4 7 -6 6 -8 9 -10 -11 11 12 -14 -15 -16 -17
leaf_value=-0.0049489633006470938 -0.0025309490292059564 -0.0058653919984863441 0.0003062272224363468 0.0011380500335376987 -0.0024194536028085511 0.00133682909105526 -0.0046269140349565266 0.00064873288778267697 0.0022108070801637827 0.0013130702420229554 0.0042804457766231025 0.012735725792660284 0.0015416235458305364 0.0079003225523155141 -0.011242294176332799 0.0048591162177836792
leaf_weight=2334.5675902366638 2206.1237516403198 651.17311668395996 10980.785362243652 9520.1038599014282 11280.893650054932 4907.6889886856079 683.37972688674927 447.027099609375 1554.3843488693237 2804.190306186676 3321.1212205886841 640.72121381759644 227.85111093521118 198.33773708343506 195.70562314987183 197.03114604949951
leaf_count=520 463 148 2275 1911 2447 1043 144 86 318 542 629 121 44 38 39 42
internal_value=-3.39143e-06 -0.00112607 -0.000854335 0.00164658 -0.00158176 -6.7425e-05 0.000607353 0.00212708 -0.000570193 0.00332844 0.00445123 0.00542604 0.00980273 -0.000401254 -0.00296781 -0.00418441
internal_weight=52151.1 31035.5 28503.9 21115.6 17523.1 6242.24 5591.07 17355.1 3760.51 7834.95 5030.76 4189.69 868.572 841.07 642.733 2531.6
internal_count=10810 6619 6057 4191 3782 1335 1187 3410 781 1499 957 794 165 163 125 562
is_linear=0
shrinkage=0.073


Tree=33
num_leaves=17
num_cat=0
split_feature=88 88 83 7 3 88 90 14 90 64 12 42 12 79 42 42
split_gain=17.0401 6.06172 3.98387 4.09347 3.70186 3.96641 3.39326 3.59496 3.29769 3.39694 4.07882 3.3931 3.26814 3.34885 3.46974 3.22165
threshold=4.5477272727272737 5.3038461538461545 0.29373333429790432 2.2067841035311293 1.8791313246469807 3.6055555555555561 12.950000000000001 71.348105911915511 10.267857142857144 0.48684210526315791 4.922892881056824 0.51934688207683799 8.6094224480627695 1.4500000000000002 0.092715930566970264 0.37322367968742853
decision_type=2 2 2 2 2 2 2 2 2 2 2 2 2 2 2 2
left_child=4 2 3 -2 5 -1 -7 -8 -4 10 -10 -12 13 -3 -15 -6
right_child=1 12 8 -5 15 6 7 -9 9 -11 11 -13 -14 14 -16 -17
leaf_value=-0.0046898926955398455 0.0016622218019420639 0.0081623218591501765 -0.0033182747339316702 0.01206831019781299 0.00014903755437241066 -0.0021757454419641226 0.0075122450592429654 -0.00049468429570903951 0.0081237409688532485 -0.0011455070207487279 0.0011694506486688936 -0.0063407241256490041 -0.0051701242179518986 -0.0012757535814423601 0.0032134600538581298 0.008023985848246604
leaf_weight=2239.0749773979187 6092.088095664978 624.51940011978149 1598.3027563095093 208.42057943344116 1385.7253041267395 11887.900480747223 313.52605485916138 6351.5399966239929 430.94177150726318 5674.938277721405 6566.3782277107239 336.91501808166504 267.85486173629761 1060.3857073783875 6766.4126091003418 346.17537117004395
leaf_count=501 1215 116 347 41 290 2589 64 1326 87 1175 1358 71 54 208 1296 72
internal_value=-3.40088e-06 0.00114709 0.000472614 0.00200698 -0.00151684 -0.00178701 -0.00143651 -0.000117563 -0.000188993 0.000195253 0.00123308 0.000802465 0.0027641 0.00301593 0.00260488 0.00172491
internal_weight=52151.1 29627.2 20908 6300.51 22523.9 20792 18553 6665.07 14607.5 13009.2 7334.24 6903.29 8719.17 8451.32 7826.8 1731.9
internal_count=10810 5968 4294 1256 4842 4480 3979 1390 3038 2691 1516 1429 1674 1620 1504 362
is_linear=0
shrinkage=0.073


Tree=34
num_leaves=17
num_cat=0
split_feature=88 88 85 11 18 64 12 50 21 12 29 8 28 82 26 34
split_gain=15.8325 5.6047 3.63197 3.54776 3.62685 3.4421 4.34007 5.01318 3.29067 3.59314 3.28495 3.85041 3.16035 3.15334 4.33016 3.6916
threshold=4.5477272727272737 5.3038461538461545 1.8944444444444446 6.8577433813209181 12.198338321684291 0.33281733746130032 5.6635363332019137 0.59895115841441393 48.238041879558587 6.609271332669814 2.2430667579928079 11.33718261070913 1.4011038887094069 0.12488393653904571 1.9558335726026537 2.0705513666654274
decision_type=2 2 2 2 2 2 2 2 2 2 2 2 2 2 2 2
left_child=2 3 -1 4 -2 6 7 -6 12 10 -10 -12 -3 -4 15 -15
right_child=1 8 13 -5 5 -7 -8 -9 9 -11 11 -13 -14 14 -16 -17
leaf_value=-0.0032065322758376542 -0.0053526339663838704 -0.0071461192974934589 -0.0082345229470668687 -0.0041791597936510078 0.017469691801008335 5.2857287767852786e-05 0.0011116109907252172 0.0040181688335122869 0.0036570325656174714 0.0010930945997012094 0.015723656069307271 0.0048750968171649145 0.0012231377317446905 -0.0011581291936226482 0.00085675048103382918 -0.0051936361101962095
leaf_weight=4968.4982919692993 522.23600244522095 301.09170007705688 312.79011154174805 844.5504903793335 164.36028814315796 12129.190139293671 5791.1001901626587 1466.4903535842896 3951.0350923538208 2552.90003490448 279.43691205978394 466.76071643829346 1192.111882686615 10363.694319248199 5476.768150806427 1368.0962991714478
leaf_count=1106 109 60 69 182 32 2479 1197 295 751 494 51 87 231 2218 1156 293
internal_value=-3.40884e-06 0.00110409 -0.00146419 0.000455159 0.000650292 0.000810795 0.00204904 0.00537596 0.00265627 0.00329903 0.00449729 0.00894211 -0.000462616 -0.000969942 -0.000837712 -0.00162899
internal_weight=52151.1 29661.3 22489.8 20917.9 20073.4 19551.1 7421.95 1630.85 8743.34 7250.13 4697.23 746.198 1493.2 17521.3 17208.6 11731.8
internal_count=10810 5968 4842 4294 4112 4003 1524 327 1674 1383 889 138 291 3736 3667 2511
is_linear=0
shrinkage=0.073


Tree=35
num_leaves=17
num_cat=0
split_feature=85 86 90 83 17 90 42 2 45 64 42 44 20 79 48 29
split_gain=9.35678 5.50868 3.78162 4.10094 3.74235 3.73555 3.84254 3.67811 3.62856 3.53956 3.46529 3.08063 4.3154 3.02601 2.9977 3.52626
threshold=2.5277777777777781 2.3875000000000006 10.267857142857144 0.073664839888131453 25.611674775965181 17.450000000000003 0.067108299589693915 0.84988037576647246 -0.38749999999999996 0.58359133126935003 0.37746327457634377 0.64642857142857157 54.298759420944187 2.3666666666666671 0.94809071173909054 2.9797676179631041
decision_type=2 2 2 2 2 2 2 2 2 2 2 2 2 2 2 2
left_child=1 2 11 -4 13 6 8 -8 -2 -3 -11 -1 -13 -5 -6 -16
right_child=5 9 3 4 14 -7 7 -9 -10 10 -12 12 -14 -15 15 -17
leaf_value=-0.0042936639144640935 0.0028249231119275046 0.0014162957967966963 -0.0093260230749945515 -0.00026513949487635058 0.00017880960025917566 0.0071179475785216407 -0.0033372652813468033 0.0020025216686379499 -0.0042919932285427013 -0.0020376375994336487 0.002166025490872526 0.010408255380443553 -0.0028800068699543057 0.01160284500943232 -0.0019696017546542766 0.0057970678236453866
leaf_weight=3282.6565070152283 567.84689712524414 8635.8041524887085 303.78152751922607 225.25486469268799 7466.3335785865784 607.57782506942749 727.57555055618286 12333.488746166229 1162.7513670921326 4064.7596879005432 1406.0795068740845 192.36888742446899 402.5988917350769 231.80499601364136 10219.325671672821 321.1081280708313
leaf_count=738 115 1767 68 48 1592 108 145 2402 232 843 287 42 89 49 2216 69
internal_value=-3.4129e-06 -0.000636411 -0.00134184 -0.000912824 -0.000774228 0.00150711 0.00127643 0.00170483 -0.00195508 0.000495794 -0.000956699 -0.00341747 0.00141187 0.00574791 -0.00093995 -0.0017327
internal_weight=52151.1 36751.9 22645.2 18767.6 18463.8 15399.2 14791.7 13061.1 1730.6 14106.6 5470.84 3877.62 594.968 457.06 18006.8 10540.4
internal_count=10810 7808 4911 4042 3974 3002 2894 2547 347 2897 1130 869 131 97 3877 2285
is_linear=0
shrinkage=0.073


Tree=36
num_leaves=17
num_cat=0
split_feature=88 15 85 83 18 58 44 88 21 83 16 23 16 42 41 14
split_gain=14.4621 4.45097 4.11567 3.73395 3.32446 3.24138 3.1734 3.13968 3.87884 3.124 3.39817 3.52368 3.18335 3.11496 3.01728 2.84547
threshold=4.6583333333333341 110.66202294393035 2.9500000000000006 0.51364904073314244 12.400005881928445 0.058285160585648553 0.90833333333333344 5.2899159663865554 53.280059766406687 0.069302833527045762 27.840121402434217 5.4514204302899145 25.170553056229561 0.50340259611687144 0.43908607338148781 68.887997870954038
decision_type=2 2 2 2 2 2 2 2 2 2 2 2 2 2 2 2
left_child=2 4 3 9 -2 -4 7 15 14 -1 11 12 -11 -10 -9 -6
right_child=1 -3 5 -5 6 -7 -8 8 13 10 -12 -13 -14 -15 -16 -17
leaf_value=-0.0069095201013481536 -0.0039155497818823782 -0.0017018138581379868 -0.0061273485947248504 -0.004134019034126077 0.0057682783485906398 0.0036910159266717005 -0.0029479650336736514 0.00071755468356977947 0.0040838767768643256 -0.0051288496783562414 -0.001128647736824657 0.0072029986054728198 0.00204174649905009 0.010570519516261671 0.0076609192179387733 0.00098822991572140406
leaf_weight=465.35740423202515 523.85824251174927 2127.8231086730957 203.66647052764893 2159.4073762893677 713.96001052856445 1478.5022749900818 670.84577417373657 3096.1962647438049 3789.7718133926392 436.38399839401245 24334.748128414154 503.91173458099365 1351.5452942848206 441.16149711608887 373.97429943084717 9479.99285364151
leaf_count=102 105 442 40 493 143 287 131 597 714 92 5216 105 284 82 71 1906
internal_value=-3.4058e-06 0.00146436 -0.00101025 -0.00121225 0.00181743 0.00250044 0.00197936 0.00216424 0.00327698 -0.000979251 -0.000875488 0.00181126 0.000289907 0.00476101 0.00146674 0.00132332
internal_weight=52151.1 21217.6 30933.5 29251.4 19089.8 1682.17 18565.9 17895.1 7701.1 27091.9 26626.6 2291.84 1787.93 4230.93 3470.17 10194
internal_count=10810 4191 6619 6292 3749 327 3644 3513 1464 5799 5697 481 376 796 668 2049
is_linear=0
shrinkage=0.073


Tree=37
num_leaves=17
num_cat=0
split_feature=88 66 88 56 16 57 84 3 88 18 90 42 41 3 20 42
split_gain=13.5663 4.9679 4.08317 3.66945 4.00972 5.08428 3.45071 3.36227 3.62463 3.35528 2.97619 2.95632 3.44621 2.93945 2.77741 3.22691
threshold=4.5477272727272737 -6.4999999999999991 5.1464285714285731 0.28991596638655465 27.922159412415329 0.2223711647304141 3.4142857142857146 1.8791313246469807 3.6055555555555561 12.198338321684291 12.950000000000001 0.37322367968742853 0.29505413826204885 1.7073049144733317 50.452858132372121 0.11424295148621967
decision_type=2 2 2 2 2 2 2 2 2 2 2 2 2 2 2 2
left_child=7 -2 6 -4 -5 -6 9 8 -1 -3 -10 12 -9 -7 15 -11
right_child=1 2 3 4 5 13 -8 11 10 14 -12 -13 -14 -15 -16 -17
leaf_value=-0.0044059829963618291 -0.00060646084279864442 -0.0067004059307700968 0.0015000205312929629 -0.0019559624737096825 0.013498186685231322 0.0035683731724034805 0.0089312426846242451 0.0081705810742203743 -0.0019779133994246062 -0.0017707754195243383 -4.714613418544925e-05 0.0077397907136770566 -0.0014528160260089799 0.010929770177605864 0.00018715877807216769 0.0036904813600305789
leaf_weight=2219.1123647689819 7491.7221651077271 323.72376012802124 4677.6300129890442 436.4510064125061 374.11137533187866 2471.2000341415405 272.98024606704712 239.85809278488159 11819.280089378357 724.15931797027588 6652.1022176742554 348.41200733184814 1143.4010415077209 327.9473557472229 9812.6185121536255 2816.3884468078613
leaf_count=501 1549 68 893 83 70 466 53 49 2589 147 1390 72 241 61 2009 569
internal_value=-3.39986e-06 0.00101906 0.00156683 0.00285036 0.00459935 0.0055019 0.000804102 -0.00135918 -0.00161787 0.000641655 -0.00128275 0.00172994 0.000213932 0.00443199 0.000819885 0.00257264
internal_weight=52151.1 29728.9 22237.2 8287.34 3609.71 3173.26 13949.9 22422.2 20690.5 13676.9 18471.4 1731.67 1383.26 2799.15 13353.2 3540.55
internal_count=10810 5968 4419 1573 680 597 2846 4842 4480 2793 3979 362 290 527 2725 716
is_linear=0
shrinkage=0.073


Tree=38
num_leaves=17
num_cat=0
split_feature=90 20 90 39 14 0 59 28 37 13 41 66 25 56 15 54
split_gain=6.86786 4.6282 4.6403 7.13301 4.35906 3.86203 3.94487 4.38336 3.34591 3.00647 3.7205 3.16886 2.98062 3.21869 2.90446 3.52549
threshold=11.816666666666668 75.166979576352631 16.225000000000005 -0.38227965035463146 70.797474935129614 1.1205727957742748 1.5546410303106597 1.9878145139428209 15.583569022555201 7.6162272131868516 0.42086316043240085 -6.4999999999999991 47.764423523590274 0.34166666666666673 74.737171086737945 -0.066666666666666693
decision_type=2 2 2 2 2 2 2 2 2 2 2 2 2 2 2 2
left_child=5 2 4 -4 -2 8 7 12 -1 10 11 -6 13 -7 15 -5
right_child=1 -3 3 14 9 6 -8 -9 -10 -11 -12 -13 -14 -15 -16 -17
leaf_value=-0.0023066383047432456 0.0035651139151399477 -0.0062578931864914625 0.018097623818025099 0.013304671826697529 -0.0014913453883307285 -0.0042654375714412792 0.0020857377852059834 -0.0036624805925691917 -0.0091677294575651519 -0.0014356487258306986 0.0028444541587106702 0.0006786426178752859 0.00064015810798159723 0.002642104929913736 0.00068306675193484736 0.0028574804122452396
leaf_weight=4679.7837781906128 2255.0562772750854 516.09416389465332 173.2064094543457 254.77831315994263 4584.718165397644 1531.5184383392334 2545.8270988464355 2679.2187309265137 412.51794338226318 4801.7403650283813 3293.7303676605225 16460.287841320038 5576.2028412818909 469.16081476211548 1383.4770841598511 533.77505588531494
leaf_count=1022 449 106 32 45 957 330 538 586 95 990 669 3328 1195 100 272 96
internal_value=-3.39685e-06 0.000602006 0.000707026 0.00383945 0.000472939 -0.00116255 -0.000485885 -0.00112452 -0.00286307 0.000233545 0.000562978 0.000205764 -0.000226684 -0.00264414 0.00270084 0.00623704
internal_weight=52151.1 34256.9 33740.8 2345.24 31395.5 17894.2 12801.9 10256.1 5092.3 29140.5 24338.7 21045 7576.88 2000.68 2172.03 788.553
internal_count=10810 6944 6838 445 6393 3866 2749 2211 1117 5944 4954 4285 1625 430 413 141
is_linear=0
shrinkage=0.073


Tree=39
num_leaves=17
num_cat=0
split_feature=88 88 56 17 23 90 19 54 30 37 39 13 36 66 71 25
split_gain=12.3535 4.29585 3.9477 3.73474 4.93658 4.11126 3.60598 4.1402 3.98332 3.50906 3.42838 3.2756 3.20943 3.12164 3.03236 2.89283
threshold=4.925824175824177 3.6961538461538468 0.28991596638655465 34.756056263499879 5.8047312841993266 14.050000000000002 26.26025758739058 -0.72916666666666652 1.806482742921155 15.781363631219827 0.016373093295149754 7.8332189037401285 8.9978511528535492 -23.499999999999996 7.5000000000000009 38.196690836565054
decision_type=2 2 2 2 2 2 2 2 2 2 2 2 2 2 2 2
left_child=1 -1 -2 4 9 10 7 -4 -8 -3 -5 14 -12 -6 -7 -9
right_child=2 3 6 5 13 11 8 15 -10 -11 12 -13 -14 -15 -16 -17
leaf_value=-0.0034096319940103703 0.00076992188990885246 7.9208156742448466e-05 0.013649475676262401 -0.0031379627329085201 -0.0041395367123807751 0.0048518921455607518 0.0012780269709331913 0.011272861603806757 -0.011259896905475606 -0.0049764635506753686 0.0088900403517161702 -0.0060810633943251119 -0.00098631933872855978 0.0052661320978428941 8.6373547943907188e-05 0.0030297548708413599
leaf_weight=2938.6666874885559 9232.2275114059448 15391.634227275848 219.37044286727905 6382.373291015625 216.06351566314697 983.85262393951416 620.43193960189819 238.02301740646362 172.47492408752441 768.04635453224182 181.05112266540527 341.27396154403687 5487.8548793792725 1432.9577703475952 2575.4139814376831 4969.3631439208984
leaf_count=661 1812 3222 41 1373 50 201 125 43 35 171 39 71 1189 302 526 949
internal_value=-3.38694e-06 -0.000732477 0.00172806 -0.000499356 0.000227174 -0.00131064 0.00314979 0.00382182 -0.00144592 -0.00016091 -0.00197744 0.000748774 -0.000670327 0.00403192 0.00140451 0.00340717
internal_weight=52151.1 36699.2 15451.9 33760.5 17808.7 15951.8 6219.66 5426.76 792.907 16159.7 12051.3 3900.54 5668.91 1649.02 3559.27 5207.39
internal_count=10810 7805 3005 7144 3745 3399 1193 1033 160 3393 2601 798 1228 352 727 992
is_linear=0
shrinkage=0.073


Tree=40
num_leaves=17
num_cat=0
split_feature=86 85 64 64 18 89 33 59 65 21 29 70 1 9 5 17
split_gain=7.92936 5.57909 3.4682 5.82431 3.91753 3.27328 3.18466 3.23489 3.44951 3.17115 3.34732 3.52473 3.13133 2.90612 4.28272 2.7859
threshold=2.6125000000000003 2.0500000000000003 0.29179566563467496 0.1803405572755418 28.161571541461228 9.2678571428571441 1.490798271483821 1.6755563780852551 2.807750057750058 42.585712382496233 1.8443342939753926 22.500000000000004 1.1349352823719661 11.395731975228754 1.4168289224423989 34.822849094366013
decision_type=2 2 2 2 2 2 2 2 2 2 2 2 2 2 2 2
left_child=1 -1 3 4 -3 -4 7 12 -9 -7 11 -11 -5 -6 -15 -12
right_child=-2 2 5 6 13 9 -8 8 -10 10 15 -13 -14 14 -16 -17
leaf_value=-0.0017376833119003504 0.0015944524668012258 -0.0010742674531443058 -0.0055426315806393674 1.6833829592705847e-05 0.013590819365969592 -0.0054280959647478892 -0.0016081387814131946 0.018471194850306454 0.0045947736607824261 -0.0012880721523938702 0.0024167867116024113 0.0048241293171029697 0.0054080469650308457 -0.0055974483119083747 0.010020785947405216 -0.00049647037177074586
leaf_weight=13173.192693710327 12562.921662330627 4202.4682621955872 651.4602255821228 865.43121719360352 165.4369101524353 613.51346111297607 529.00126504898071 172.02375507354736 216.17872667312622 9297.6909780502319 3941.8360528945923 531.32068395614624 1711.9539170265198 193.00071477890015 181.35886907577515 3142.2814130783081
leaf_count=2903 2442 871 141 177 33 126 112 34 45 1934 804 109 350 40 37 652
internal_value=-3.38094e-06 -0.000510513 0.00010137 0.00134409 -0.000321706 -0.000461572 0.00360545 0.00453644 0.0107524 -0.000272534 -8.53365e-05 -0.000957357 0.00359895 0.0055315 0.00196124 0.00112415
internal_weight=52151.1 39588.1 26415 8236.85 4742.26 18178.1 3494.59 2965.59 388.202 17526.6 16913.1 9829.01 2577.39 539.796 374.36 7084.12
internal_count=10810 8368 5465 1699 981 3766 718 606 79 3625 3499 2043 527 110 77 1456
is_linear=0
shrinkage=0.073


Tree=41
num_leaves=17
num_cat=0
split_feature=86 90 84 22 86 11 72 4 74 23 7 6 7 60 58 84
split_gain=7.35758 5.1012 4.02963 5.02851 3.56505 3.42597 3.162 3.71124 3.2361 3.11871 3.05851 3.04056 3.04903 2.89218 2.78243 4.13137
threshold=2.6125000000000003 10.267857142857144 2.8819444444444451 5.9239152216655953 2.0500000000000003 3.00832153649552 0.21920000000000003 2.0409644798900319 1.5000000000000002 4.8131758376840716 0.57873197238972174 1.0928017328690709 1.1139919458391614 7.5000000000000009 0.57083087326371473 1.7321428571428574
decision_type=2 2 2 2 2 2 2 2 2 2 2 2 2 2 2 2
left_child=1 -1 4 9 -3 11 8 -8 -7 -4 -2 -6 -13 -11 15 -12
right_child=10 2 3 -5 5 6 7 -9 -10 13 14 12 -14 -15 -16 -17
leaf_value=-0.0026092747462997459 0.0098246145511140075 -0.0014318241643373082 0.0029008315056615976 0.012889501270600524 -0.0021255028121214669 0.0023814302451244675 3.1246698455802647e-05 0.0047910872677476585 -0.0034363267547879517 -0.0043736744954841218 0.0095953626378638725 0.013452276669446117 0.0035934481758907407 0.003660912481583449 -0.00057460063065126611 0.0016836800163501592
leaf_weight=5260.0287199020386 232.83073854446411 11893.883251428604 2408.9202909469604 216.82143115997314 395.83593702316284 642.39232587814331 13063.95513010025 935.50741767883301 2453.8627042770386 744.36192178726196 366.15474510192871 201.14752388000488 1000.2707076072693 351.0995626449585 2956.8215289115906 9027.16162109375
leaf_count=1175 45 2567 479 42 81 135 2722 192 514 150 74 40 201 70 584 1739
internal_value=-3.37034e-06 -0.000492391 -0.000167749 0.00210031 -0.000443779 0.000184735 -0.00011718 0.00034954 -0.00222834 0.00143182 0.00153416 0.00341795 0.00524682 -0.00179586 0.0013776 0.00199242
internal_weight=52151.1 39568.1 34308.1 3721.2 30586.9 18693 17095.7 13999.5 3096.26 3504.38 12583 1597.25 1201.42 1095.46 12350.1 9393.32
internal_count=10810 8368 7193 741 6452 3885 3563 2914 649 699 2442 322 241 220 2397 1813
is_linear=0
shrinkage=0.073


Tree=42
num_leaves=17
num_cat=0
split_feature=88 18 37 88 79 64 86 13 53 41 3 41 66 29 64 85
split_gain=11.1684 4.6191 3.95426 3.58542 4.36613 3.53505 3.62242 3.25277 3.20815 3.20386 3.91841 3.55812 3.28329 2.9892 2.97071 2.83315
threshold=4.5477272727272737 12.198338321684291 14.036085265643246 5.275252525252526 1.5500000000000003 0.33281733746130032 3.2111111111111117 6.5794041272377433 0.23928571428571432 0.31122173980203671 1.4834079918700687 0.29621739143676562 11.500000000000002 1.8270897198261764 0.15247678018575847 2.9500000000000006
decision_type=2 2 2 2 2 2 2 2 2 2 2 2 2 2 2 2
left_child=9 7 3 5 8 6 14 13 -5 10 11 -1 -12 -2 -3 -11
right_child=1 2 -4 4 -6 -7 -8 -9 -10 15 12 -13 -14 -15 -16 -17
leaf_value=-0.0030066449049067903 -0.0059205530005172488 2.9432702268972042e-05 -0.0011341476781547698 0.013182900716898248 0.002195762417455649 -2.4541707649915158e-05 0.010311243859937496 -0.010135541719010703 0.0021963495399582211 -0.0018886661830629042 0.0049516796990843456 0.002552274596082202 -0.001605616753870359 0.0061634973339554202 0.0031849066080113153 0.0027317566756027917
leaf_weight=1974.1865248680115 245.60081195831299 2891.3345503807068 3773.0883603096008 349.91655874252319 7403.1208138465881 10565.338747024536 275.86331510543823 329.97102165222168 239.16012191772461 16810.748991966248 1349.9919238090515 889.7764105796814 581.63973903656006 196.13411808013916 3537.4092283248901 737.74133729934692
leaf_count=425 51 596 791 63 1397 2147 53 69 44 3674 284 192 122 39 718 145
internal_value=-3.34742e-06 0.000921527 0.00106976 0.00139905 0.00267761 0.00080718 0.00211826 -0.00465181 0.00872778 -0.00123726 0.000434414 -0.00127857 0.00297569 -0.000548461 0.00176619 -0.00169425
internal_weight=52151 29806.9 29035.2 25262.1 7992.2 17269.9 6704.61 771.706 589.077 22344.1 4795.59 2863.96 1931.63 441.735 6428.74 17548.5
internal_count=10810 5968 5809 5018 1504 3514 1367 159 107 4842 1023 617 406 90 1314 3819
is_linear=0
shrinkage=0.073


Tree=43
num_leaves=17
num_cat=0
split_feature=86 67 11 20 41 17 12 72 41 53 12 64 57 84 43 65
split_gain=6.62459 5.60626 4.4148 3.91683 3.9337 3.99703 3.90232 4.30387 3.84933 4.07064 3.84256 3.6945 3.60193 3.49519 2.96344 4.0948
threshold=1.8166666666666669 -4.4999999999999991 6.9246553623048444 71.639280513501305 0.31712518737943368 34.756056263499879 4.999883502437565 0.12865000000000001 0.34670112720508256 -0.066666666666666693 6.5054862596915388 0.88854489164086703 0.33423423423423426 2.3875000000000006 0.19298745320384905 2.4969788243884632
decision_type=2 2 2 2 2 2 2 2 2 2 2 2 2 2 2 2
left_child=-1 2 10 4 12 6 7 -6 -7 -10 -2 -12 14 -14 15 -3
right_child=1 3 -4 -5 5 8 -8 -9 9 -11 11 -13 13 -15 -16 -17
leaf_value=-0.0019270138753441014 0.00094200213522440031 -0.0050593146932165576 -0.0056547134310274269 -0.0035511821630143112 -0.0049899367019338734 -0.0030132593059438539 0.0009971186279315006 0.0076535088862368615 -0.0017875935114432698 0.001717398036637896 -0.0011286821526485904 -0.0068264489504188536 0.0015011476922888508 0.015746459222898246 0.00078559758803574257 0.0043406292238530623
leaf_weight=8064.9486038684845 5195.317798614502 266.90317249298096 975.94760918617249 1029.2509326934814 170.56781339645386 2556.6032862663269 10996.610350608826 894.46556854248047 2995.2290453910828 4300.9240622520447 6004.7744171619415 674.92378664016724 166.21771669387817 206.31040048599243 4393.3639507293701 3258.6478643417358
leaf_count=1762 1074 53 215 210 34 524 2223 173 615 886 1279 148 34 39 887 654
internal_value=-3.33617e-06 0.00034851 -0.00093478 0.000876584 0.00102756 0.000514964 0.00140608 0.0056258 -0.00057564 0.000278121 -0.000546612 -0.00170486 0.00238199 0.0093989 0.00205149 0.00362813
internal_weight=52151 44086.1 12851 31235.1 30205.8 21914.4 12061.6 1065.03 9852.76 7296.15 11875 6679.7 8291.44 372.528 7918.91 3525.55
internal_count=10810 9048 2716 6332 6122 4455 2430 207 2025 1501 2501 1427 1667 73 1594 707
is_linear=0
shrinkage=0.073


Tree=44
num_leaves=17
num_cat=0
split_feature=20 84 26 33 59 70 17 15 38 26 72 23 3 16 35 57
split_gain=4.83958 4.29496 5.11011 3.40688 3.98052 3.9412 3.3058 4.07217 3.98422 3.23363 3.12244 2.91462 3.29966 2.90826 4.11038 2.89816
threshold=71.639280513501305 2.5857142857142863 2.569107138200637 1.6550554432565099 1.3671900605184126 22.500000000000004 25.817122435804269 78.555681743195166 1.0000000180025095e-35 1.9793813060472039 0.66525000000000012 2.6732502461313774 1.3429119269152543 40.669603500171938 2.2332614557786008 0.31115721530659296
decision_type=2 2 2 2 2 2 2 2 2 2 2 2 2 2 2 2
left_child=1 2 3 5 -5 15 -3 8 9 10 -8 12 -9 -4 -15 -1
right_child=-2 6 13 4 -6 -7 7 11 -10 -11 -12 -13 -14 14 -16 -17
leaf_value=-0.00071234918294583722 -0.0039856537728324547 0.0064959267705049567 0.0030772872176257808 -0.0009882087923633702 -0.0058561515812795509 0.0055351933320365188 0.0022957248260473805 -0.00062939312564358973 -0.00016408747648208213 0.011723277681390486 0.00940415413622403 0.00048947546585769602 -0.01296093461719231 -0.0040029196536933371 0.009196135436422271 0.0018670193673283742
leaf_weight=24456.404367208481 1577.06294298172 595.92654228210449 3305.7854719161987 2691.3265776634216 1342.677515745163 595.65272331237793 1571.7919807434082 309.53194189071655 1302.8346738815308 317.95746803283691 417.25592231750488 10051.769926786423 185.07454252243042 713.16637706756592 152.52486324310303 2564.2653884887695
leaf_count=5148 328 119 681 588 295 124 299 63 249 59 80 2031 38 150 33 525
internal_value=-3.33815e-06 0.000120788 -0.000310858 -0.000627463 -0.00260921 -0.000337874 0.00116913 0.000944667 0.00306098 0.00488352 0.00378851 0.000220005 -0.00525014 0.00209061 -0.00167376 -0.000467457
internal_weight=52151 50573.9 35821.8 31650.3 4034 27616.3 14752.1 14156.2 3609.84 2307.01 1989.05 10546.4 494.606 4171.48 865.691 27020.7
internal_count=10810 10482 7544 6680 883 5797 2938 2819 687 438 379 2132 101 864 183 5673
is_linear=0
shrinkage=0.073


Tree=45
num_leaves=17
num_cat=0
split_feature=88 66 28 86 72 10 5 41 65 22 40 52 32 85 19 10
split_gain=10.1128 3.90365 3.29926 3.48064 3.36953 2.83672 4.91345 2.82867 3.86555 3.69314 3.41657 3.11378 2.74816 2.58259 2.55581 2.54604
threshold=4.5477272727272737 -6.4999999999999991 3.6810119742182179 2.0500000000000003 1.0226500000000003 4.0504475666675246 1.6167197283853867 0.31122173980203671 2.7284775315961931 6.068095890814952 0.30473761473962807 0.84244326562644434 1.4266587704640801 2.9500000000000006 16.407747496457329 4.6193202938382809
decision_type=2 2 2 2 2 2 2 2 2 2 2 2 2 2 2 2
left_child=7 -2 3 12 5 6 -5 8 10 -10 11 -1 -3 -9 -14 -15
right_child=1 2 -4 4 -6 -7 -8 13 9 -11 -12 -13 14 15 -16 -17
leaf_value=0.012071183955487688 -0.00056740884527526226 -0.0018214524601045841 0.011660300542475676 0.0024040298124649176 -0.0054517096437386179 0.001180189832751574 0.0088773938001958739 -0.0017961176070335184 0.001608755694832402 0.012220750663578998 -0.0031573222017426445 -0.00022605701860572795 -0.0043111120141488251 -0.00081148960538272288 0.0031986491852965199 0.0079603287083950761
leaf_weight=158.5550217628479 7483.523157119751 2981.2123737335205 164.48604011535645 5616.3592200279236 339.04003238677979 10888.219522953033 703.59204626083374 16765.593522310257 2236.6134114265442 189.69251823425293 1861.8520574569702 354.6993613243103 292.6479320526123 451.19330787658691 1374.8246331214905 288.88288593292236
leaf_count=33 1549 623 33 1083 68 2130 137 3674 478 40 396 76 60 89 285 56
internal_value=-3.32271e-06 0.000875482 0.00135852 0.00128202 0.00175258 0.0018947 0.00312521 -0.00117918 0.000389964 0.00243978 -0.00170281 0.00356766 -0.000493532 -0.00160972 0.00187885 0.00260878
internal_weight=52151 29843.9 22360.4 22195.9 17547.2 17208.2 6319.95 22307.1 4801.41 2426.31 2375.11 513.254 4648.68 17505.7 1667.47 740.076
internal_count=10810 5968 4419 4386 3418 3350 1220 4842 1023 518 505 109 968 3819 345 145
is_linear=0
shrinkage=0.073


Tree=46
num_leaves=17
num_cat=0
split_feature=88 37 88 52 43 36 24 29 90 85 7 26 51 44 47 1
split_gain=9.53293 3.39081 3.29467 3.25961 3.81717 4.56915 3.53724 3.02819 3.01348 2.85337 2.8298 2.74675 2.70507 2.62767 2.64461 3.52432
threshold=4.6583333333333341 14.036085265643246 3.6306818181818183 1.1604718753324987 0.25693409527865407 10.539298938924953 56.792111520175446 2.1712445573597878 16.633333333333336 3.1055555555555561 1.9132814442300325 1.7292155491215919 1.2054014041213239 0.90833333333333344 0.66513368892737523 1.024210135880568
decision_type=2 2 2 2 2 2 2 2 2 2 2 2 2 2 2 2
left_child=2 3 10 8 7 -6 -7 -5 13 -4 -1 -11 -8 14 15 -2
right_child=1 -3 9 4 5 6 12 -9 -10 11 -12 -13 -14 -15 -16 -17
leaf_value=-0.0041098884733873353 0.0042413517114278767 -0.0011001467747841127 -0.00073515919985305315 0.0055630127332592918 0.012954885770288809 -0.0020592596503890008 0.012722494020866811 0.015909292558053543 0.0051669160066402688 -0.0027528836448665567 0.0050195907686086628 0.0060930605911326402 4.3296360567413168e-06 -0.0039598318734422417 0.0014452324290081685 -0.0038155582302052795
leaf_weight=2273.6200625896454 387.53110456466675 2986.4928359985352 27409.330624580383 832.69032144546509 169.05901527404785 975.79865312576294 180.29567909240723 184.67314672470093 942.8810133934021 265.95774412155151 196.26488924026489 627.45635890960693 177.10853052139282 567.52996253967285 12835.355224132538 1138.9194855690002
leaf_count=520 76 621 5888 164 34 196 35 35 166 51 42 118 35 111 2490 228
internal_value=-3.30714e-06 0.00118077 -0.000826002 0.00155131 0.00399095 0.00165014 0.000214146 0.00744441 0.00116383 -0.000602738 -0.00338319 0.00345647 0.00642887 0.000910809 0.00110349 -0.00176813
internal_weight=52151 21378.3 30772.6 18391.8 2519.63 1502.26 1333.2 1017.36 15872.2 28302.7 2469.88 893.414 357.404 14929.3 14361.8 1526.45
internal_count=10810 4191 6619 3570 499 300 266 199 3071 6057 562 169 70 2905 2794 304
is_linear=0
shrinkage=0.073


Tree=47
num_leaves=17
num_cat=0
split_feature=86 90 84 22 90 83 90 14 7 13 7 50 5 7 22 41
split_gain=5.76238 4.38252 3.33937 4.44278 3.11136 3.1285 2.82509 2.89754 2.76905 2.63959 3.21352 2.54639 3.03222 2.52592 3.90641 2.70237
threshold=2.6125000000000003 10.267857142857144 2.8819444444444451 5.9239152216655953 16.150000000000002 0.073664839888131453 11.950000000000001 85.927046505116081 0.57873197238972174 4.9256831115145578 1.6564119941482451 0.57008762481642405 0.67694659508349508 1.8666709139088784 3.5239587408886863 0.42829192286075851
decision_type=2 2 2 2 2 2 2 2 2 2 2 2 2 2 2 2
left_child=1 11 4 6 5 -3 -4 -8 -2 -6 -11 12 -1 15 -15 -7
right_child=8 2 3 -5 9 13 7 -9 -10 10 -12 -13 -14 14 -16 -17
leaf_value=-0.0031442422848602524 0.009185867276751216 -0.0060634309105286957 -0.0026337363029248963 0.011962941881585861 0.0098494872846712715 -0.00094756165611730218 0.00032712426026806516 0.0051144734727235066 0.0012037750192062679 4.8549392362211683e-06 0.010754826057889794 -0.0028649151082025164 0.0096929400219377768 -0.00285525522044519 0.00350359787915531 0.0013104155991612539
leaf_weight=196.33687448501587 236.10433483123779 539.36993980407715 764.46481990814209 220.98889064788818 242.20613956451416 22737.64803481102 1572.5655536651611 1180.5554056167603 12407.454718589783 1061.0250210762024 172.31421661376953 4836.7556371688843 195.36446809768677 712.70183849334717 1850.8920540809631 3224.1840379238129
leaf_count=43 45 117 160 42 47 4828 309 230 2397 209 32 1089 43 149 381 689
internal_value=-3.28443e-06 -0.000437439 -0.000137073 0.00192211 -0.000389244 -0.000555347 0.00129037 0.00238107 0.00135309 0.00288056 0.00150939 -0.00240613 0.00325124 -0.000451089 0.00173463 -0.000667031
internal_weight=52150.9 39507.4 34278.9 3738.57 30540.3 29064.8 3517.59 2753.12 12643.6 1475.55 1233.34 5228.46 391.701 28525.4 2563.59 25961.8
