tree
version=v4
num_class=1
num_tree_per_iteration=1
label_index=0
max_feature_idx=90
objective=poisson
feature_names=xg_rolling_home xg_rolling_away xg_rolling_conceded_home xg_rolling_conceded_away xgot_rolling_home xgot_rolling_away xgot_rolling_conceded_home xgot_rolling_conceded_away shots_rolling_home shots_rolling_away shots_on_target_rolling_home shots_on_target_rolling_away ppda_rolling_home ppda_rolling_away prog_passes_rolling_home prog_passes_rolling_away prog_carries_rolling_home prog_carries_rolling_away touches_in_box_rolling_home touches_in_box_rolling_away final_third_entries_rolling_home final_third_entries_rolling_away poss_won_att3rd_rolling_home poss_won_att3rd_rolling_away possession_rolling_home possession_rolling_away goals_rolling_home goals_rolling_away goals_rolling_conceded_home goals_rolling_conceded_away xg_venue_rolling_home xg_venue_rolling_away xgot_venue_rolling_home xgot_venue_rolling_away goals_venue_rolling_home goals_venue_rolling_away shots_venue_rolling_home shots_venue_rolling_away xg_overperformance_home xg_overperformance_away shots_on_target_pct_home shots_on_target_pct_away clean_sheet_pct_home clean_sheet_pct_away h2h_win_pct_home h2h_goal_diff_home h2h_matches xg_rolling_rel_home xg_rolling_rel_away xgot_rolling_rel_home xgot_rolling_rel_away shots_rolling_rel_home shots_rolling_rel_away momentum_home momentum_away draw_rate_home draw_rate_away league_draw_rate xg_diff_abs defensive_strength days_rest_home days_rest_away days_rest_diff is_midweek season_stage league_avg_goals points_diff position_diff is_relegation_battle is_title_race points_to_safety points_to_leader match_importance lineup_changes_home lineup_changes_away lineup_stability_home lineup_stability_away formation_change_home formation_change_away squad_rotation_rate_home squad_rotation_rate_away odds_prob_home odds_prob_draw odds_prob_away yellows_rolling_home yellows_rolling_away yellows_rolling_conceded_home yellows_rolling_conceded_away referee_yellows_rolling fouls_rolling_home fouls_rolling_away
feature_infos=[0.3403990833898391:3.3738247234497862] [0.38703015473602781:3.6822466250240931] [0.31036220770316708:3.2246375378538219] [0.3543520338912014:3.0801545963937969] [0.029921977309044199:4.1764267051733484] [0.029921977309044199:3.9493926432119313] [0.022975344523497199:3.5043640216577225] [0.1939141693598404:3.4427291722567013] [4.2489912222451283:23.913554579275797] [3.8226074424901788:24.510688166334297] [1:10.825380166200723] [1.492585715504708:10.771132014391622] [3.4121014300871675:14.25150292278142] [3.4705942480627221:14.04903820308755] [43.016888774347976:169.1970205693228] [49.756551902867443:167.08995095947645] [19.763066776566511:121.78614531204911] [18.719333007498157:109.88740150354548] [6.8217189631636801:57.963565324338838] [6.8811895877468263:56.270381548809908] [28.985332480410136:96.867882905809097] [31.985178964310773:96.978977663179521] [1:12.37329272767726] [1:11.090999199719802] [26.062148150698611:74.059885464693963] [27.524494904682577:74.900162888494208] [1:5.4828020703575424] [1:4.8435384543379225] [1:5.4279364232752716] [1:5.7355147380856764] [0.5558203121652936:3.4814282086625767] [0.4223265008491448:3.3531767220701845] [0.33638211484883501:3.937627393943298] [0.16325724664110611:3.5647592034456341] [1:5.0066204438100552] [1:4.5627639793873165] [4.8445901534497882:25.732665842157523] [4.6253266643389939:22.346573756620192] [-1.0730604996064239:1.4712982184988077] [-1.167389951573643:1.4756749772919524] [0.097176053910180998:0.64807068000773294] [0.14703568252125929:0.64103369403500099] [0:1] [0:1] [0:1] [-5:4.666666666666667] [0:10] [0.2485069507824782:2.5610970699709652] [0.2907155606582118:2.8008333307018516] [0.018981465703020999:3.3216134029055508] [0.022607268344464099:3.1186337414494965] [0.39185554024248409:1.8846792644658847] [0.349060005449914:1.9242181441664099] [-1.6666666666666667:1.6000000000000001] [-1.5333333333333334:1.6666666666666667] [0:0.65000000000000002] [0:0.7142857142857143] [0:1] [3.614761117676224e-05:2.5928206849821542] [0.5702735108616197:2.5774176079939863] [2:2640] [2:2283] [-2198:2554] [0:1] [0:1] [0:8] [-66:66] [-19:19] [0:1] [0:1] [-19:53] [0:66] [0:1.28] [0:11] [0:11] [0:1] [0:1] [0:1] [0:1] [0:8.8000000000000007] [0:8.5999999999999996] [0.043141192333144403:0.90626601966458797] [0.059675905953519001:0.4672884952969843] [0.0261587440259268:0.85200140749004227] [1:4.9142505701205605] [1:5.016077167719672] [1:4.3269505365559002] [1:4.5491277238070253] [2:8.2883334851994466] [5.5741035732804001:20.454490163919729] [5.4917800944677433:19.96970785721237]
tree_sizes=1889 1975 1970 1975 1970 1967 1974 1967 1976 1978 1977 1966 1982 1975 1970 1976 1992 1972 1979 1970 1980 1986 1985 1967 1982 1980 1972 1973 1961 1977 1983 1970 1970 1986 1968 1988 1986 1981 1963 1980 1973 1978 1978 1991 1978 1976 1982 1980 1967 1989 1981 1980 1977 1978 1973 1984 1980 1973 1997 1990 1972 1976 1987 1988 1976 1968 1990 1976 1991 1978 1951 1983 1980 1982 1978 1981 1993 1975 1974 1972 1968 1984 1973 1985 1992 1976 1971 1963 1968 1953 1979 1969 1965 1977 1970 1978 1987 1970 1962 1978 1995 1987 1959 1980 1976 1979 1977 1992 1950 1977 1981 1973

Tree=0
num_leaves=17
num_cat=0
split_feature=85 85 15 89 83 12 16 85 87 15 22 87 11 17 42 57
split_gain=48.8576 20.1576 12.0859 10.8594 10.3375 6.02868 5.78543 6.06037 5.52494 5.39136 5.1791 4.88716 5.42887 4.69621 4.57744 4.39074
threshold=2.2328922638494269 2.8861065545825944 78.55319461305838 13.614048521763332 0.4407205129066446 4.999883502437565 36.521752575366726 2.0331850267043872 2.901315037805571 75.673923432746378 5.9229476720610252 1.9313550429807471 6.8577433813209181 34.636267748012941 0.17285752454212422 0.24067093325831632
decision_type=2 2 2 2 2 2 2 2 2 2 2 2 2 2 2 2
left_child=3 11 8 4 6 -5 7 -1 10 15 14 -2 13 -13 -3 -7
right_child=1 2 -4 5 -6 9 -8 -9 -10 -11 -12 12 -14 -15 -16 -17
leaf_value=0.87106365125944418 0.87258888020106851 0.87711818571510436 0.87719032138121189 0.8800330799541205 0.86673414727239839 0.87137514885716894 0.86952181417562646 0.87470127172896883 0.88958089625977343 0.87255056719350965 0.86949077265950037 0.87687908894467592 0.86816577047303323 0.87422755613241632 0.88578058747192312 0.88411224408384248
leaf_weight=6662.8051705360413 4038.2099404335022 482.46235847473145 4033.3853168487549 771.93977355957031 3034.6882348060608 221.93268489837646 5789.5483016967773 3850.0496206283569 641.67493677139282 6059.727222442627 168.86182546615601 8110.1922459602356 525.88397073745728 6349.2046375274658 1003.5217056274414 410.09300470352173
leaf_count=1381 837 100 836 160 629 46 1200 798 133 1256 35 1681 109 1316 208 85
internal_value=0.873733 0.87603 0.879598 0.87156 0.870647 0.873924 0.871375 0.872396 0.883826 0.87322 0.881593 0.874842 0.87545 0.875715 0.88297 0.879635
internal_weight=52154.2 25353.4 6329.91 26800.8 19337.1 7463.69 16302.4 10512.9 2296.52 6691.75 1654.85 19023.5 14985.3 14459.4 1485.98 632.026
internal_count=10810 5255 1312 5555 4008 1547 3379 2179 476 1387 343 3943 3106 2997 308 131
is_linear=0
shrinkage=1


Tree=1
num_leaves=17
num_cat=0
split_feature=85 85 86 86 15 12 90 90 89 90 58 17 81 86 81 87
split_gain=45.3725 18.6161 18.4668 11.246 10.5858 8.68567 8.54525 7.3985 5.95498 5.31802 5.17971 5.07546 4.64155 4.83195 4.41131 4.51342
threshold=2.2328922638494269 2.9765600557748608 2.520858806835804 2.1539078691052773 78.55319461305838 4.922892881056824 10.294848374813297 14.546802546419238 13.760665228291408 18.14378504172365 1.3530092634071276 27.54358666668465 0.22604920945403109 1.9833586807229378 0.29422242760179734 2.7948439055706831
decision_type=2 2 2 2 2 2 2 2 2 2 2 2 2 2 2 2
left_child=2 3 6 10 9 -4 -1 -5 12 -3 -2 -10 -8 -14 15 -7
right_child=1 4 5 7 -6 14 8 -9 11 -11 -12 -13 13 -15 -16 -17
leaf_value=-0.0058108287276497222 -0.00071476732212620174 0.0092100945185674878 0.0095971499537616817 0.0015468567829762894 0.0035419345292155278 -0.0063015834555606998 -0.0083601350043537252 0.0056762799924904451 0.010010032814723829 0.023068528270957938 -0.013136860891825216 -0.00060262178361740861 -0.004434851558997345 -0.0013423443632166569 0.001501418994603481 0.0070249508511534978
leaf_weight=4846.800407409668 7389.2458028793335 1793.5834174156189 628.85710000991821 9619.9277667999268 3219.4870209693909 782.53082895278931 848.14249753952026 3045.1468119621277 255.56756114959717 161.15035009384155 183.32517099380493 3970.7563080787659 4946.9349341392517 5916.0565252304077 4383.5396680831909 163.55256605148315
leaf_count=1008 1530 368 130 1991 665 163 177 630 53 33 38 823 1028 1229 910 34
internal_value=-2.38403e-07 0.00220851 -0.00209918 0.00120926 0.00611621 0.00148323 -0.00312633 0.00253996 -0.00230974 0.0103545 -0.00101594 3.85121e-05 -0.00315743 -0.00275093 0.000525244 -0.00399453
internal_weight=52154.6 25411.9 26742.7 20237.6 5174.22 5958.48 20784.3 12665.1 15937.5 1954.73 7572.57 4226.32 11711.1 10863 5329.62 946.083
internal_count=10810 5255 5555 4189 1066 1237 4318 2621 3310 401 1568 876 2434 2257 1107 197
is_linear=0
shrinkage=0.073


Tree=2
num_leaves=17
num_cat=0
split_feature=85 85 85 15 66 16 83 17 28 47 50 18 52 34 23 16
split_gain=42.1866 14.7822 10.4394 9.63089 7.4207 5.91722 4.94983 5.31914 4.87675 4.73235 4.03861 4.35499 6.63726 4.08316 4.00997 5.43633
threshold=2.3312176686693431 2.9765600557748608 2.0141744206508139 78.55319461305838 -13.499999999999998 28.5228311091725 0.52249928115752531 28.636658794135332 1.4367164201652822 0.80754130744134012 0.5523703414235005 19.255217817224587 1.283730090329205 1.6757494555311041 5.9656759509769257 37.0214529558747
decision_type=2 2 2 2 2 2 2 2 2 2 2 2 2 2 2 2
left_child=2 9 6 -3 -4 -6 7 -1 -9 -2 -11 12 13 -12 -7 -16
right_child=1 3 4 -5 5 14 -8 8 -10 10 11 -13 -14 -15 15 -17
leaf_value=0.0013713121336627646 -0.00069044693957532298 0.0098741382600146584 -0.0045466376083881438 0.0034012419641584381 0.0048197232314022859 -0.00058993729967648579 -0.0065302714157069877 -0.00021045610823306179 -0.0037313081556286515 0.007993609562471974 0.0016284408504290511 0.00085636248964779209 -0.0062400905409036554 0.0068717940845808758 0.011635545606930168 -0.00081203421022616579
leaf_weight=1649.2203989028931 4290.5439329147339 1975.0898551940918 1874.3660736083984 3230.910747051239 1418.3170824050903 9897.6479387283325 1861.9207491874695 2623.1192078590393 10476.63375377655 595.5522985458374 1287.2781844139099 7847.3967638015747 313.89290761947632 2061.8194694519043 347.50451707839966 403.82264852523804
leaf_count=343 887 401 390 665 294 2054 390 546 2182 123 266 1622 65 426 72 84
internal_value=-5.38124e-07 0.00246848 -0.00174638 0.00585758 -0.000273233 0.000390308 -0.00298262 -0.00253455 -0.00302651 0.00139222 0.0021306 0.00182697 0.00390552 0.00485734 -0.000199377 0.0049416
internal_weight=52155 21602.5 30552.6 5206 13941.7 12067.3 16610.9 14749 13099.8 16396.5 12105.9 11510.4 3662.99 3349.1 10649 751.327
internal_count=10810 4455 6355 1066 2894 2504 3461 3071 2728 3389 2502 2379 757 692 2210 156
is_linear=0
shrinkage=0.073


Tree=3
num_leaves=17
num_cat=0
split_feature=88 86 88 37 7 48 86 59 83 37 20 12 56 4 13 24
split_gain=49.8012 23.3524 10.7404 7.85867 7.69499 6.90578 6.42925 6.93634 5.8395 5.78383 5.25369 4.88863 4.68957 4.62145 4.47272 4.43525
threshold=5.2719200476203323 2.5667247298595934 4.3002321776148538 14.133781139855637 1.8882390255971895 0.94809071173909054 2.8348724455328571 1.0797536026699233 0.29355398985495285 15.781363631219827 71.643538123000937 5.5553203183453332 0.20714285714285713 1.3580742840370525 7.37916702534321 42.763514380894243
decision_type=2 2 2 2 2 2 2 2 2 2 2 2 2 2 2 2
left_child=1 2 5 6 9 -1 -2 -8 15 10 14 -10 -9 -5 -4 -3
right_child=3 8 4 13 -6 -7 7 12 11 -11 -12 -13 -14 -15 -16 -17
leaf_value=-0.0017322992090389009 0.0040581061009188745 0.013037186522749222 5.3502818555159517e-05 -0.003908134908864408 0.0045734884420271706 -0.0048703499431151931 -0.00047063715339523395 0.0059087307500222301 0.0043703975452756448 -0.0071236818507167624 -0.0087186370663260016 -0.00070268288999866281 0.013250932187656293 0.0042754962603761505 -0.0029440950869621275 0.0035886478932227895
leaf_weight=6627.9083313941956 7198.7185454368591 287.26413345336914 10675.176898479462 889.38600587844849 1298.1248559951782 8579.4723529815674 383.64731979370117 782.5737509727478 1347.7454476356506 852.23731231689453 448.21179819107056 4064.07572889328 1144.2978577613831 626.77784204483032 3528.8172121047974 3420.936243057251
leaf_count=1377 1485 59 2214 185 269 1788 79 161 278 178 93 841 235 130 733 705
internal_value=-7.71372e-07 -0.00116874 -0.00209725 0.00435604 -0.000824896 -0.00350288 0.00513429 0.00848589 0.00208986 -0.00127708 -0.000936799 0.000560183 0.0102707 -0.0005231 -0.000691015 0.0043215
internal_weight=52155.4 41130 32009.9 11025.4 16802.6 15207.4 9509.24 2310.52 9120.02 15504.4 14652.2 5411.82 1926.87 1516.16 14204 3708.2
internal_count=10810 8535 6652 2275 3487 3165 1960 475 1883 3218 3040 1119 396 315 2947 764
is_linear=0
shrinkage=0.073


Tree=4
num_leaves=17
num_cat=0
split_feature=85 90 89 81 15 85 85 42 7 84 42 51 90 89 37 76
split_gain=37.9745 16.1075 9.42183 9.35921 6.07388 6.53872 5.26862 5.1378 4.84805 4.70091 6.14347 5.01693 4.6955 4.33305 4.46254 4.2699
threshold=2.2328922638494269 14.318198923514105 13.614048521763332 0.25496820912481744 81.223184174672227 2.9509703987072053 3.1171925210399034 0.22918890414627005 1.4696267551901003 2.5817411099411598 0.40918458819087594 0.97755284994839664 10.104818185906506 8.7022858807146566 15.781363631219827 0.40909090909090912
decision_type=2 2 2 2 2 2 2 2 2 2 2 2 2 2 2 2
left_child=2 6 3 -1 5 -3 13 -8 -7 -4 11 -11 -5 -2 -15 -12
right_child=1 4 9 12 -6 8 7 -9 -10 10 15 -13 -14 14 -16 -17
leaf_value=-0.00709397790536637 -0.0066929111533292713 0.0041846397561929672 -0.0010364543993974789 -0.0046800606891975625 0.0029799411065788897 0.0078800492943622482 0.00021711607006700737 0.008345473303614204 0.016806774795410897 -0.001230482652278528 0.018641967204584831 0.0061578303985173645 -0.0015859969214623896 0.00083812512841368377 -0.0052847362068364264 0.0026610192418331647
leaf_weight=2358.6015214920044 449.59819889068604 1888.3207397460938 4933.8787784576416 3239.5918712615967 4499.3111038208008 1065.2162408828735 756.58636093139648 918.23527479171753 467.72886753082275 1396.7052774429321 203.40529727935791 753.8779559135437 13566.208953857422 14836.56188249588 662.53634595870972 159.38611698150635
leaf_count=499 93 388 1026 679 925 214 154 187 94 290 42 156 2830 3062 138 33
internal_value=-1.03485e-06 0.00200943 -0.00193095 -0.00278723 0.00474388 0.00706273 0.000780304 0.00467538 0.010606 0.000272143 0.00284213 0.00135816 -0.00218261 0.000371079 0.000576194 0.0116299
internal_weight=52155.8 25544.1 26611.7 19164.4 7920.58 3421.27 17623.5 1674.82 1532.95 7447.25 2513.37 2150.58 16805.8 15948.7 15499.1 362.791
internal_count=10810 5255 5555 4008 1621 696 3634 341 308 1547 521 446 3509 3293 3200 75
is_linear=0
shrinkage=0.073


Tree=5
num_leaves=17
num_cat=0
split_feature=86 84 7 87 15 86 81 14 31 10 62 21 87 79 87 89
split_gain=37.3993 11.0068 7.77571 7.55022 7.24378 6.11707 5.63409 6.20853 5.6162 5.61576 5.22428 4.16369 4.13831 7.0331 4.03379 3.97118
threshold=2.520858806835804 2.7582794006815679 1.5853293030007143 2.6098247737892888 72.46418188134642 2.2084738021368966 0.30189371638221868 68.887997870954038 1.5192379813552488 5.5646598223869708 1.5000000000000002 60.764913605389047 2.9152668437558256 2.5500000000000003 1.9160706758040329 12.914702393683939
decision_type=2 2 2 2 2 2 2 2 2 2 2 2 2 2 2 2
left_child=1 2 5 11 10 15 -6 -8 -7 -10 -2 -3 -4 -14 -9 -1
right_child=4 3 12 -5 6 8 7 14 9 -11 -12 -13 13 -15 -16 -17
leaf_value=-0.0039967264405914495 0.0060754796537446018 0.0014008925332825068 -2.5585456289939219e-05 0.0061289439477245468 -0.00084277001935476558 0.0002102708612915224 0.010931761943064368 -0.00057825473961976967 -0.0066584922041750642 0.004445367878939988 0.01910813071938432 -0.0048321364356235718 0.017133693319269314 -0.0016947953518516988 0.0033490708794281479 -0.0016777348427636696
leaf_weight=10662.430767536163 1576.3018774986267 2487.4370503425598 6378.1095018386841 1579.4808192253113 2292.675265789032 6691.0695371627808 518.2371621131897 1643.3382725715637 1307.543671131134 297.69277191162109 183.2308292388916 741.2833890914917 205.05073404312134 217.67538690567017 9128.6568741798401 6245.8283405303955
leaf_count=2230 320 515 1325 325 476 1387 106 339 274 62 37 154 42 45 1874 1299
internal_value=-1.23747e-06 -0.00126325 -0.00175255 0.0019931 0.00302673 -0.00234362 0.00245549 0.00312552 -0.000719619 -0.0045974 0.00743464 -2.92818e-05 0.000437568 0.00743201 0.00274966 -0.00314028
internal_weight=52156 36813.6 32005.4 4808.2 15342.4 25204.6 13582.9 11290.2 8296.31 1605.24 1759.53 3228.72 6800.84 422.726 10772 16908.3
internal_count=10810 7658 6664 994 3152 5252 2795 2319 1723 336 357 669 1412 87 2213 3529
is_linear=0
shrinkage=0.073


Tree=6
num_leaves=17
num_cat=0
split_feature=86 90 90 84 86 90 64 39 17 37 90 28 45 7 64 81
split_gain=34.6733 17.3245 10.5972 10.1127 7.01338 6.56225 6.36106 6.25824 5.174 4.80791 4.27791 4.16775 4.16178 4.08662 3.88564 3.53672
threshold=2.520858806835804 15.392385645424332 10.294848374813297 2.7582794006815679 1.9833586807229378 11.47714521662377 0.29179566563467496 -0.38227965035463146 32.461188332188094 8.2998284781741685 13.087460738966572 1.1350470120718119 1.8452380952380956 1.417492564547236 0.77708978328173384 0.16231899445432632
decision_type=2 2 2 2 2 2 2 2 2 2 2 2 2 2 2 2
left_child=1 2 -1 4 11 -2 10 -3 -8 -7 -6 -4 15 -9 -15 -11
right_child=5 7 3 -5 6 9 8 13 -10 12 -12 -13 -14 14 -16 -17
leaf_value=-0.004461675099635189 0.00026358245819758328 0.014177424182023318 0.003497682761721718 0.0024699424758322206 -3.5872464941384727e-05 0.0080014551627416945 0.00062502387749592526 0.0012335673518720401 -0.0030035982883794246 -0.0052088659393496866 0.0045907156687358406 -0.0034780857275543706 -0.0040396877658092269 0.010000634782350054 -0.0022573551609158331 0.0037569662954587625
leaf_weight=6131.4526348114014 3776.4392366409302 283.66322708129883 479.26356649398804 3655.5152492523193 2995.4813241958618 1273.4471583366394 3252.437066078186 2239.5256586074829 5873.5303058624268 239.96924161911011 1651.4825115203857 9402.2337408065796 401.2305588722229 626.52749872207642 176.18124198913574 9697.9336452484131
leaf_count=1292 780 58 100 754 624 258 675 461 1222 50 342 1966 82 128 36 1982
internal_value=-1.42616e-06 -0.00121919 -0.00171898 -0.00110309 -0.00165539 0.00290784 -0.000590421 0.00380521 -0.00171006 0.00376751 0.00160776 -0.00313945 0.00324571 0.00283699 0.00730659 0.00354016
internal_weight=52156.3 36767.3 33441.4 27309.9 23654.4 15389 13772.9 3325.9 9125.97 11612.6 4646.96 9881.5 10339.1 3042.23 802.709 9937.9
internal_count=10810 7658 6975 5683 4929 3152 2863 683 1897 2372 966 2066 2114 625 164 2032
is_linear=0
shrinkage=0.073


Tree=7
num_leaves=17
num_cat=0
split_feature=88 85 88 86 90 85 66 12 79 64 64 5 29 87 12 86
split_gain=42.7286 18.7698 11.2928 7.93004 7.76476 7.26948 5.98417 5.02528 4.86458 6.96915 4.71911 5.14367 4.86289 5.55334 4.70301 4.10004
threshold=5.2719200476203323 2.083387055807119 3.9061638643246241 2.238885289235323 11.521724308445718 2.9916612625567995 -4.4999999999999991 4.922892881056824 1.5500000000000003 0.36068111455108359 0.38854489164086686 1.1690887104593195 2.1937550750751598 2.901315037805571 6.609271332669814 1.8375349378719579
decision_type=2 2 2 2 2 2 2 2 2 2 2 2 2 2 2 2
left_child=1 3 -3 -1 -2 6 -4 -5 9 -6 11 -7 13 -12 -10 -8
right_child=4 2 5 7 8 10 15 -9 14 -11 12 -13 -14 -15 -16 -17
leaf_value=-0.0042000586023862264 0.00040607788548579289 -0.0029006762581234124 -0.0016878807239576609 0.0061685962786402143 0.019937704608702388 0.014188230708598638 -0.0016929947626738995 -0.001517570840791714 0.005934984492097021 0.0047804988386260091 -0.0032580913538777282 0.0038030083476210796 0.0093570567964018202 0.0078078616246077242 0.0022836469574198984 0.0019463027929874893
leaf_weight=10477.255990028381 2475.2857341766357 4968.8984327316284 4950.8357448577881 492.10771751403809 275.36668348312378 458.72501659393311 1981.5239901542664 5729.4237337112427 4933.4211950302124 393.11333799362183 869.64944696426392 572.20516967773438 372.86992883682251 334.618577003479 3042.3487467765808 9828.9321317672729
leaf_count=2213 513 1032 1028 101 56 92 413 1197 1004 80 176 116 75 67 622 2025
internal_value=-1.61224e-06 -0.0010893 0.000203774 -0.00297412 0.00401228 0.00100033 0.000442272 -0.000909115 0.00504457 0.0110292 0.0045856 0.00842718 0.0020725 -0.000180745 0.00454257 0.00133546
internal_weight=52156.6 41037 24338.3 16698.8 11119.5 19369.4 16761.3 6221.53 8644.25 668.48 2608.07 1030.93 1577.14 1204.27 7975.77 11810.5
internal_count=10810 8535 5024 3511 2275 3992 3466 1298 1762 136 526 208 318 243 1626 2438
is_linear=0
shrinkage=0.073


Tree=8
num_leaves=17
num_cat=0
split_feature=90 87 90 5 43 90 82 30 59 32 7 14 7 41 56 11
split_gain=23.0413 11.7401 7.3862 6.70206 6.90835 6.7156 6.69745 6.47176 5.02844 5.00871 5.08464 4.37573 4.19652 4.12094 4.30028 3.88727
threshold=11.521724308445718 2.7655918603191925 15.509811817886662 0.87377338469585197 0.31206038933050906 17.829059426633648 0.13484929510033664 1.5342031062637254 1.6868939563104446 1.0590301533808344 1.3592493276406115 89.928252107795501 1.8882390255971895 0.44494411280167612 0.2264957264957265 3.0491602647045011
decision_type=2 2 2 2 2 2 2 2 2 2 2 2 2 2 2 2
left_child=7 2 6 4 11 13 -2 12 -9 -4 -11 -3 -1 14 -5 -8
right_child=1 3 9 5 -6 -7 15 8 -10 10 -12 -13 -14 -15 -16 -17
leaf_value=-0.003897525814437018 -0.0086069191017359367 0.020809949293782833 -0.0030862068424598247 -0.00052194612878166038 3.6700111820668824e-05 0.017164820114188364 0.0027868972008475222 -0.0010726075876915635 0.0063654783041846115 0.0024491292454498449 0.0086166136663472278 0.0065591363596303942 0.0014520230885180284 0.0089602807845294789 0.0036037276772557807 -0.00021883327989864493
leaf_weight=9124.7553853988647 480.72986268997192 299.30232667922974 543.77454423904419 2214.8792967796326 233.27855825424194 172.13178586959839 2558.0703096389771 5700.5308175086975 529.23224020004272 2161.6359038352966 1063.9987769126892 187.50032949447632 853.78471517562866 490.78278160095215 3428.8001561164856 22113.684287548065
leaf_count=1919 100 60 111 454 47 34 527 1195 110 441 215 38 178 100 699 4582
internal_value=-1.81419e-06 0.00102839 0.000378032 0.00370486 0.0103784 0.00294237 -7.34691e-05 -0.0022869 -0.000440227 0.00339155 0.00448449 0.0153278 -0.00343951 0.00254273 0.00198408 9.26983e-05
internal_weight=52156.9 35948.6 28921.9 7026.68 720.081 6306.59 25152.5 16208.3 6229.76 3769.41 3225.63 486.803 9978.54 6134.46 5643.68 24671.8
internal_count=10810 7408 5976 1432 145 1287 5209 3402 1305 767 656 98 2097 1253 1153 5109
is_linear=0
shrinkage=0.073


Tree=9
num_leaves=17
num_cat=0
split_feature=85 86 85 15 86 12 54 83 66 10 39 85 65 19 24 4
split_gain=30.2161 12.942 12.254 8.02456 6.99559 6.42899 5.78347 5.2037 5.19999 5.18422 5.02575 4.77546 4.21013 4.09547 3.73454 3.61804
threshold=2.2328922638494269 2.3069181185218866 2.8861065545825944 74.91173643485088 2.0679381907332188 4.922892881056824 -0.13333333333333339 0.59026873090235243 -19.499999999999996 6.3832977830608337 -0.37128293230455717 2.0141744206508139 2.5895345299665355 14.382075607527151 56.906896290121132 0.96094527760787429
decision_type=2 2 2 2 2 2 2 2 2 2 2 2 2 2 2 2
left_child=1 11 4 6 9 -3 -4 12 -6 -2 -5 -1 13 -7 -8 -14
right_child=2 5 3 10 8 7 14 -9 -10 -11 -12 -13 15 -15 -16 -17
leaf_value=-0.0038746311935503592 -0.00068540204345288343 0.0063263796067296344 0.015185568436430394 0.01130400761172356 -0.0037403513292953447 0.013376816520542952 0.0075958622191489378 -0.0072010486864998845 0.0021566819255154348 -0.0096384141679863641 0.0022463214611519611 -0.0013196577618740444 -0.0051374216186965884 0.002032229566123844 -0.003782935756285976 -9.1024706779632543e-06
leaf_weight=10768.779780864716 5517.3667597770691 888.05638074874878 515.11444568634033 352.99759340286255 851.11422967910767 185.27289247512817 1122.0674176216125 530.33831882476807 12420.832867145538 367.69589042663574 4372.6730179786682 6117.0175323486328 856.4853253364563 2017.3732490539551 177.71596384048462 5096.1545405387878
leaf_count=2284 1147 181 101 71 176 38 221 113 2543 77 884 1283 179 417 35 1060
internal_value=-1.94209e-06 -0.00173357 0.00178091 0.00450918 0.000849272 0.00041031 0.00863598 -0.00019426 0.00177828 -0.00124533 0.0029236 -0.00294925 0.000261061 0.00298798 0.00603777 -0.000747497
internal_weight=52157.1 26459.5 25697.6 6540.57 19157 9573.68 1814.9 8685.62 13271.9 5885.06 4725.67 16885.8 8155.29 2202.65 1299.78 5952.64
internal_count=10810 5555 5255 1312 3943 1988 357 1807 2719 1224 955 3567 1694 455 256 1239
is_linear=0
shrinkage=0.073


Tree=10
num_leaves=17
num_cat=0
split_feature=88 86 85 88 85 85 3 21 86 37 12 90 87 85 59 28
split_gain=37.9301 16.3366 11.4789 8.23917 7.55003 6.46892 5.62261 5.56425 5.53579 5.27734 4.42406 4.12677 3.8791 3.86433 3.77339 3.6742
threshold=5.2719200476203323 2.5667247298595934 2.0788774553232692 4.3002321776148538 2.9509703987072053 2.0237564272224429 1.5221727900590296 48.532504479243926 2.8348724455328571 13.809189424457774 5.7194472823703011 10.104818185906506 2.9952098499454327 3.2067255141768856 1.0575355043209167 1.4367164201652822
decision_type=2 2 2 2 2 2 2 2 2 2 2 2 2 2 2 2
left_child=1 2 11 6 10 -2 -4 -6 9 12 -3 -1 13 -7 -10 -13
right_child=5 4 3 -5 7 8 -8 -9 14 -11 -12 15 -14 -15 -16 -17
leaf_value=-0.0057074755715447482 0.00016930444245753188 0.0033545240393696388 -0.003877806211924361 0.00069561796588180145 0.016204514876496882 0.0026948367290956219 0.00037835162852403324 0.0043861070135378611 -0.00056460214454858652 -0.0015351596101281213 -0.00033979427710452707 0.00016891626789127082 0.0084893190941287763 0.0088661879180763851 0.0087232865758704037 -0.0033610338139619506
leaf_weight=3202.773220539093 2154.640477180481 2536.1528086662292 4994.8550515174866 10624.002359390259 269.91669034957886 4129.2505464553833 2471.1805629730225 1000.5192584991455 261.92080593109131 933.73010730743408 5413.4469676017761 1924.1559734344482 1009.9184904098511 622.86588954925537 2075.9497423171997 8532.0050849914551
leaf_count=688 448 517 1043 2193 53 841 513 199 53 193 1114 406 202 123 415 1809
internal_value=-2.10044e-06 -0.00103091 -0.00181651 -0.000610175 0.00167397 0.00376491 -0.00246868 0.0068997 0.00462218 0.00355353 0.000838442 -0.00341398 0.00437866 0.00350439 0.00768149 -0.00271117
internal_weight=52157.3 40969 31749 18090 9220.04 11188.3 7466.04 1270.44 9033.64 6695.77 7949.6 13658.9 5762.03 4752.12 2337.87 10456.2
internal_count=10810 8535 6652 3749 1883 2275 1556 252 1827 1359 1631 2903 1166 964 468 2215
is_linear=0
shrinkage=0.073


Tree=11
num_leaves=17
num_cat=0
split_feature=85 85 90 25 89 58 67 87 25 23 41 87 22 5 44 2
split_gain=26.3414 13.1782 6.09489 5.34047 5.01185 5.79776 4.90346 4.79486 6.26055 4.66511 4.70495 4.76385 4.20656 4.02954 3.87174 4.01387
threshold=2.7184314045431055 2.0141744206508139 14.318198923514105 38.485530418882142 13.587084656625391 0.5864075520252815 -9.4999999999999982 2.8133899356766157 45.532999199458636 3.838769871316543 0.31712518737943368 1.7027635673027939 6.4729452046978082 0.75651768844019884 0.34166666666666673 1.369004817603017
decision_type=2 2 2 2 2 2 2 2 2 2 2 2 2 2 2 2
left_child=1 4 -2 -4 -1 -6 -3 -5 -9 -8 12 -12 -11 -13 -10 -16
right_child=2 6 3 7 5 -7 9 8 14 10 11 13 -14 -15 15 -17
leaf_value=-0.0031896233597732671 0.0018014638104065289 -0.0025010772514549346 0.016087733052605857 0.0031680702376824942 0.0011878356885095202 -0.0050692273379065039 -0.00076044088887540268 0.015994130488811448 0.014400670925245241 0.0031300785124290095 -0.0042660842427994341 0.01177411240547236 0.015067999278055992 0.00090760728572077684 0.0090650128866669628 -0.0025442518913634427
leaf_weight=11976.461123943329 5551.8227739334106 3090.9951028823853 238.43936395645142 2809.2682323455811 3322.4843955039978 1034.8792581558228 8490.9696888923645 410.73041820526123 181.52716684341431 3451.5031957626343 963.24541616439819 185.37680673599243 164.94140291213989 9634.1522169113159 273.78524160385132 376.93065881729126
leaf_count=2548 1125 646 46 561 695 218 1753 79 36 711 201 38 34 1990 54 75
internal_value=-2.25921e-06 -0.000793522 0.00339924 0.00546594 -0.0024183 -0.000297582 0.000227829 0.00484009 0.00861652 0.00059646 0.0013968 0.000632272 0.00367549 0.00111309 0.0049715 0.00233601
internal_weight=52157.5 42315 9842.5 4290.68 16333.8 4357.36 25981.2 4052.24 1242.97 22890.2 14399.2 10782.8 3616.44 9819.53 832.243 650.716
internal_count=10810 8834 1976 851 3461 913 5373 805 244 4727 2974 2229 745 2028 165 129
is_linear=0
shrinkage=0.073


Tree=12
num_leaves=17
num_cat=0
split_feature=88 86 88 7 48 86 59 83 56 21 86 18 84 82 35 49
split_gain=34.409 14.8915 8.04017 6.50249 5.75419 4.94657 4.68472 4.4391 4.31476 3.9987 3.92024 3.84456 3.75379 3.40471 5.07773 3.86823
threshold=5.2719200476203323 2.5667247298595934 4.3002321776148538 1.8882390255971895 0.94809071173909054 2.8348724455328571 1.0575355043209167 0.29355398985495285 0.28991596638655465 45.674563742947221 2.9305119243970785 19.211307619179102 3.1943887982039967 0.22511820705337662 1.3337685716543357 0.64791549238506585
decision_type=2 2 2 2 2 2 2 2 2 2 2 2 2 2 2 2
left_child=1 2 4 12 -1 13 -7 -3 -8 -5 -9 -11 -4 14 -2 -15
right_child=5 7 3 9 -6 6 8 10 -10 11 -12 -13 -14 15 -16 -17
leaf_value=-0.0013445908774911927 0.009482677921634864 0.0035147747722762031 -0.0012713513067352505 -0.0035533795777397134 -0.0042307965725801129 -0.0014800532292432709 0.0049724489952381584 -0.0011333042363512937 0.011373695647506283 0.0011690620574804546 0.0030070386162735769 0.010188028363460012 0.0049837267168101459 -0.00071324842843999256 -0.0026335576648945725 0.0040502826757408128
leaf_weight=6554.2907028198242 220.20592975616455 3783.4292707443237 14877.908735752106 272.46972513198853 8408.1087789535522 359.09481620788574 1446.7084169387817 3619.1709637641907 919.62699031829834 436.90896606445312 1837.1137385368347 597.27577686309814 529.26408433914185 1066.1967272758484 1129.2743425369263 6100.6150312423706
leaf_count=1377 44 764 3110 56 1788 73 289 744 181 90 375 123 108 217 232 1239
internal_value=-2.36381e-06 -0.000985231 -0.00173743 -0.000636805 -0.00296669 0.00357466 0.00628233 0.0015932 0.00746152 0.004307 0.000260211 0.00638079 -0.00105628 0.00270778 -0.000654103 0.00334121
internal_weight=52157.7 40915.9 31676.2 16713.8 14962.4 11241.7 2725.43 9239.71 2366.34 1306.65 5456.28 1034.18 15407.2 8516.29 1349.48 7166.81
internal_count=10810 8535 6652 3487 3165 2275 543 1883 470 269 1119 213 3218 1732 276 1456
is_linear=0
shrinkage=0.073


Tree=13
num_leaves=17
num_cat=0
split_feature=88 85 88 66 67 37 85 20 85 15 49 11 42 47 13 71
split_gain=31.8723 13.3128 9.38096 5.9085 5.76602 5.51527 4.81652 4.49237 4.56102 5.01312 4.29552 4.23754 4.2119 3.88091 3.86246 3.66552
threshold=5.2719200476203323 2.083387055807119 3.9061638643246241 -24.499999999999996 -4.4999999999999991 14.133781139855637 2.0141744206508139 71.643538123000937 2.9509703987072053 75.836691346166447 1.0454453751418462 6.9246553623048444 0.11424295148621967 1.0332223837417691 4.4348175707719948 2.5000000000000004
decision_type=2 2 2 2 2 2 2 2 2 2 2 2 2 2 2 2
left_child=1 3 -3 13 11 6 -2 8 -6 -10 -7 -4 -8 -1 -5 -12
right_child=5 2 4 14 7 10 12 -9 9 -11 15 -13 -14 -15 -16 -17
leaf_value=-0.010428267508480934 0.00039644131360547528 -0.0027078087361048189 -0.00069487888331514077 0.0064615495139077189 0.0012953217528678417 -0.0035562494668798543 0.0013517143076242481 -0.0058085479158629608 0.010267719406476142 0.0026138459672363128 0.013406294311244946 -0.01039547778066203 0.0055869950701922053 0.002295349933976384 -0.0023710587977125784 0.00049023743911206466
leaf_weight=754.93443584442139 1593.4946441650391 4940.3277068138123 5295.0485563278198 268.25698757171631 11337.012811660767 975.82343149185181 1545.2463521957397 417.35223960876465 659.0233211517334 1485.6716322898865 170.46204805374146 251.40979862213135 6621.5816941261292 153.32310724258423 15313.43202829361 375.44097995758057
leaf_count=163 330 1032 1096 57 2333 203 309 86 127 297 35 53 1321 33 3258 77
internal_value=-2.48804e-06 -0.000950593 0.000132635 -0.00255268 0.000854432 0.00343231 0.00406966 0.0016486 0.00187968 0.00496722 -0.000653698 -0.00113517 0.004786 -0.00827717 -0.00221879 0.00452928
internal_weight=52157.8 40875.8 24385.8 16489.9 19445.5 11282 9760.32 13899.1 13481.7 2144.69 1521.73 5546.46 8166.83 908.258 15581.7 545.903
internal_count=10810 8535 5024 3511 3992 2275 1960 2843 2757 424 315 1149 1630 196 3315 112
is_linear=0
shrinkage=0.073


Tree=14
num_leaves=17
num_cat=0
split_feature=86 90 90 86 17 7 7 90 26 37 26 17 20 41 87 23
split_gain=23.8321 11.1905 8.86182 6.46984 6.35355 5.97317 5.47321 5.00329 4.25979 4.03081 4.0087 3.84824 3.8949 3.52555 3.5005 5.64297
threshold=2.238885289235323 15.509811817886662 12.566815011294091 2.9209206060283237 25.994263783495054 1.5853293030007143 1.4637155626466938 11.521724308445718 2.0304793998247432 12.035312525698654 2.5841871431319805 32.404780880801191 72.526902468891521 0.31986887852615603 2.7551150607207888 5.4702556985052615
decision_type=2 2 2 2 2 2 2 2 2 2 2 2 2 2 2 2
left_child=1 4 3 8 -1 7 9 10 -2 -3 -6 -4 14 -8 -13 -16
right_child=2 6 11 -5 5 -7 13 -9 -10 -11 -12 12 -14 -15 15 -17
leaf_value=0.0040037905999497506 -0.0018164668699379089 0.0035825748406741651 0.0044695230167792616 0.0035409344274815453 -0.0050876489708194424 -4.0659152215608145e-05 0.018958185886833751 -0.001940798895062532 0.0016228949989904413 -0.0048915255998210998 0.00076745437445041294 0.0013502350625210393 -0.007260373664274314 0.0059013798307265067 0.0029307326898290608 0.012215725380625124
leaf_weight=903.02778100967407 6525.3900656700134 1200.3012371063232 4754.2176666259766 2274.7721362113953 5879.8135018348694 5140.9160928726196 165.2170615196228 11466.068377017975 2717.6441168785095 398.16324520111084 696.03782796859741 7076.4687852859497 239.32648992538452 334.16799879074097 1961.7947769165039 424.67884063720703
leaf_count=190 1359 244 956 461 1263 1076 33 2406 564 83 149 1437 49 67 389 84
internal_value=-2.60219e-06 -0.00155683 0.00156405 5.31546e-05 -0.0020023 -0.00223638 0.00355621 -0.00286187 -0.000804905 0.00146987 -0.00446746 0.0027676 0.00193333 0.0102279 0.00216618 0.00458439
internal_weight=52158 26183.7 25974.3 11517.8 24085.9 23182.8 2097.85 18041.9 9243.03 1598.46 6575.85 14456.5 9702.27 499.385 9462.94 2386.47
internal_count=10810 5511 5299 2384 5084 4894 427 3818 1923 327 1412 2915 1959 100 1910 473
is_linear=0
shrinkage=0.073


Tree=15
num_leaves=17
num_cat=0
split_feature=66 87 17 13 12 15 89 87 4 14 24 1 47 31 34 49
split_gain=12.6275 9.02924 5.32972 5.36245 5.15323 4.67541 4.20144 4.07883 4.3056 4.03181 5.2696 4.11497 3.99071 3.94205 3.79465 3.78823
threshold=-6.4999999999999991 2.6848681739642455 32.100956647668504 7.7757417551204497 6.5240033206735761 78.079446920286713 12.194072909196134 1.9160706758040329 2.0602656569318261 72.22471075488599 38.726820931835448 0.78880654905561076 0.94260965297649724 1.6696586979337777 2.0466527518156501 0.79779261172738025
decision_type=2 2 2 2 2 2 2 2 2 2 2 2 2 2 2 2
left_child=4 2 7 -4 13 -3 -7 8 -2 10 -9 -11 14 -1 -8 -12
right_child=1 5 3 -5 -6 6 12 9 -10 11 15 -13 -14 -15 -16 -17
leaf_value=0.00083577261188673663 -0.0017181133238891265 0.0059200199879652143 2.5718129782500102e-05 -0.0029459093735601043 -0.0031410127869774241 -0.00089307460275997908 0.0071604904032633622 -0.0020994151031146812 0.0085170320908908182 0.013249825096761906 0.021215196275872709 0.001672138549782137 0.00044088236029948125 -0.003483443899971482 0.00026743103404133648 0.0060732020400716203
leaf_weight=4365.7679600715637 2536.8185873031616 2026.9947853088379 17088.583874702454 3991.4951019287109 7785.2083215713501 1965.5985178947449 1580.6247215270996 164.67857074737549 239.63225030899048 168.051513671875 177.78153228759766 6248.3417358398438 1541.8256649971008 1517.2461671829224 583.62941217422485 175.85512018203735
leaf_count=904 529 400 3548 837 1643 404 319 34 50 34 36 1284 313 321 118 36
internal_value=-2.69106e-06 0.000674119 0.000114945 -0.000536822 -0.00190881 0.00291017 0.00183395 0.00153004 -0.000833587 0.00247678 0.00867135 0.00197589 0.00328106 -0.000277683 0.00530304 0.013695
internal_weight=52158.1 38489.9 30791.2 21080.1 13668.2 7698.67 5671.68 9711.16 2776.45 6934.71 518.315 6416.39 3706.08 5883.01 2164.25 353.637
internal_count=10810 7942 6388 4385 2868 1554 1154 2003 579 1424 106 1318 750 1225 437 72
is_linear=0
shrinkage=0.073


Tree=16
num_leaves=17
num_cat=0
split_feature=84 83 64 17 3 13 11 89 83 7 72 82 16 57 13 19
split_gain=11.9015 9.15964 6.49253 5.71697 5.39295 4.77769 4.7041 4.11688 3.86922 3.61953 3.58703 3.52342 4.22658 3.49572 3.46499 3.70273
threshold=2.7385845670389304 0.50878833677931457 0.48684210526315791 32.404780880801191 1.8703290143550737 7.6183945184082207 7.1570878090357395 12.952235388427866 0.23170958116237489 0.75351266243645376 0.099900000000000017 0.15518145357031538 31.455613173970445 0.15419580419580417 4.3776481874667006 20.752000073205092
decision_type=2 2 2 2 2 2 2 2 2 2 2 2 2 2 2 2
left_child=1 2 4 10 5 13 14 -3 11 -9 -4 -5 -13 -1 -2 -16
right_child=6 7 3 8 -6 -7 -8 9 -10 -11 -12 12 -14 -15 15 -17
leaf_value=-0.0035364592595143519 0.012747754335572637 -0.0057914912637030917 -0.003125341725184457 -0.0064317455503592538 0.004769414784171597 -0.0020726612381596673 -0.0073146368433821447 0.0078498821638897792 -0.0028430639877699724 -0.0023915042877375265 0.0012765520012987966 0.0072836819332240191 -0.00027541474493398324 0.0012260509170155653 0.003802774053619899 0.00086292611502813261
leaf_weight=872.58675765991211 175.73318672180176 2389.5580101013184 1192.3189029693604 364.87269830703735 1619.3732967376709 3449.5219502449036 262.48056507110596 216.77298927307129 9208.2170572280884 1209.596540927887 5709.2345252037048 494.59358930587769 1937.9381151199341 13899.941945075989 4773.2145323753357 4382.2431049346924
leaf_count=182 35 516 247 76 333 723 55 46 1926 256 1179 101 400 2880 958 897
internal_value=-2.73546e-06 -0.000526309 -0.000190174 -0.00115823 0.000732156 0.000373201 0.00231991 -0.00393878 -0.00212072 -0.000832873 0.000515642 0.000255997 0.00126041 0.000944533 0.00259126 0.00239595
internal_weight=52158.2 42564.5 38748.6 18907.2 19841.4 18222.1 9593.67 3815.93 12005.6 1426.37 6901.55 2797.4 2432.53 14772.5 9331.19 9155.46
internal_count=10810 8865 8047 3929 4118 3785 1945 818 2503 302 1426 577 501 3062 1890 1855
is_linear=0
shrinkage=0.073


Tree=17
num_leaves=17
num_cat=0
split_feature=85 90 12 83 20 20 33 34 90 85 82 14 29 64 37 16
split_gain=20.599 9.69553 5.68495 5.42311 5.27358 4.8927 4.49462 4.75458 4.40517 3.77412 3.42794 3.40531 3.34405 3.22801 3.22086 3.02136
threshold=2.2328922638494269 14.318198923514105 5.0511209871696003 0.4407205129066446 71.643538123000937 68.598286991493566 0.52893258123626896 1.920798450936221 18.14378504172365 2.1798175605381007 0.11274451350398076 130.36380698539492 3.0018918237625756 0.5688854489164088 15.781363631219827 28.289308169297325
decision_type=2 2 2 2 2 2 2 2 2 2 2 2 2 2 2 2
left_child=2 6 4 11 9 8 -2 14 12 -1 -9 13 -3 15 -8 -4
right_child=1 5 3 -5 -6 -7 7 10 -10 -11 -12 -13 -14 -15 -16 -17
leaf_value=0.0027232415096276456 0.0095367047151745446 0.0032580141077192416 0.0031253995399669185 -0.0042776675844562661 -0.0061186257150425867 -0.0043061654575227096 -0.00038756224146923609 -0.0087619314245916506 0.011548775132225334 0.01429781071422153 0.0020604564884451728 -0.010131733849132933 0.011901829076185769 -0.0023108767849842776 -0.0071767548175292002 -0.00080193424056478394
leaf_weight=1584.5189056396484 288.50199317932129 7124.6251764297485 1154.9123935699463 3838.1081647872925 339.27676725387573 402.29264116287231 10037.204845905304 159.45438957214355 386.31571531295776 166.01089763641357 6886.214066028595 229.30647659301758 247.0416579246521 8089.4875159263611 386.77744960784912 10838.223659038544
leaf_count=328 58 1417 241 832 72 81 2054 33 74 34 1407 49 49 1714 82 2285
internal_value=-2.78756e-06 0.00145685 -0.00144465 -0.0017608 0.00220738 0.00353972 0.000499552 0.000350123 0.00394696 0.00382283 0.00181507 -0.00128507 0.00354814 -0.0011839 -0.000639774 -0.00042349
internal_weight=52158.3 25918.4 26239.8 24150 2089.81 8160.28 17758.2 17469.7 7757.98 1750.53 7045.67 20311.9 7371.67 20082.6 10424 11993.1
internal_count=10810 5255 5555 5121 434 1621 3634 3576 1540 362 1440 4289 1466 4240 2136 2526
is_linear=0
shrinkage=0.073


Tree=18
num_leaves=17
num_cat=0
split_feature=88 85 88 90 20 85 15 54 41 83 24 1 42 29 48 43
split_gain=27.6303 10.7972 8.39749 5.05908 4.71178 4.92197 4.25173 6.0795 4.22573 4.19277 3.93195 3.57078 3.55366 4.10277 3.57787 4.41486
threshold=5.2719200476203323 2.083387055807119 3.9061638643246241 11.521724308445718 71.643538123000937 3.0047860991847632 74.91173643485088 -0.13333333333333339 0.41216820455427888 0.4407205129066446 54.586986347703665 0.89659092836250487 0.079605732079592512 2.1270781299624413 0.80050458441622929 0.32035497756666226
decision_type=2 2 2 2 2 2 2 2 2 2 2 2 2 2 2 2
left_child=1 9 -3 -2 5 -4 7 -7 11 -1 -11 -5 13 -13 -14 -16
right_child=3 2 4 8 -6 6 -8 -9 -10 10 -12 12 14 -15 15 -17
leaf_value=-0.0018354571203781722 0.00026962827950010801 -0.0026093811868729204 0.0004998272388036265 0.0094615760223057382 -0.0058511461323562247 0.020293039765954476 0.0021558108707845332 0.0046743408504147229 0.0074225337216551942 -0.0061056103483813785 0.0026886429251002583 -0.0040646688745037511 -0.00044203544307180485 0.0075583408290886564 0.00591481649997739 0.001310823911713368
leaf_weight=13821.509452342987 2484.5341734886169 4925.8732461929321 16437.087071895599 463.04312467575073 557.21535015106201 183.2635293006897 1830.3135981559753 485.10428190231323 1579.4981594085693 2257.0528359413147 307.37506008148193 705.46240568161011 1019.3875508308411 209.88418674468994 3185.4655094146729 1706.2936682701111
leaf_count=2948 513 1032 3386 91 116 34 364 92 313 496 67 142 201 42 632 341
internal_value=-2.85045e-06 -0.000889173 8.34499e-05 0.00318233 0.000764081 0.000958909 0.00397767 0.00896208 0.00399795 -0.00233878 -0.00505036 0.00325548 0.00283405 -0.00139621 0.00348961 0.00430952
internal_weight=52158.4 40804.8 24418.9 11353.6 19493 18935.8 2498.68 668.368 8869.03 16385.9 2564.43 7289.54 6826.49 915.347 5911.15 4891.76
internal_count=10810 8535 5024 2275 3992 3876 490 126 1762 3511 563 1449 1358 184 1174 973
is_linear=0
shrinkage=0.073


Tree=19
num_leaves=17
num_cat=0
split_feature=88 66 88 90 7 90 79 53 7 87 84 32 12 83 7 26
split_gain=25.601 9.18537 8.59949 4.99897 5.86717 4.66251 4.16989 4.18143 3.72428 4.32844 4.07522 4.36141 3.72239 3.69833 3.65054 3.60848
threshold=5.2719200476203323 -24.499999999999996 4.3224128854000492 15.108933489004837 1.5853293030007143 11.521724308445718 1.5500000000000003 0.30384615384615393 1.8666709139088784 2.9152668437558256 3.1943887982039967 2.0323764811921312 6.609271332669814 0.50878833677931457 1.2062936614087512 1.6564615456620781
decision_type=2 2 2 2 2 2 2 2 2 2 2 2 2 2 2 2
left_child=1 -1 3 13 -5 -2 7 -7 10 -10 11 -4 -8 -3 -12 -13
right_child=5 2 8 4 -6 6 12 -9 9 -11 14 15 -14 -15 -16 -17
leaf_value=-0.0059792411470126518 0.00025978281171305182 -0.0018689561413021084 -0.00056847239026066785 -8.3771925794959379e-05 0.011103077368798911 0.012998028002938384 0.0045926573792178004 0.00064361236357675367 0.002316794881322381 0.014232309145794231 -0.002159237107146916 -0.0059143609892504069 0.0013876922897163005 -0.0059338226260808391 0.0076811719833626826 0.0041686951749568121
leaf_weight=1784.620593547821 2485.2041630744934 14835.011887073517 16413.815275669098 1287.8309063911438 309.78954458236694 484.634605884552 5095.5602884292603 209.65434980392456 1748.8549938201904 179.24061059951782 287.02151727676392 211.86173439025879 3114.7703795433044 1297.9595465660095 666.25452136993408 1746.3867211341858
leaf_count=386 513 3140 3409 265 62 95 1004 41 358 35 58 44 622 283 133 362
internal_value=-2.9258e-06 -0.000857821 -0.000623291 -0.00181037 0.00208379 0.00305682 0.00383711 0.00927178 0.000366886 0.00342623 6.14974e-05 -0.000179824 0.00337715 -0.00219618 0.00471529 0.00307624
internal_weight=52158.5 40768.6 38984 17730.6 1597.62 11389.8 8904.62 694.289 21253.4 1928.1 19325.3 18372.1 8210.33 16133 953.276 1958.25
internal_count=10810 8535 8149 3750 327 2275 1762 136 4399 393 4006 3815 1626 3423 191 406
is_linear=0
shrinkage=0.073


Tree=20
num_leaves=17
num_cat=0
split_feature=88 86 85 85 88 3 21 37 20 85 5 79 84 37 30 45
split_gain=23.7248 11.7798 7.43225 5.23411 4.69674 4.92375 4.61597 4.44333 4.11919 3.79089 3.99519 4.13878 3.96671 3.74185 3.88921 3.71818
threshold=5.2719200476203323 2.5667247298595934 2.0141744206508139 2.9509703987072053 4.3002321776148538 1.5221727900590296 48.532504479243926 14.133781139855637 71.069846102683627 2.0141744206508139 1.4903755718902223 1.7750000000000001 1.8694246106720593 15.781363631219827 1.7929261512875239 0.89444444444444449
decision_type=2 2 2 2 2 2 2 2 2 2 2 2 2 2 2 2
left_child=1 2 15 -3 5 -4 -5 9 13 -2 12 -12 -11 14 -6 -1
right_child=7 3 4 6 8 -7 -8 -9 -10 10 11 -13 -14 -15 -16 -17
leaf_value=-0.0034648483178595694 0.00024640032319576038 0.00075644354487814356 -0.0032080886250968775 0.014023290479307461 0.00020181876257822757 0.00059279620946013525 0.0034631388121682282 -0.00072970909020166443 -0.0071170816415120301 -0.002293764762974796 0.017059010782709268 0.0059575276946649764 0.003888788143600377 -0.0064079882191334396 0.0038966516975575093 0.0003506040567088966
leaf_weight=10179.963032722473 1600.0456986427307 7967.2141809463501 5547.5601763725281 281.62891912460327 8855.432861328125 2698.5220541954041 1023.7725424766541 1524.9828658103943 383.47946929931641 608.47597312927246 203.96868371963501 1482.124372959137 6005.128607749939 393.93607616424561 1832.7709860801697 1569.5622663497925
leaf_count=2210 330 1631 1176 53 1825 563 199 315 81 121 40 296 1173 84 375 338
internal_value=-2.9933e-06 -0.000827579 -0.00150157 0.00145892 -0.000635134 -0.0019639 0.00574393 0.00293673 0.000320264 0.00350181 0.00412905 0.00730253 0.00331952 0.000577906 0.000835677 -0.00295491
internal_weight=52158.6 40733.8 31461.2 9272.62 19711.7 8246.08 1305.4 11424.7 11465.6 9899.74 8299.7 1686.09 6613.6 11082.1 10688.2 11749.5
internal_count=10810 8535 6652 1883 4104 1739 252 2275 2365 1960 1630 336 1294 2284 2200 2548
is_linear=0
shrinkage=0.073


Tree=21
num_leaves=17
num_cat=0
split_feature=88 86 85 85 21 88 81 90 14 14 90 41 84 66 13 23
split_gain=21.9872 11.0281 6.83643 4.89177 4.72191 4.69664 4.43276 4.20575 4.18049 3.92717 3.79896 3.74117 4.55814 4.45085 4.02631 4.77285
threshold=5.2719200476203323 2.3728475381966283 2.0141744206508139 2.9509703987072053 55.760138007228676 3.8131562494639746 0.17322387682880702 11.521724308445718 105.16839637169466 90.958780224089324 9.8089994999618444 0.41216820455427888 2.7744814956413748 -9.4999999999999982 5.6100317957596539 3.3071489603426785
decision_type=2 2 2 2 2 2 2 2 2 2 2 2 2 2 2 2
left_child=1 2 10 6 8 -4 -3 -2 -5 -6 -1 13 -13 -9 15 -15
right_child=7 3 5 4 9 -7 -8 11 -10 -11 -12 12 -14 14 -16 -17
leaf_value=-0.0059691468662310511 0.00016720551553430559 -0.0059450414297045279 -0.0032336698121174421 0.0090924838173120949 -0.0054283072373943163 -0.00014332343202918938 0.00062767971095477131 -0.0012315387302877547 -0.0033440146654262178 0.005557609484028495 -0.0024541704804823981 0.0043548491292722128 0.013078170268959943 -0.0032551636160408166 0.0024512751318280087 0.0079908393848540874
leaf_weight=2061.2569179534912 2491.5218367576599 573.39458799362183 3272.3396754264832 972.33475637435913 376.6770806312561 13171.756346225739 11756.040895938873 1186.2056937217712 168.68990850448608 321.20140790939331 8026.5869541168213 1163.0899147987366 440.93116855621338 230.18329048156738 4374.0372262001038 1572.4085249900818
leaf_count=457 513 124 697 186 74 2739 2420 238 33 63 1742 228 85 45 860 306
internal_value=-3.05405e-06 -0.000798367 -0.00167651 0.000845863 0.00435823 -0.000758479 0.000321756 0.00282164 0.00725126 -0.000367787 -0.00317269 0.00355887 0.00675485 0.0028622 0.00364886 0.00655312
internal_weight=52158.7 40700.3 26531.9 14168.3 1838.9 16444.1 12329.4 11458.4 1141.02 697.878 10087.8 8966.86 1604.02 7362.83 6176.63 1802.59
internal_count=10810 8535 5635 2900 356 3436 2544 2275 219 137 2199 1762 313 1449 1211 351
is_linear=0
shrinkage=0.073


Tree=22
num_leaves=17
num_cat=0
split_feature=86 85 85 15 83 17 85 33 62 83 7 72 21 30 16 23
split_gain=17.701 8.88325 7.84593 5.63024 5.45863 4.79246 4.82229 4.82255 4.15547 3.7971 3.75985 3.58285 3.229 5.79691 4.62661 5.04174
threshold=2.238885289235323 2.0184239003851308 2.7271491881720635 72.46418188134642 0.59026873090235243 25.994263783495054 3.1836430500334574 0.84482105383963657 -1.4999999999999998 0.070712489900971412 1.5979956791183632 0.21920000000000003 48.340860015743729 1.1311971204949491 38.148514842787769 3.018000053027134
decision_type=2 2 2 2 2 2 2 2 2 2 2 2 2 2 2 2
left_child=1 10 4 -4 12 -3 9 -8 -5 -7 -1 -10 13 -2 15 -14
right_child=2 5 3 8 -6 6 7 -9 11 -11 -12 -13 14 -15 -16 -17
leaf_value=-0.0037918862137766873 0.0057455638715317291 0.0063133572947102826 0.0079419326951018793 0.0095293350475656267 -0.0046255369478692349 -0.0088346109303795266 0.014592689079998018 0.0017809640024301853 -0.0022715165255246229 -0.00069006878516347727 -0.00014786956249553489 0.0028471108996465455 -0.0021427819031142165 -0.0024058664805188686 -0.00069266733671520379 0.0027159105846260409
leaf_weight=7878.3480100631714 552.68905591964722 562.46649932861328 1255.3400974273682 411.33114719390869 1004.2017889022827 311.64922952651978 200.94240617752075 712.03831338882446 898.10782241821289 14495.118091583252 1868.4095788002014 3851.7727193832397 1288.5264801979065 2922.6889190673828 4235.3813405036926 9709.7417583465576
leaf_count=1723 113 116 235 80 217 66 38 140 177 3025 403 755 265 597 873 1987
internal_value=-3.12152e-06 -0.00135058 0.00133903 0.00355632 0.000617157 -0.000306972 -0.000544052 0.00460438 0.00248901 -0.00086171 -0.00309365 0.00187866 0.000898721 -0.00110866 0.00135688 0.00214641
internal_weight=52158.8 26029 26129.8 6416.55 19713.2 16282.2 15719.7 912.981 5161.21 14806.8 9746.76 4749.88 18709 3475.38 15233.6 10998.3
internal_count=10810 5511 5299 1247 4052 3385 3269 178 1012 3091 2126 932 3835 710 3125 2252
is_linear=0
shrinkage=0.073


Tree=23
num_leaves=17
num_cat=0
split_feature=86 86 81 84 25 29 1 82 17 56 13 86 12 30 30 27
split_gain=16.4404 6.29547 5.65077 5.42135 4.27505 3.97221 3.964 3.76785 3.62233 4.22997 3.78547 3.33698 3.12417 3.12472 3.51742 3.04214
threshold=2.238885289235323 2.9677697909534211 0.26311750148574559 2.9526594699187769 41.785460633752578 2.2970006022485845 1.1411734330653873 0.15518145357031538 32.100956647668504 0.36602870813397131 5.0792809988695344 1.9558836861100519 6.3966439669044588 1.1671556100977252 1.5551885446046461 2.3435384543379225
decision_type=2 2 2 2 2 2 2 2 2 2 2 2 2 2 2 2
left_child=3 2 12 7 -3 -5 -6 -1 9 10 -4 -7 13 -2 -15 -9
right_child=1 4 8 5 6 11 -8 15 -10 -11 -12 -13 -14 14 -16 -17
leaf_value=-0.0061288060472830469 0.0073316271287270952 0.0099191815617044911 -0.0046831581780378915 0.00091184430355460797 -0.0010920588538698896 0.0024920871357016912 0.0040783447251282424 -0.00099976808415231885 0.00043588443907239188 0.0082778930023086131 0.0024813306077615211 0.016929160346971728 -0.0045931102333106833 -0.0057251756835930466 0.0042387526176868046 -0.0031545009263622198
leaf_weight=930.72158861160278 271.27580165863037 515.37361192703247 423.28487396240234 1247.2777876853943 1023.7007741928101 169.50234127044678 3451.8013625144958 19203.22087430954 12106.025777816772 626.1772027015686 5444.9469079971313 172.8947114944458 1515.0878686904907 473.60680246353149 313.63554668426514 4270.3063201904297
leaf_count=201 56 99 86 256 199 35 685 4061 2462 125 1099 35 323 99 66 923
internal_value=-3.18189e-06 0.00128855 0.000738625 -0.00130352 0.00362102 0.00282644 0.00289504 -0.00157267 0.00118232 0.00257328 0.00196402 0.0097916 -0.002467 0.000573451 -0.00175185 -0.00139189
internal_weight=52158.8 26164.9 21174 25993.9 4990.88 1589.67 4475.5 24404.2 18600.4 6494.41 5868.23 342.397 2573.61 1058.52 787.242 23473.5
internal_count=10810 5299 4316 5511 983 326 884 5185 3772 1310 1185 70 544 221 165 4984
is_linear=0
shrinkage=0.073


Tree=24
num_leaves=17
num_cat=0
split_feature=88 86 90 86 7 66 88 12 29 22 37 12 8 28 41 27
split_gain=19.3443 9.18178 6.02852 5.87973 4.26762 4.25142 4.1891 4.07708 4.03295 3.94809 3.90914 3.70234 3.64913 4.13322 3.57143 3.47908
threshold=5.2719200476203323 2.5667247298595934 12.482692189842719 1.6443616302232724 1.9132814442300325 -20.499999999999996 3.6019026447293876 6.6558223056086288 2.8178920416566782 3.9461477246956433 13.871842678734215 5.7194472823703011 13.840170910327105 1.0597574026216952 0.40177425421100449 1.6159886280303668
decision_type=2 2 2 2 2 2 2 2 2 2 2 2 2 2 2 2
left_child=1 2 4 -4 12 -5 -7 14 -8 -6 -9 -3 -1 -14 -2 -16
right_child=7 11 3 5 9 6 8 10 -10 -11 -12 -13 13 -15 15 -17
leaf_value=-0.0033581913987811036 0.0027166422302569203 0.0033202521271470248 -0.0042879715253809998 -0.0059681533148806072 -0.0031971283595660003 -0.003224563620858031 0.00057583132273254962 0.0017418918190685393 0.0061907339150592241 0.0053351777321090886 -0.0046281261973308554 0.00023198247141824441 0.0074878707322257425 -0.0014368252294990453 0.012143977464113902 0.0047145695207775184
leaf_weight=10974.770473957062 5279.057674407959 3101.0091886520386 1760.9890108108521 571.42160224914551 488.17756843566895 1456.7246451377869 10862.732700824738 3708.2735109329224 727.49323558807373 707.35274314880371 595.68384838104248 6220.8666625022888 300.34874248504639 3474.5880379676819 434.35907745361328 1495.0196719169617
leaf_count=2377 1037 619 375 123 103 311 2255 736 149 148 124 1264 64 747 83 295
internal_value=-3.20153e-06 -0.000751438 -0.00135001 -0.000318615 -0.00234462 0.000194456 0.0004646 0.00263832 0.000928535 0.0018487 0.00085955 0.00125965 -0.0026847 -0.000725909 0.00369996 0.00638884
internal_weight=52158.9 40646.5 31324.6 15379.4 15945.2 13618.4 13047 11512.4 11590.2 1195.53 4303.96 9321.88 14749.7 3774.94 7208.44 1929.38
internal_count=10810 8535 6652 3213 3439 2838 2715 2275 2404 251 860 1883 3188 811 1415 378
is_linear=0
shrinkage=0.073


Tree=25
num_leaves=17
num_cat=0
split_feature=86 85 66 81 89 85 89 85 7 66 24 40 17 14 12 51
split_gain=14.4739 9.76896 4.96796 4.48049 4.47127 4.45629 4.71466 4.05781 3.89052 3.87506 5.13668 3.71783 3.64014 3.32127 3.37151 3.18385
threshold=2.7160848349030826 2.0141744206508139 -11.499999999999998 0.77438918401942824 14.534167005619517 2.9765600557748608 13.199604021212954 3.6490789227936467 1.5853293030007143 -20.499999999999996 47.812994910748763 0.37572684914259136 33.249057266596267 67.269639583948447 5.7194472823703011 1.0896325553132857
decision_type=2 2 2 2 2 2 2 2 2 2 2 2 2 2 2 2
left_child=1 4 11 7 -1 9 -7 8 12 10 -2 -3 -4 -11 -15 -10
right_child=5 2 3 -5 -6 6 -8 -9 15 13 -12 -13 -14 14 -16 -17
leaf_value=-0.0026896775533781603 -0.012550606338660073 -0.0035116267310929495 0.0014600681949796599 -0.0052090060203968686 0.0010649758151198179 0.0099359750710757283 0.0023794096824007573 0.008929206718343255 0.0031405867164079368 0.0087051325145368116 0.0021392066344844652 0.0015231553348933257 -0.00073197252804344545 0.0038561603708158207 0.00064345367200043728 -0.0012702610470727753
leaf_weight=12150.424771785736 228.0720067024231 2961.2003593444824 6508.0311913490295 689.14000701904297 1962.0706272125244 801.26422595977783 978.7954306602478 319.84963464736938 4603.2731170654297 392.89189195632935 285.15312099456787 1060.8925285339355 10631.902729034424 2744.6894907951355 4766.4443144798279 1074.8273577690125
leaf_count=2648 48 626 1330 143 418 150 184 60 933 77 59 222 2194 542 958 218
internal_value=-3.23932e-06 -0.000602766 0.000190036 0.000590721 -0.00216746 0.0024635 0.00578263 0.000763593 0.000648992 0.00176121 -0.00438349 -0.00218289 0.000100176 0.00216059 0.00181783 0.00230513
internal_weight=52158.9 41961.6 27849.1 23827 14112.5 10197.3 1780.06 23137.9 22818 8417.25 513.225 4022.09 17139.9 7904.03 7511.13 5678.1
internal_count=10810 8792 5726 4878 3066 2018 334 4735 4675 1684 107 848 3524 1577 1500 1151
is_linear=0
shrinkage=0.073


Tree=26
num_leaves=17
num_cat=0
split_feature=88 86 90 86 84 7 66 22 79 14 75 14 35 14 17 40
split_gain=17.4905 8.0138 5.47821 5.46357 4.15234 3.8999 3.72738 3.66615 3.63678 4.4276 3.98988 3.60624 3.5305 3.46615 3.40605 3.3779
threshold=5.2719200476203323 2.5667247298595934 12.482692189842719 1.6443616302232724 2.748948814696623 1.9132814442300325 -17.499999999999996 3.9461477246956433 1.5500000000000003 90.466937340421325 0.59090909090909094 123.17648448967897 1.8048484625462049 91.324114622969745 32.404780880801191 0.32117328074046464
decision_type=2 2 2 2 2 2 2 2 2 2 2 2 2 2 2 2
left_child=1 2 5 -4 6 -1 -5 -7 9 -2 -10 -8 15 -12 -9 -6
right_child=8 -3 3 4 12 7 11 14 10 -11 13 -13 -14 -15 -16 -17
leaf_value=-0.0025542036498188768 0.011229639836990784 0.0011589199433007992 -0.0041310336344447269 -0.0058484989615880563 0.010020172598965359 -0.0031010515069726063 0.00015776514600592743 0.01084129376197465 0.0025577169379619727 0.0012949623937704364 -0.0054582226938777343 -0.0091063400845969346 -0.0010296127198778427 0.0038904647331198783 0.0006499776074804372 0.0026060729281432615
leaf_weight=14692.584059238434 534.97289752960205 9346.9751467704773 1752.3845958709717 621.99760437011719 507.93802452087402 486.76260280609131 10612.526103019714 311.51184415817261 9627.0542149543762 433.49948978424072 642.56222295761108 228.711021900177 719.28314638137817 314.53853511810303 399.53325319290161 926.11830806732178
leaf_count=3188 104 1883 375 135 103 103 2216 64 1896 85 128 49 148 62 84 187
internal_value=-3.26035e-06 -0.000716339 -0.00127716 -0.000294295 0.000199269 -0.00222759 -0.000353012 0.00177626 0.00250288 0.00678597 0.00211067 -3.74319e-05 0.00314064 -0.00238282 0.00511924 0.00523433
internal_weight=52159 40606.3 31259.4 15369 13616.6 15890.4 11463.2 1197.81 11552.6 968.472 10584.2 10841.2 2153.34 957.101 711.045 1434.06
internal_count=10810 8535 6652 3213 2838 3439 2400 251 2275 189 2086 2265 438 190 148 290
is_linear=0
shrinkage=0.073


Tree=27
num_leaves=17
num_cat=0
split_feature=85 85 15 54 72 39 17 27 64 26 65 12 13 17 15 15
split_gain=12.8934 6.15557 5.02976 4.75033 4.20609 4.20026 3.91622 3.38125 3.43304 3.39464 4.1511 3.38531 3.31748 3.73879 3.3352 4.17634
threshold=2.7184314045431055 2.0141744206508139 74.91173643485088 0.066666666666666513 0.57990000000000008 -0.37605694244148952 34.900189007254227 2.1699224722861437 0.33281733746130032 2.3129230913241563 3.1669453734671129 4.8470471474740817 4.4348175707719948 28.790591920980713 104.56090230827658 101.73218450123986
decision_type=2 2 2 2 2 2 2 2 2 2 2 2 2 2 2 2
left_child=1 12 3 4 -2 -4 7 9 -9 11 -11 -3 -1 14 15 -14
right_child=2 6 5 -5 -6 -7 -8 8 -10 10 -12 -13 13 -15 -16 -17
leaf_value=0.0055685133117876059 0.0043088768024780334 0.0073042137483920752 0.0074325214018092006 0.0022855989986466964 0.013130819246970807 0.00089521059610248304 -0.0008902530583456415 0.0019430356177896641 -0.0029926814654693381 0.0028374037813266315 0.01216795339287749 0.00062923472228904606 0.0016943563040978989 -0.0022987862806679656 -0.0028478218076005112 0.014446152486512865
leaf_weight=328.10008192062378 593.86521148681641 423.96657085418701 566.4376072883606 1413.082405090332 561.68039798736572 6978.4225716590881 11383.471478939056 1188.7547183036804 2037.011420249939 1673.2697291374207 299.96022844314575 9047.7333159446716 1236.946132183075 13489.803057670593 782.47725915908813 154.00559663772583
leaf_count=70 111 84 110 268 105 1382 2362 247 424 340 61 1855 263 2925 170 33
internal_value=-3.28449e-06 -0.000566244 0.00233685 0.00512736 0.00859977 0.00138642 0.000125644 0.000914112 -0.00117287 0.00150259 0.00425745 0.000928349 -0.0016937 -0.00184602 0.000962841 0.00310864
internal_weight=52159 42045.5 10113.5 2568.63 1155.55 7544.86 26054.2 14670.7 3225.77 11444.9 1973.23 9471.7 15991.3 15663.2 2173.43 1390.95
internal_count=10810 8834 1976 484 216 1492 5373 3011 671 2340 401 1939 3461 3391 466 296
is_linear=0
shrinkage=0.073


Tree=28
num_leaves=17
num_cat=0
split_feature=86 90 15 7 90 86 6 64 2 12 42 2 41 57 4 90
split_gain=12.8064 8.05854 5.337 5.3225 5.15085 4.29301 3.71294 3.66796 4.38876 5.09366 3.63806 4.31376 3.58654 4.01149 3.8049 3.6668
threshold=2.238885289235323 16.28384199339866 87.583438955562016 1.5853293030007143 12.566815011294091 2.9209206060283237 0.74053684010937404 0.48684210526315791 0.85023251857187188 4.8470471474740817 0.20072064485029348 1.7429537769358647 0.31038187870813366 0.29919646314702469 0.67965316703351386 15.154702530183398
decision_type=2 2 2 2 2 2 2 2 2 2 2 2 2 2 2 2
left_child=1 3 -3 -1 5 6 -2 8 -6 -10 -11 -12 13 -5 -14 -16
right_child=4 2 -4 12 7 -7 -8 -9 9 10 11 -13 14 -15 15 -17
leaf_value=-0.0019971653318226106 0.004488075517276203 0.0090120078073996808 -0.001531849345161148 0.0023142475376502995 -0.0048639782283522517 0.0027850286492093622 -0.0011401110903138537 0.00092348135679340025 0.010649750653538537 0.00084658263906708486 0.0037816323714987676 0.013291677074472283 -0.0094230794323426816 0.01424465857862243 -0.0004897600808970433 0.009250024114482093
leaf_weight=19285.001308917999 673.68037462234497 672.46892166137695 412.19565200805664 1194.3480839729309 339.66820001602173 2318.8224854469299 8549.5212116241455 7621.1454257965088 510.45809507369995 2422.2794761657715 3564.9149026870728 274.00045585632324 239.57489728927612 171.96838426589966 3690.8100271224976 218.12331581115723
leaf_count=4140 139 131 85 250 67 461 1784 1507 99 483 705 54 51 35 776 43
internal_value=-3.27996e-06 -0.00115578 0.0050025 -0.00142524 0.001132 -2.2513e-05 -0.000728686 0.00203668 0.00322927 0.00363569 0.00306333 0.00446128 0.000574208 0.00381829 -0.000493552 5.30584e-05
internal_weight=52159 25884.5 1084.66 24799.8 26274.5 11542 9223.2 14732.5 7111.32 6771.65 6261.19 3838.92 5514.82 1366.32 4148.51 3908.93
internal_count=10810 5511 216 5295 5299 2384 1923 2915 1408 1341 1242 759 1155 285 870 819
is_linear=0
shrinkage=0.073


Tree=29
num_leaves=17
num_cat=0
split_feature=88 66 88 20 85 87 16 13 82 79 23 65 82 49 85 65
split_gain=15.5502 7.31728 6.25036 5.35295 5.01494 5.61201 4.84052 4.6442 3.58732 4.50932 4.65357 3.75363 3.5751 3.23668 3.30615 3.20199
threshold=5.2719200476203323 -24.499999999999996 3.7992404269713078 71.069846102683627 2.9509703987072053 2.8133899356766157 27.840121402434217 5.921567338052399 0.25522839974983091 1.5500000000000003 3.5290264174104586 2.7144874899112192 0.12910566967364748 1.1099757409573072 1.6775671356325585 3.1309108219612827
decision_type=2 2 2 2 2 2 2 2 2 2 2 2 2 2 2 2
left_child=1 13 15 4 6 -6 -4 -7 11 10 -10 -2 -8 14 -1 -3
right_child=8 2 3 -5 5 7 12 -9 9 -11 -12 -13 -14 -15 -16 -17
leaf_value=-0.012848376367440626 0.0026465480115658233 -0.0028874959995612228 0.0026879447564707773 -0.0051986421781756442 0.0010698782474191924 0.0024496420920171518 -0.0090689528943217468 0.013553844438836862 -0.00079575323200647855 0.0026665502166395086 0.012675068751289579 -0.0022156376296079148 -0.00038357366528223334 0.0032628051776031047 -0.0046581202593179074 0.0015301840748226483
leaf_weight=337.03212308883667 1797.8378262519836 6785.194589138031 2885.1521062850952 1022.736207485199 2118.2948017120361 386.61127662658691 255.25262546539307 419.13085460662842 189.50645160675049 7525.5262365341187 486.34184169769287 1597.9976515769958 23941.178731918335 206.83982992172241 1201.6442308425903 1002.7293729782104
leaf_count=77 352 1463 599 218 412 73 55 78 37 1471 93 322 5035 45 264 216
internal_value=-3.29767e-06 -0.000677329 -0.000469325 -5.14271e-06 0.000171785 0.00304391 -0.000138218 0.00822977 0.0023539 0.0031801 0.0088937 0.000357662 -0.00047533 -0.00530109 -0.00645425 -0.00231832
internal_weight=52159 40561.8 38816.3 31028.4 30005.6 2924.04 27081.6 805.742 11597.2 8201.37 675.848 3395.84 24196.4 1745.52 1538.68 7787.92
internal_count=10810 8535 8149 6470 6252 563 5689 151 2275 1601 130 674 5090 386 341 1679
is_linear=0
shrinkage=0.073


Tree=30
num_leaves=17
num_cat=0
split_feature=85 85 89 82 66 62 66 39 66 84 37 52 47 66 17 58
split_gain=10.9341 5.43419 3.81077 3.73841 3.64219 4.39142 4.79316 4.74808 3.6339 4.11586 3.58772 3.77918 3.5737 3.39323 4.4256 3.3659
threshold=2.7184314045431055 2.0141744206508139 14.534167005619517 0.12910566967364748 -6.4999999999999991 -1.4999999999999998 1.0000000180025095e-35 -0.37605694244148952 -13.499999999999998 2.748948814696623 9.8624394068045174 1.1796417728974911 0.93484714437504468 -7.4999999999999991 27.619729439082871 0.81538241503397657
decision_type=2 2 2 2 2 2 2 2 2 2 2 2 2 2 2 2
left_child=1 2 13 -2 -5 6 -6 -7 -3 -10 -9 -12 -4 -1 -15 -16
right_child=3 8 12 4 5 7 -8 10 9 -11 11 -13 -14 14 15 -17
leaf_value=-0.003954868131647798 -0.0077374477154853877 -0.0021815969961054148 -0.0018080345838132816 -0.00024372524886072635 0.016120592833955123 0.0086998123072407445 0.0038208629827333044 0.0039334048956415433 -1.6242450114788609e-06 0.0025799293018315184 -0.00048233499586457506 0.0064362678717445566 0.0039536258650149508 0.0043321349472066209 -0.0012720545515175481 -0.005656658411453545
leaf_weight=3646.0417509078979 199.80778837203979 3190.5713891983032 1110.6849317550659 2244.3948001861572 274.53094625473022 608.93135261535645 440.78495121002197 2764.8463368415833 18877.84428691864 3985.4333810806274 3145.1214032173157 485.60147094726562 1185.5917596817017 679.86671209335327 8266.6362166404724 1052.364330291748
leaf_count=810 40 679 237 447 52 115 84 528 3897 797 614 96 249 144 1791 230
internal_value=-3.33037e-06 -0.000523362 -0.00158499 0.00214501 0.0023435 0.00309606 0.00854598 0.00253905 0.000126089 0.000448257 0.00195197 0.000442259 0.00116551 -0.00204808 -0.00135248 -0.00176753
internal_weight=52159.1 41995 15941.2 10164 9964.21 7719.82 715.316 7004.5 26053.8 22863.3 6395.57 3630.72 2296.28 13644.9 9998.87 9319
internal_count=10810 8834 3461 1976 1936 1489 136 1353 5373 4694 1238 710 486 2975 2165 2021
is_linear=0
shrinkage=0.073


Tree=31
num_leaves=17
num_cat=0
split_feature=86 85 85 22 12 17 59 84 72 85 35 21 31 37 58 21
split_gain=11.2299 6.22585 5.08998 4.90394 4.37322 4.36291 4.17703 3.73637 3.69662 3.56599 4.28902 3.50386 3.41324 3.71052 3.2715 3.37896
threshold=2.238885289235323 2.0184239003851308 2.7271491881720635 4.0070992367780072 5.7315056345653339 25.994263783495054 1.6868939563104446 2.531184214776196 0.10725000000000001 3.1836430500334574 1.3584925994769839 56.847833994456799 0.96493937501972316 9.9601257789277433 1.1866988775452694 47.613928669536413
decision_type=2 2 2 2 2 2 2 2 2 2 2 2 2 2 2 2
left_child=1 11 4 -4 14 7 8 -3 -5 -7 -11 -1 -10 -14 15 -2
right_child=2 5 3 6 -6 9 -8 -9 12 10 -12 -13 13 -15 -16 -17
leaf_value=-0.001289527597215022 -0.0021002786368472313 0.0021517382650599573 0.00057268027204446963 -0.0029700429473767734 -0.00022983519035515485 -0.00071737848307529587 0.01250572938294396 0.01505900126586949 0.00077167787992999629 0.011850294311509843 0.00082584143090024605 -0.0040936083463136742 0.010722590699444477 0.0041572185947101672 -0.006734489224485044 0.0031770237750902062
leaf_weight=5249.3897495269775 743.97234487533569 393.41247653961182 2884.3626527786255 377.36658191680908 13926.887981414795 14746.624284744263 324.83220529556274 172.08399534225464 843.84184789657593 262.48276090621948 665.40820121765137 4342.8037204742432 677.50645732879639 1428.9254641532898 212.80294036865234 4906.3659615516663
leaf_count=1158 149 81 553 73 2870 3091 61 35 159 49 129 968 126 275 44 989
internal_value=-3.34137e-06 -0.00108474 0.00105763 0.00282384 0.000474083 -0.000213566 0.00460076 0.00608531 0.00382811 -0.000441012 0.00394791 -0.00255937 0.00469867 0.00627041 0.00214661 0.00248164
internal_weight=52159.1 25832.2 26326.9 6536.84 19790 16240 3652.47 565.496 3327.64 15674.5 927.891 9592.19 2950.27 2106.43 5863.14 5650.34
internal_count=10810 5511 5299 1247 4052 3385 694 116 633 3269 178 2126 560 401 1182 1138
is_linear=0
shrinkage=0.073


Tree=32
num_leaves=17
num_cat=0
split_feature=88 86 86 90 83 90 88 86 88 45 41 87 70 14 33 21
split_gain=13.6944 7.09588 5.31132 5.14389 4.64646 4.09844 3.61696 3.51454 3.49574 4.95588 4.34182 4.3883 4.32828 4.03902 3.66349 4.87952
threshold=4.3224128854000492 2.0584111388532351 3.0686387415760503 16.062519885076618 0.50878833677931457 10.271252906518253 6.1229893640793351 2.3728475381966283 5.4109792990745129 -1.2678571428571426 0.42004807351523282 2.9817070928051939 22.500000000000004 72.22471075488599 1.3968809089507161 48.844157323553411
decision_type=2 2 2 2 2 2 2 2 2 2 2 2 2 2 2 2
left_child=2 3 4 6 -1 7 -2 -3 9 -7 14 -12 13 -11 -10 -16
right_child=1 5 -4 -5 -6 8 -8 -9 10 12 11 -13 -14 -15 15 -17
leaf_value=-0.0014614773747277496 -0.0015841752629345476 -0.0046578706016935411 0.0048803642240331123 0.005212640162567183 -0.0054687132643014688 -0.0033002691846789846 0.0058801897301479925 0.0010719418299047589 0.0032640297753617118 0.0052890478055218505 0.0049538067207279936 0.016005962940496315 0.0093951253979322503 0.00096396691252795058 -0.010541622869618605 0.0011181091478333419
leaf_weight=15968.52393913269 8564.277557849884 995.986976146698 647.73187446594238 700.64034557342529 1707.591347694397 1196.4334144592285 360.32650136947632 1333.8554248809814 4784.7180814743042 1274.0055899620056 930.04125690460205 241.60641860961914 369.3603892326355 11924.43092918396 241.4812970161438 918.06559705734253
leaf_count=3417 1817 216 128 138 385 249 72 275 916 256 177 45 75 2413 48 183
internal_value=-3.34643e-06 0.000867066 -0.00161073 -0.000809347 -0.00184877 0.00153368 -0.00128246 -0.00137628 0.00184368 0.00120277 0.00317302 0.00723576 0.00160008 0.00138169 0.00237171 -0.0013078
internal_weight=52159.1 33835.2 18323.8 9625.24 17676.1 24210 8924.6 2329.84 21880.1 14764.2 7115.91 1171.65 13567.8 13198.4 5944.26 1159.55
internal_count=10810 6880 3930 2027 3802 4853 1889 491 4362 2993 1369 222 2744 2669 1147 231
is_linear=0
shrinkage=0.073


Tree=33
num_leaves=17
num_cat=0
split_feature=88 88 83 37 12 79 14 57 90 3 42 64 12 32 14 41
split_gain=12.7284 5.50407 4.62834 3.5179 3.51457 3.63157 4.59067 3.46776 3.44729 5.13032 3.25293 3.18141 4.09717 3.62694 4.10089 3.26423
threshold=4.3224128854000492 5.2719200476203323 0.50878833677931457 15.781363631219827 8.6094224480627695 1.5500000000000003 90.466937340421325 0.24772028049557912 15.108933489004837 1.4621628659152404 0.11424295148621967 0.48684210526315791 5.2663607097686391 2.0115448604392081 75.089733547158616 0.31986887852615603
decision_type=2 2 2 2 2 2 2 2 2 2 2 2 2 2 2 2
left_child=2 3 8 11 5 6 7 -3 -1 -10 -7 12 -2 14 -14 -13
right_child=1 4 -4 -5 -6 10 -8 -9 9 -11 -12 15 13 -15 -16 -17
leaf_value=-0.0015186421134339614 0.0048515649068115998 0.018209510040374185 -0.0051183548383635811 -0.0038808106536834782 -0.0032131815015998093 -0.00071905602744280208 0.0012719345924385008 0.0058495051633342746 -0.00089239263551432301 0.0079176773515383138 0.002645892315525547 0.0015539104808918694 0.0039296113550986271 0.0053396258315718034 -0.0004304766981514202 -0.0013811522583070945
leaf_weight=14960.719158649445 1443.8591327667236 229.14845275878906 1756.373984336853 1091.6014580726624 623.20083093643188 1877.9005212783813 424.03809595108032 258.28567504882812 1046.8238906860352 530.46558809280396 8255.8329463005066 2792.1185173988342 1360.7140340805054 814.34518814086914 7403.9664936065674 7289.7064552307129
leaf_count=3211 291 43 397 238 127 370 82 49 216 106 1604 574 280 168 1537 1517
internal_value=-3.36277e-06 0.000834745 -0.00155494 0.000159831 0.00211835 0.00241944 0.00683435 0.0116669 -0.00117631 0.00206882 0.00202204 0.000368969 0.00122622 0.000679444 0.000246105 -0.000568007
internal_weight=52159.1 33864.7 18294.4 22196.3 11668.4 11045.2 911.472 487.434 16538 1577.29 10133.7 21104.7 11022.9 9579.03 8764.68 10081.8
internal_count=10810 6880 3930 4605 2275 2148 174 92 3533 322 1974 4367 2276 1985 1817 2091
is_linear=0
shrinkage=0.073


Tree=34
num_leaves=17
num_cat=0
split_feature=88 85 85 42 43 16 43 88 8 72 64 23 8 81 21 12
split_gain=11.8306 6.59417 5.66851 5.25908 5.83114 4.20391 3.8627 3.85821 4.0773 3.77574 3.732 3.58651 3.82673 3.50199 3.27702 3.22189
threshold=4.3224128854000492 3.0178041927640797 2.083387055807119 0.11424295148621967 0.24855802284252068 33.989642920401607 0.31603651181265735 5.5970744132217023 11.496330241656244 0.29320000000000007 0.51315789473684215 3.588092328176915 8.9101219334784947 0.27805802491651826 45.828535507777552 5.3573549919068713
decision_type=2 2 2 2 2 2 2 2 2 2 2 2 2 2 2 2
left_child=1 13 -2 6 7 10 -4 11 9 -9 -6 12 -5 -1 -13 -8
right_child=2 -3 3 4 5 -7 15 8 -10 -11 -12 14 -14 -15 -16 -17
leaf_value=-0.0043410467476548524 -0.00065067855488062899 0.0048505267519946332 -0.0021413368842237374 -0.0098019242037117593 0.0042374248913642099 -0.00087731886076361705 0.01039428493800683 0.01795915810899705 0.0032088259216016936 0.0070073018649931167 0.00021311672453914259 -0.0023450180730124788 0.00093683212560817205 -0.0013817012313831656 0.0041290184345518875 0.00090718276607879217
leaf_weight=2486.8335299491882 10045.771148681641 831.14057683944702 3298.094452381134 193.32608413696289 2405.1218738555908 4661.9751148223877 223.72674989700317 218.08729648590088 1283.8202681541443 735.6980767250061 2512.4085445404053 458.68373870849609 2068.9459190368652 14948.02196598053 4486.9758672714233 1300.4781541824341
leaf_count=560 2143 162 662 39 476 932 44 41 243 138 498 91 413 3208 897 263
internal_value=-3.36897e-06 -0.00150102 0.000803675 0.00141645 0.00196228 0.000692835 -0.000736353 0.00324941 0.00589829 0.00951509 0.00218198 0.00242667 1.77142e-05 -0.00180398 0.00352798 0.00230183
internal_weight=52159.1 18266 33893.1 23847.3 19025 9579.51 4822.3 9445.54 2237.61 953.785 4917.53 7207.93 2262.27 17434.9 4945.66 1524.2
internal_count=10810 3930 6880 4737 3768 1906 969 1862 422 179 974 1440 452 3768 988 307
is_linear=0
shrinkage=0.073


Tree=35
num_leaves=17
num_cat=0
split_feature=86 90 90 82 86 26 64 1 29 57 16 53 42 85 26 82
split_gain=9.48505 7.6436 4.48388 5.77882 4.29724 4.63067 3.81803 3.79773 3.48599 3.28889 3.13302 4.23252 3.14542 3.09086 3.79753 3.09108
threshold=2.7160848349030826 15.392385645424332 10.294848374813297 0.15879858682286008 1.9833586807229378 2.4430783478565439 0.77708978328173384 0.86009768674647902 2.2970006022485845 0.25565126408253652 26.537485181892418 0.76666666666666694 0.24956369501904593 2.9765600557748608 1.5924875390925746 0.23393834641279301
decision_type=2 2 2 2 2 2 2 2 2 2 2 2 2 2 2 2
left_child=1 2 10 -4 -5 7 8 -6 -3 -7 12 -12 -1 15 -15 -2
right_child=13 6 3 4 5 9 -8 -9 -10 -11 11 -13 -14 14 -16 -17
leaf_value=0.011027136692383793 -0.001332999036814172 0.0024414344330694498 -0.0056879102529520768 -0.0014889819716478563 0.0041473942639518513 0.0052878392953153346 -0.0019872633704712552 -0.00033057379222907793 0.0085036402748398122 -0.00046737856123533724 -0.0033415504783480673 0.006572636565730431 -0.0029123869060004881 -0.00030756742482960928 0.0069112408135000502 0.0021029523593755488
leaf_weight=175.95372247695923 1758.3035068511963 2726.1852321624756 1086.8797769546509 10191.432200431824 1075.098087310791 1590.375189781189 820.34862804412842 16471.75400352478 621.3873872756958 791.62337970733643 5873.9552102088928 238.58151721954346 168.69514274597168 558.60225772857666 1268.4049062728882 6741.5438084602356
leaf_count=38 352 538 232 2192 218 327 163 3415 120 163 1298 52 36 103 231 1332
internal_value=-3.37913e-06 -0.000492544 -0.000820858 -0.000458433 -0.000269627 0.000353796 0.00247361 -5.60344e-05 0.00356767 0.00337397 -0.00257197 -0.00295407 0.00419607 0.00197786 0.00470255 0.00139184
internal_weight=52159.1 41832.3 37664.3 31207.2 30120.3 19928.9 4167.92 17546.9 3347.57 2382 6457.19 6112.54 344.649 10326.9 1827.01 8499.85
internal_count=10810 8792 7971 6547 6315 4123 821 3633 658 490 1424 1350 74 2018 334 1684
is_linear=0
shrinkage=0.073


Tree=36
num_leaves=17
num_cat=0
split_feature=88 66 88 82 9 16 23 89 23 44 66 85 58 59 5 82
split_gain=10.8901 6.07807 4.82917 4.77997 4.47251 3.77856 3.90592 3.54548 5.36716 3.05328 4.31164 4.21352 3.43644 3.28523 3.44882 3.76404
threshold=5.2719200476203323 -24.499999999999996 3.7992404269713078 0.12910566967364748 9.2481875784159318 40.435893824617985 5.6960722462403881 11.797034468990427 3.7582831231253016 0.76388888888888895 -6.4999999999999991 3.6490789227936467 0.33169445732457087 1.7540719993077827 1.5907894142635601 0.25484126846733673
decision_type=2 2 2 2 2 2 2 2 2 2 2 2 2 2 2 2
left_child=1 -1 -3 -4 7 6 -6 -5 -9 10 12 13 -2 14 -12 -16
right_child=9 2 3 4 5 -7 -8 8 -10 -11 11 -13 -14 -15 15 -17
leaf_value=-0.0048191791002525474 0.0034499057460826992 -0.0020163842903356262 -0.0072545777699982604 -0.00099081536979309754 -8.2410373286434646e-05 -0.0018867107398828028 0.0028696860268230991 0.0014048219098116328 0.0092808549566673372 -0.0013498288803597115 0.0027408420233714461 0.014332996662564511 -0.00162748991763214 -0.0022134810499406196 0.00092133487841201402 0.009809320329269974
leaf_weight=1718.7533655166626 1082.9541773796082 7719.2364344596863 473.4131817817688 840.64171695709229 19741.475042819977 5334.2420682907104 2716.8676509857178 1102.9990158081055 793.55410051345825 1319.9076991081238 5298.2476491928101 181.77006959915161 2064.2198553085327 574.87003707885742 367.15879821777344 828.82581472396851
leaf_count=386 212 1679 102 175 4114 1125 571 224 159 254 1014 32 417 112 74 160
internal_value=-3.38794e-06 -0.000571233 -0.000382602 2.40877e-05 0.000137058 -0.000140127 0.000274589 0.00295254 0.00470195 0.00195611 0.00237605 0.0033554 0.000118751 0.00307265 0.00354104 0.00708331
internal_weight=52159.1 40441.2 38722.4 31003.2 30529.8 27792.6 22458.3 2737.19 1896.55 11718 10398 7250.87 3147.17 7069.1 6494.23 1195.98
internal_count=10810 8535 8149 6470 6368 5810 4685 558 383 2275 2021 1392 629 1360 1248 234
is_linear=0
shrinkage=0.073


Tree=37
num_leaves=17
num_cat=0
split_feature=88 67 90 86 20 88 2 42 81 21 41 39 87 11 36 75
split_gain=10.1398 4.90218 4.43613 4.29216 3.65065 3.57998 6.81677 3.50633 3.65271 3.70946 3.60887 3.45446 4.72448 3.44626 4.08435 3.43748
threshold=5.0415107746497307 -2.4999999999999996 11.409623000790864 2.3728475381966283 75.186768918984569 4.9102903665526858 1.141906524945018 0.10281743679449405 0.6179593220029721 51.7196229342034 0.42927472647343384 -0.011283936872566548 2.952342321848199 6.9246553623048444 17.091350182503032 0.31818181818181818
decision_type=2 2 2 2 2 2 2 2 2 2 2 2 2 2 2 2
left_child=1 13 11 5 7 -3 -7 10 -9 -10 -4 -2 -13 14 -1 -8
right_child=2 3 4 -5 -6 6 15 8 9 -11 -12 12 -14 -15 -16 -17
leaf_value=-0.0017010137912456386 0.0021962439945467215 -0.0010187429535397556 -0.0014073061116366952 0.0013711419686755547 -0.0082709547196252748 0.016367302953629512 -0.0087761139716265781 0.003463410360915875 -0.0044391531373233978 0.0030201705599121904 0.0094571154440525104 -0.0040422866884547706 0.005938785434839609 -0.0060200896248683768 0.0042837315982816176 0.0039571853349350834
leaf_weight=12892.986135482788 1272.0639905929565 13393.368656635284 1829.0961260795593 7955.4004564285278 174.91896772384644 184.45274019241333 162.19371509552002 8672.2509202957153 677.0512638092041 747.19402933120728 178.80449962615967 1788.352756023407 294.07507467269897 927.3743748664856 637.45611906051636 372.11455202102661
leaf_count=2775 260 2867 363 1601 35 38 34 1676 132 143 34 373 59 208 135 77
internal_value=-3.40028e-06 -0.000669355 0.00155229 1.50477e-05 0.00219506 -0.000749215 0.00426892 0.00234657 0.00290068 -0.000523779 -0.00043823 -0.00079977 -0.00263131 -0.00171419 -0.00141883 8.61185e-05
internal_weight=52159.2 36525.3 15633.8 22067.5 12279.3 14112.1 718.761 12104.4 10096.5 1424.25 2007.9 3354.49 2082.43 14457.8 13530.4 534.308
internal_count=10810 7735 3075 4617 2383 3016 149 2348 1951 275 397 692 432 3118 2910 111
is_linear=0
shrinkage=0.073


Tree=38
num_leaves=17
num_cat=0
split_feature=90 26 90 1 14 17 20 90 7 36 44 10 47 10 17 59
split_gain=7.14034 5.81387 4.45624 3.9066 5.00462 3.57854 3.88079 3.42296 4.58267 3.37508 3.3489 3.27448 2.93707 3.18165 3.58515 3.19496
threshold=11.521724308445718 2.2861372012650496 18.14378504172365 0.88904877491900003 74.871954094285059 28.475933153261224 71.069846102683627 15.154702530183398 1.5491342741247751 11.779794545548468 0.85357142857142865 2.8923992182512772 0.86066868695453447 4.5074578662520786 34.756056263499879 1.7122394518626733
decision_type=2 2 2 2 2 2 2 2 2 2 2 2 2 2 2 2
left_child=1 10 3 4 9 11 7 -7 -9 -2 -1 -5 -3 14 -14 -15
right_child=2 12 -4 5 -6 6 -8 8 -10 -11 -12 -13 13 15 -16 -17
leaf_value=-0.0022029382340983924 0.0039908946199587155 -0.0067879168090982048 0.007755250296222138 -0.0053891500978294829 0.0017873630034952572 -0.00021633539567366387 -0.0044293059659096844 0.00083655987820099561 0.0064405446167508 0.017130641987411026 0.0048492227229890699 0.0031653127076144609 0.013279323076400383 0.00026670613304225854 0.00066616291636141121 0.010121485957616702
leaf_weight=12279.035025596619 210.35306167602539 210.71119546890259 452.79812288284302 257.92907047271729 2120.5591726303101 23688.256821632385 1016.3614611625671 4389.2952375411987 945.52974891662598 207.79749298095703 369.36589765548706 3118.7551069259644 263.75183773040771 2216.8609294891357 221.39075231552124 190.41027879714966
leaf_count=2661 41 46 82 54 426 4880 211 866 178 40 78 630 55 475 48 39
internal_value=-3.40501e-06 -0.00130199 0.000558339 0.000467616 0.00322837 0.000257784 4.40811e-06 0.000159778 0.00183038 0.0105284 -0.00199675 0.00251097 0.00152894 0.0021359 0.00752987 0.00104754
internal_weight=52159.2 15751.5 36407.6 35954.8 2538.71 33416.1 30039.4 29023.1 5334.82 418.151 12648.4 3376.68 3103.12 2892.41 485.143 2407.27
internal_count=10810 3402 7408 7326 507 6819 6135 5924 1044 81 2739 684 663 617 103 514
is_linear=0
shrinkage=0.073


Tree=39
num_leaves=17
num_cat=0
split_feature=88 66 20 83 90 42 14 23 59 38 20 71 36 24 57 29
split_gain=9.57177 4.48427 5.46192 3.82833 3.48473 3.36376 3.6309 3.32568 3.21608 3.02905 2.99984 3.87777 2.99145 2.9058 2.8734 3.08906
threshold=4.3224128854000492 -6.4999999999999991 71.643538123000937 0.50878833677931457 18.14378504172365 0.12670691819360072 125.24121742626686 7.1092147611416037 1.7122394518626733 0.41130661033756538 63.940854619713427 23.500000000000004 8.9978511528535492 54.586986347703665 0.21911285061969993 2.742450374797119
decision_type=2 2 2 2 2 2 2 2 2 2 2 2 2 2 2 2
left_child=3 7 4 14 5 10 8 9 -7 12 11 -3 -2 -14 15 -1
right_child=1 2 -4 -5 -6 6 -8 -9 -10 -11 -12 -13 13 -15 -16 -17
leaf_value=0.00015668931113937195 0.0071701660966630902 0.00045678230669630776 -0.0045424454519256583 -0.0046231243261783839 0.0098701661688985302 0.00156348369177421 -0.0063769001782331891 -0.0085646450481657588 0.0050318683649941904 0.0088173489994234459 0.0060838391267861768 -0.0043963670390518954 -0.001406892447869718 0.0032985680258945022 -0.0014739170378209358 0.0073551807990355879
leaf_weight=2716.8111424446106 250.42882823944092 2813.921902179718 851.92475080490112 1728.8718585968018 256.34269857406616 18133.024940013885 290.89444828033447 279.60628509521484 1547.1874527931213 182.9629693031311 339.62505149841309 1274.2702980041504 6972.4520349502563 777.00426864624023 13383.946559906006 359.85576105117798
leaf_count=583 53 572 175 397 46 3632 60 60 306 38 69 256 1455 158 2874 76
internal_value=-3.3842e-06 0.000720193 0.00120334 -0.00135485 0.001402 0.0013129 0.00171652 -0.000735742 0.00183631 -0.000467839 -0.000506945 -0.00105523 -0.000680599 -0.000934708 -0.0010114 0.000999664
internal_weight=52159.1 33969.6 25507.2 18189.5 24655.3 24398.9 19971.1 8462.45 19680.2 8182.85 4427.82 4088.19 7999.89 7749.46 16460.6 3076.67
internal_count=10810 6880 5116 3930 4941 4895 3998 1764 3938 1704 897 828 1666 1613 3533 659
is_linear=0
shrinkage=0.073


Tree=40
num_leaves=17
num_cat=0
split_feature=86 90 17 82 26 1 90 29 16 39 29 84 85 64 35 24
split_gain=7.99872 6.27771 3.91183 4.13225 4.11209 4.27439 4.11045 4.05021 4.31624 3.86779 3.44624 3.26373 2.99963 2.94612 2.84295 2.66105
threshold=2.7160848349030826 15.392385645424332 25.994263783495054 0.15518145357031538 2.4430783478565439 0.95487772069365884 13.955146274854499 1.1350470120718119 44.90580457986561 -0.38227965035463146 2.7255220393559569 2.8227134668952201 1.4203288910956506 0.77708978328173384 1.2903839772243215 48.32942471196241
decision_type=2 2 2 2 2 2 2 2 2 2 2 2 2 2 2 2
left_child=1 2 11 14 5 6 -5 -6 -9 -3 13 -1 -7 -11 -4 -2
right_child=15 9 3 4 7 12 -8 8 -10 10 -12 -13 -14 -15 -16 -17
leaf_value=0.0015062212193755753 0.00033227565826070705 0.0090085234840015706 0.0031010042584314872 6.6560422846710228e-05 0.009733053610846221 -0.0056166558514662663 0.0062271947351780236 0.0015285592215158945 -0.0067143194916863408 0.0019537785916426817 0.0097736777218715674 0.011268336929094715 -0.0012288506048712415 -0.0033483292297473784 -0.0064782593750601879 0.0027361861733649811
leaf_weight=1322.3799209594727 3992.8397798538208 404.77432632446289 194.70496797561646 2832.0969038009644 287.26995801925659 857.96970748901367 725.15022230148315 3622.9384632110596 373.30679368972778 2845.0574960708618 250.53572273254395 211.92985010147095 26092.746876716614 694.53997087478638 1071.5985646247864 6379.268536567688
leaf_count=278 779 76 41 596 60 194 145 760 80 558 48 43 5538 139 236 1239
internal_value=-3.36808e-06 -0.000453806 -0.000752758 -0.000906431 -0.000757239 -0.00105467 0.00132328 0.00136045 0.000757776 0.0022245 0.00149914 0.00285675 -0.00136865 0.000912552 -0.00500302 0.00181106
internal_weight=52159.1 41787 37592.1 36057.8 34791.5 30508 3557.25 4283.52 3996.25 4194.91 3790.13 1534.31 26950.7 3539.6 1266.3 10372.1
internal_count=10810 8792 7971 7650 7373 6473 741 900 840 821 745 321 5732 697 277 2018
is_linear=0
shrinkage=0.073


Tree=41
num_leaves=17
num_cat=0
split_feature=86 90 90 84 39 86 28 17 59 13 11 29 12 53 4 25
split_gain=7.41953 5.82408 3.71366 3.85426 3.54563 3.5434 3.62406 3.42257 4.29974 3.3148 3.28762 3.16089 2.84133 2.75439 2.61199 2.58758
threshold=2.7160848349030826 15.392385645424332 10.294848374813297 2.7582794006815679 -0.38227965035463146 1.9833586807229378 1.0597574026216952 32.404780880801191 1.6597787947678777 6.1283362471640528 3.00832153649552 2.7255220393559569 8.3970661705976202 0.76666666666666694 1.344387840208866 44.017453324980075
decision_type=2 2 2 2 2 2 2 2 2 2 2 2 2 2 2 2
left_child=1 2 13 5 14 6 9 8 -7 -4 -9 -6 -8 -1 -3 -5
right_child=-2 4 3 15 11 7 12 10 -10 -11 -12 -13 -14 -15 -16 -17
leaf_value=-0.0026364438853163823 0.0017421790603781872 0.0031442461244042281 0.012618767583776568 0.0048215606769148878 0.00087854103303476724 0.00048200067438538755 -0.0016035897855621755 0.0028885500405965193 0.0059763137269268829 -0.00031975107936434551 -0.0012838525315878953 0.0093260993609442736 -0.005077496568142905 0.0050598939514647726 0.014869894713597873 0.00063569321873497729
leaf_weight=6152.5038340091705 10390.914027690887 218.5805835723877 168.72823476791382 1007.6848187446594 3542.8398504257202 5047.7346730232239 7559.8445601463318 1119.0034127235413 893.68996667861938 280.45245742797852 9966.7175221443176 252.99638223648071 1505.8460965156555 257.92187786102295 189.8566370010376 3603.7668504714966
leaf_count=1368 2018 41 36 200 697 1044 1641 230 181 60 2092 48 329 56 35 734
internal_value=-3.34982e-06 -0.000437666 -0.000726111 -0.000396744 0.00213879 -0.000735267 -0.00186361 -0.000104567 0.00130896 0.00453449 -0.000862415 0.00144242 -0.00218096 -0.0023263 0.00860267 0.00155104
internal_weight=52159.1 41768.2 37563.9 31153.5 4204.27 26542 9514.87 17027.1 5941.42 449.181 11085.7 3795.84 9065.69 6410.43 408.437 4611.45
internal_count=10810 8792 7971 6547 821 5613 2066 3547 1225 96 2322 745 1970 1424 76 934
is_linear=0
shrinkage=0.073


Tree=42
num_leaves=17
num_cat=0
split_feature=88 66 86 83 90 29 88 85 90 12 49 37 85 41 84 42
split_gain=8.60338 5.20799 4.60063 3.99428 4.27136 4.06115 4.67233 4.36973 3.16491 3.00962 2.98761 2.98306 2.9717 2.92801 3.57552 3.48688
threshold=5.2719200476203323 -24.499999999999996 2.9677697909534211 0.070712489900971412 9.8089994999618444 2.3028708051212607 3.6019026447293876 2.9617952433408719 10.820979359870902 6.6558223056086288 1.1099757409573072 13.871842678734215 1.6775671356325585 0.40177425421100449 2.9526594699187769 0.22610762824544273
decision_type=2 2 2 2 2 2 2 2 2 2 2 2 2 2 2 2
left_child=1 10 3 8 -5 6 -6 -7 -3 13 12 -11 -1 -2 15 -15
right_child=9 2 -4 4 5 7 -8 -9 -10 11 -12 -13 -14 14 -16 -17
leaf_value=-0.011804726746207755 0.0017472278016582286 0.0035746237700662628 0.0024228662953032164 -0.0028010039379995988 -0.0031772798287656358 0.0009311674039824097 -0.00020106306596094135 0.0079694377142312985 -0.008362403159650849 0.00097005442582372375 0.0038131276925566088 -0.004590023953743581 -0.0038856630583480674 -0.0012275300244147024 0.010275911303261191 0.006032288242776955
leaf_weight=322.6421275138855 5413.739312171936 148.39698505401611 2972.8812313079834 3697.041419506073 3220.40891456604 5410.8337240219116 22129.108441352844 514.98715782165527 578.60041666030884 3785.171667098999 203.99819612503052 594.96693801879883 1172.9637875556946 577.44472694396973 512.99087333679199 902.86561870574951
leaf_count=77 1037 33 579 825 707 1138 4645 97 125 736 45 124 264 112 95 171
internal_value=-3.32185e-06 -0.00050997 -0.000336069 -0.000565905 -0.00045448 -0.000177003 -0.000579281 0.00154337 -0.00592171 0.00173173 -0.00446505 0.000214117 -0.00559619 0.00262877 0.00502147 0.00319842
internal_weight=52159 40371.9 38672.3 35699.4 34972.4 31275.3 25349.5 5925.82 726.997 11787.2 1699.6 4380.14 1495.61 7407.04 1993.3 1480.31
internal_count=10810 8535 8149 7570 7412 6587 5352 1235 158 2275 386 860 341 1415 378 283
is_linear=0
shrinkage=0.073


Tree=43
num_leaves=17
num_cat=0
split_feature=86 67 11 12 64 17 24 41 12 43 57 72 11 73 13 24
split_gain=6.60058 4.71392 4.08792 3.79283 3.88702 3.72472 4.36033 3.59088 3.87753 3.69881 3.2326 4.45247 3.04468 3.37887 3.02017 3.01433
threshold=1.8789907038106761 -4.4999999999999991 6.9246553623048444 7.0112332764478955 0.88854489164086703 32.404780880801191 41.961102931595981 0.31986887852615603 5.2663607097686391 0.24522679087271212 0.25931712962962966 0.095150000000000012 3.3403733191505394 3.5000000000000004 5.3173792104734368 42.850647199887881
decision_type=2 2 2 2 2 2 2 2 2 2 2 2 2 2 2 2
left_child=-1 2 3 -2 -5 6 -3 9 14 12 11 -8 13 -7 -9 -13
right_child=1 5 -4 4 -6 7 10 8 -10 -11 -12 15 -14 -15 -16 -17
leaf_value=-0.0015880398735627775 0.0006334374970358549 0.0067811788489470877 -0.005460694728578637 -0.0014304557439373494 -0.0090326944442438214 -0.00082996214852219417 -0.0037813601047520166 0.0075158392862082722 -0.00093254713595930701 -0.00025677654902075508 -0.00014713838501177631 -0.0063007501954554972 0.0058594747761516082 0.0063745673139401745 0.00098054273951087055 0.0035498944994477072
leaf_weight=11041.901300191879 6930.970550775528 934.65198183059692 924.75057315826416 3702.4687623977661 397.06095838546753 1158.3303575515747 528.43792057037354 486.96604871749878 10801.829280853271 2512.9202756881714 3663.8719143867493 170.7222638130188 1513.3123030662537 494.86742115020752 1672.4126706123352 5223.5606937408447
leaf_count=2405 1434 185 203 790 87 234 107 97 2214 511 728 34 306 98 332 1045
internal_value=-3.31749e-06 0.000422186 -0.000798443 -0.0004073 -0.00216755 0.000922697 0.00202089 0.000302692 -0.000367812 0.00183338 0.00155645 0.0026108 0.00349302 0.00132496 0.00245578 0.00323756
internal_weight=52159 41117.1 11955.3 11030.5 4099.53 29161.9 10521.2 18640.6 12961.2 5679.43 9586.59 5922.72 3166.51 1653.2 2159.38 5394.28
internal_count=10810 8405 2514 2311 877 5891 2099 3792 2643 1149 1914 1186 638 332 429 1079
is_linear=0
shrinkage=0.073


Tree=44
num_leaves=17
num_cat=0
split_feature=84 15 26 57 87 70 3 16 0 5 70 84 17 82 31 23
split_gain=4.35916 3.7576 3.31406 3.81835 4.02911 3.58295 3.53248 3.259 3.15943 3.1118 2.85951 2.95831 2.83286 3.94945 2.81704 2.72316
threshold=2.7385845670389304 110.66202294393035 2.5631781669320342 0.3158873018978674 3.5823937811210151 33.500000000000007 1.8474921991066855 45.114614575567906 1.504969885954212 0.88006623062785561 -6.4999999999999991 3.983114889384666 32.404780880801191 0.22764191815308901 0.80816986833632853 3.5198181744406187
decision_type=2 2 2 2 2 2 2 2 2 2 2 2 2 2 2 2
left_child=2 10 3 4 5 12 8 9 14 -4 -2 -12 13 -1 -5 -14
right_child=1 -3 7 6 -6 -7 -8 -9 -10 -11 11 -13 15 -15 -16 -17
leaf_value=-0.0028234762279523667 -0.0044380017004035516 -0.0031912244368198189 -0.0030431253251007847 -0.005822613824935474 0.0074915091651108906 0.0090911432855850915 0.010509690363283707 -0.0046098161790799836 -0.0032427164996000463 0.002695963521400785 0.0022958856328263548 -0.0071966056415483162 -0.0028102104513464459 0.00056579947196254573 0.0033222587386993003 -0.0009355305139293515
leaf_weight=2234.165561914444 371.8344259262085 872.30668640136719 573.84512662887573 196.82824563980103 310.33696126937866 191.51790428161621 234.10255575180054 436.14648580551147 661.35542583465576 4080.3977947235107 8410.3370084762573 178.49988985061646 5621.2651920318604 10181.624814987183 2014.3279118537903 15590.142567157745
leaf_count=476 74 181 118 40 60 40 47 93 136 842 1655 35 1189 2106 416 3302
internal_value=-3.31701e-06 0.00138121 -0.000325034 -0.000563924 -0.000787014 -0.000863075 0.00188597 0.00142184 0.00118203 0.00198772 0.00182667 0.00209824 -0.000919864 -4.38561e-05 0.00250682 -0.00143248
internal_weight=52159 9832.98 42326.1 37235.7 34129.1 33818.7 3106.61 5090.39 2872.51 4654.24 8960.67 8588.84 33627.2 12415.8 2211.16 21211.4
internal_count=10810 1945 8865 7812 7173 7113 639 1053 592 960 1764 1690 7073 2582 456 4491
is_linear=0
shrinkage=0.073


Tree=45
num_leaves=17
num_cat=0
split_feature=88 85 86 66 49 33 89 75 72 42 2 49 45 57 88 57
split_gain=7.76121 5.43757 4.60163 4.3154 4.01046 3.31044 3.83062 4.41322 3.02895 3.06855 5.32868 4.56099 3.85537 3.02031 2.99335 2.93458
threshold=4.3224128854000492 3.0178041927640797 2.0584111388532351 -20.499999999999996 1.0845120361107654 0.83128452209881976 13.040499723789557 0.40909090909090912 1.0226500000000003 0.13123069044222666 1.7087703097068523 1.0454453751418462 -1.2678571428571426 0.25033333333333335 4.1185160571871142 0.25033333333333335
decision_type=2 2 2 2 2 2 2 2 2 2 2 2 2 2 2 2
left_child=1 -1 5 4 -4 6 -2 -8 9 11 12 13 -11 -5 -3 -12
right_child=2 14 3 8 -6 -7 7 -9 -10 10 15 -13 -14 -15 -16 -17
leaf_value=-0.0015023247198724245 -0.00060817137637220393 0.00093000744004019542 -0.0039317137358512834 -0.00087679725499936745 0.007266717248648912 -0.001316996938939236 0.0011361287352305858 0.013241384013572145 -0.0055766063328260423 -0.002692923058474332 0.0084619234183409223 -0.0043406718127594326 0.0018480827407151921 0.0034020136411518328 0.0098340072220162757 0.0024509711754076339
leaf_weight=17283.498720169067 962.69583511352539 500.58315372467041 1366.627414226532 1890.4020276069641 194.51602220535278 7986.807051897049 353.33387136459351 294.92868089675903 323.76165342330933 1066.0116157531738 972.98639726638794 1063.867262840271 15136.877512931824 1642.0798749923706 337.32982683181763 782.70464372634888
leaf_count=3768 202 98 293 380 40 1694 72 59 66 217 193 212 2971 327 64 154
internal_value=-3.30103e-06 -0.00122377 0.000646383 0.00117833 -0.00253441 -0.000707877 0.00231017 0.00664834 0.00143181 0.00153254 0.00196332 -0.000149918 0.00154914 0.0011114 0.00451834 0.00578394
internal_weight=52159 18121.4 34037.6 24439.8 1561.14 9597.77 1610.96 648.263 22878.7 22554.9 17958.6 4596.35 16202.9 3532.48 837.913 1755.69
internal_count=10810 3930 6880 4853 333 2027 333 131 4520 4454 3535 919 3188 707 162 347
is_linear=0
shrinkage=0.073


Tree=46
num_leaves=17
num_cat=0
split_feature=88 86 64 85 3 13 85 46 59 9 48 88 44 51 41 43
split_gain=7.44876 4.15102 4.68939 3.522 4.35775 4.02847 3.86016 3.53951 3.4995 4.11754 3.40381 3.28317 2.84841 4.07445 3.05214 3.20609
threshold=5.2719200476203323 2.9677697909534211 0.48684210526315791 3.0744631713252537 1.8791313246469807 7.7012837067843618 1.8805956084311382 1.0000000180025095e-35 1.1823310483574812 9.5310713867018553 1.0487996908496326 3.8131562494639746 0.76388888888888895 0.88572857034218522 0.41889261860467231 0.23210927976184678
decision_type=2 2 2 2 2 2 2 2 2 2 2 2 2 2 2 2
left_child=1 2 3 4 5 10 -6 -7 -5 -10 -1 -4 14 -14 15 -2
right_child=12 -3 11 8 6 7 -8 -9 9 -11 -12 -13 13 -15 -16 -17
leaf_value=0.00093344858582446308 0.0030389294587798198 0.0020970260550200381 -0.0034565038376565133 0.012916310596836499 0.011088886609064708 -0.0090258769821500925 0.0017367242696662538 -0.0018645424068103782 0.011427120984410444 -0.00032403851313251311 -0.0014410172691327323 -0.0010299583759198084 0.0072598101130125154 -0.0034263123434297147 0.0047307692813850846 0.00020822052909012277
leaf_weight=8744.0165729522705 3777.2277173995972 3085.7090926170349 3764.2615461349487 195.91690254211426 303.71422529220581 429.13800430297852 1047.2411570549011 2587.9574074745178 202.03728199005127 741.73077821731567 5089.7858099937439 14141.711565971375 229.77974987030029 1098.7258462905884 1818.6237769126892 4901.4325542449951
leaf_count=1842 720 600 839 37 65 93 214 557 37 142 1110 2999 43 211 346 955
internal_value=-3.29993e-06 -0.000475728 -0.000688943 9.90229e-05 -0.00014732 -0.000467296 0.00384161 -0.00288419 0.0040358 0.00218881 5.96135e-05 -0.00154024 0.00160772 -0.0015757 0.00201089 0.00144058
internal_weight=52159 40333.2 37247.5 19341.5 18201.9 16850.9 1350.96 3017.1 1139.68 943.768 13833.8 17906 11825.8 1328.51 10497.3 8678.66
internal_count=10810 8535 7935 4097 3881 3602 279 650 216 179 2952 3838 2275 254 2021 1675
is_linear=0
shrinkage=0.073


Tree=47
num_leaves=17
num_cat=0
split_feature=86 90 17 7 41 26 90 83 4 42 14 84 11 86 43 55
split_gain=5.65549 5.00888 3.5117 3.61507 4.19452 4.04826 3.68435 3.54767 3.41349 2.96241 2.88653 2.85534 2.46327 2.78483 2.4491 2.42911
threshold=2.7160848349030826 15.392385645424332 25.994263783495054 1.5853293030007143 0.30432826989639006 2.4430783478565439 11.433439001799304 0.20147371490575278 0.67965316703351386 0.28629720115595153 74.301112841712708 2.8227134668952201 3.8371191213992897 2.5472619182101233 0.46036030292872299 0.15192307692307691
decision_type=2 2 2 2 2 2 2 2 2 2 2 2 2 2 2 2
left_child=1 2 11 5 10 6 14 -8 -6 -3 -5 -1 -7 -14 -4 -2
right_child=15 9 3 4 8 12 7 -9 -10 -11 -12 -13 13 -15 -16 -17
leaf_value=0.0014920061818093221 0.0034597721450610359 0.00044358009541965081 -0.0035099662000079089 0.010992662987764471 -0.0075084913078812855 -0.002108580204081177 -0.0037070459807566633 -0.00050522330753734884 0.00011125534706574435 0.004405750666042204 0.00253814074799179 0.010564724470406342 0.001329390709925347 0.008638105463877388 -0.00029379972414378771 0.00087760566454857258
leaf_weight=1322.87797498703 2579.0651717185974 2562.2793378829956 6153.889829158783 254.88681507110596 330.28633546829224 972.93206644058228 2117.6166820526123 14309.881837844849 6070.8756976127625 1657.2004795074463 1394.4721565246582 215.11554527282715 2439.7218885421753 313.79285383224487 1589.7334318161011 7874.3651752471924
leaf_count=278 498 501 1369 52 71 205 438 3018 1265 320 289 43 522 62 359 1520
internal_value=-3.28832e-06 -0.000383907 -0.000652371 -0.00079858 0.000563916 -0.00119187 -0.0015372 -0.000918144 -0.000281488 0.00200044 0.00384664 0.00276308 0.00104728 0.00216345 -0.00285008 0.00151496
internal_weight=52159 41705.6 37486.1 35948.1 8050.52 27897.6 24171.1 16427.5 6401.16 4219.48 1649.36 1537.99 3726.45 2753.51 7743.62 10453.4
internal_count=10810 8792 7971 7650 1677 5973 5184 3456 1336 821 341 321 789 584 1728 2018
is_linear=0
shrinkage=0.073


Tree=48
num_leaves=17
num_cat=0
