tree
version=v4
num_class=1
num_tree_per_iteration=1
label_index=0
max_feature_idx=90
objective=poisson
feature_names=xg_rolling_home xg_rolling_away xg_rolling_conceded_home xg_rolling_conceded_away xgot_rolling_home xgot_rolling_away xgot_rolling_conceded_home xgot_rolling_conceded_away shots_rolling_home shots_rolling_away shots_on_target_rolling_home shots_on_target_rolling_away ppda_rolling_home ppda_rolling_away prog_passes_rolling_home prog_passes_rolling_away prog_carries_rolling_home prog_carries_rolling_away touches_in_box_rolling_home touches_in_box_rolling_away final_third_entries_rolling_home final_third_entries_rolling_away poss_won_att3rd_rolling_home poss_won_att3rd_rolling_away possession_rolling_home possession_rolling_away goals_rolling_home goals_rolling_away goals_rolling_conceded_home goals_rolling_conceded_away xg_venue_rolling_home xg_venue_rolling_away xgot_venue_rolling_home xgot_venue_rolling_away goals_venue_rolling_home goals_venue_rolling_away shots_venue_rolling_home shots_venue_rolling_away xg_overperformance_home xg_overperformance_away shots_on_target_pct_home shots_on_target_pct_away clean_sheet_pct_home clean_sheet_pct_away h2h_win_pct_home h2h_goal_diff_home h2h_matches xg_rolling_rel_home xg_rolling_rel_away xgot_rolling_rel_home xgot_rolling_rel_away shots_rolling_rel_home shots_rolling_rel_away momentum_home momentum_away draw_rate_home draw_rate_away league_draw_rate xg_diff_abs defensive_strength days_rest_home days_rest_away days_rest_diff is_midweek season_stage league_avg_goals points_diff position_diff is_relegation_battle is_title_race points_to_safety points_to_leader match_importance lineup_changes_home lineup_changes_away lineup_stability_home lineup_stability_away formation_change_home formation_change_away squad_rotation_rate_home squad_rotation_rate_away odds_prob_home odds_prob_draw odds_prob_away yellows_rolling_home yellows_rolling_away yellows_rolling_conceded_home yellows_rolling_conceded_away referee_yellows_rolling fouls_rolling_home fouls_rolling_away
feature_infos=[0.3403990833898391:3.3738247234497862] [0.38703015473602781:3.6822466250240931] [0.31036220770316708:3.2246375378538219] [0.3543520338912014:3.0801545963937969] [0.029921977309044199:4.1764267051733484] [0.029921977309044199:3.9493926432119313] [0.022975344523497199:3.5043640216577225] [0.1939141693598404:3.4427291722567013] [4.2489912222451283:23.913554579275797] [3.8226074424901788:24.510688166334297] [1:10.825380166200723] [1.492585715504708:10.771132014391622] [3.4121014300871675:14.25150292278142] [3.4705942480627221:13.429027350753604] [43.016888774347976:169.1970205693228] [49.756551902867443:167.08995095947645] [19.763066776566511:121.78614531204911] [18.719333007498157:109.88740150354548] [6.8217189631636801:57.963565324338838] [6.8811895877468263:56.270381548809908] [28.985332480410136:96.867882905809097] [31.985178964310773:96.978977663179521] [1:12.37329272767726] [1:11.090999199719802] [26.062148150698611:74.059885464693963] [27.524494904682577:74.900162888494208] [1:5.4828020703575424] [1:4.8435384543379225] [1:5.4279364232752716] [1:5.7355147380856764] [0.5558203121652936:3.4814282086625767] [0.4223265008491448:3.3531767220701845] [0.33638211484883501:3.937627393943298] [0.16325724664110611:3.5647592034456341] [1:5.0066204438100552] [1:4.5627639793873165] [4.8445901534497882:25.732665842157523] [4.6253266643389939:22.346573756620192] [-1.0730604996064239:1.4712982184988077] [-1.167389951573643:1.4756749772919524] [0.097176053910180998:0.64807068000773294] [0.14703568252125929:0.64103369403500099] [0:1] [0:1] [0:1] [-5:4.666666666666667] [0:10] [0.2485069507824782:2.5610970699709652] [0.2907155606582118:2.8008333307018516] [0.018981465703020999:3.3216134029055508] [0.022607268344464099:3.1186337414494965] [0.39185554024248409:1.8846792644658847] [0.349060005449914:1.9242181441664099] [-1.6666666666666667:1.6000000000000001] [-1.5333333333333334:1.6666666666666667] [0:0.65000000000000002] [0:0.7142857142857143] [0:1] [3.614761117676224e-05:2.5928206849821542] [0.5702735108616197:2.5774176079939863] [2:2640] [2:2283] [-2198:2554] [0:1] [0:1] [0:8] [-66:66] [-19:19] [0:1] [0:1] [-19:53] [0:66] [0:1.28] [0:11] [0:11] [0:1] [0:1] [0:1] [0:1] [0:8.8000000000000007] [0:8.5999999999999996] [0.043141192333144403:0.90626601966458797] [0.059675905953519001:0.4672884952969843] [0.0261587440259268:0.85200140749004227] [1:4.9142505701205605] [1:5.016077167719672] [1:4.3269505365559002] [1:4.5491277238070253] [2:8.2883334851994466] [5.6256742315261059:20.454490163919729] [5.4917800944677433:19.96970785721237]
tree_sizes=1893 1962 1973 1981 1974 1977 1978 1959 1970 1970 1976 1984 1962 1985 1980 1984 1980 1973 1980 1988 1973 1972 1973 1982 1984 1980 1983 1970 1976 1988 1986 1974 1981 1972 1975 1984 1981 1983 1983 1985 1980 1979 1985 1990 1979 1982 1969 1992 1987 1984 1983 1989 1978 1978 1982 1963 1980 1969 1976 1980 1971 1976 1972 1982 1987 1970 1984 1988 1979 1983 1971 1978 1962 1954 1981 1979 1977 1970 1981 1976 1977 1975 1962 1979 1977 1982 1974 1960 1973 1991 1977 1957 1977 1961 1968 1991 1984 1984 1966 1976 1975 1974 1977 1974 1977 1958 1978 1957 1965 1955 1983 1971 1982 1972 1982 1982 1980 1972 1976 1976 1981 1980 1956 1974 1972 1977 1979 1978 1990 1974 1975 1964 1995 1971 1958 1977 1969 1980 1994 1986 1986

Tree=0
num_leaves=17
num_cat=0
split_feature=85 85 15 85 89 83 41 16 84 2 11 84 87 42 82 22
split_gain=49.1976 17.2035 12.0988 11.4248 6.8084 6.07378 5.6555 5.02006 7.84543 6.1638 4.99521 5.25813 4.91073 4.86482 4.62321 4.55659
threshold=2.3296177893952543 2.9318516125832943 78.537091015056305 2.0156350823104181 14.440015032398319 0.51008897887965221 0.31719127286667897 28.596727769533913 2.321628876347035 0.93892117247661966 7.2814925210918622 2.7437256079936181 2.9217530561821534 0.14596724902911931 0.26352463757605171 5.6922987190366428
decision_type=2 2 2 2 2 2 2 2 2 2 2 2 2 2 2 2
left_child=3 10 12 4 5 -1 13 -8 -9 -10 11 -2 15 -5 -11 -3
right_child=1 2 -4 6 -6 -7 7 8 9 14 -12 -13 -14 -15 -16 -17
leaf_value=0.86999670480859703 0.87411463864509831 0.88306857166248465 0.87679374111255581 0.87079404792192339 0.87354275253141533 0.86532549807893688 0.8767616916726797 0.86987173442914378 0.88536280092278885 0.87137542284948533 0.86425566078178384 0.87737544485984253 0.88936091610240087 0.87728878075716188 0.87699907393948129 0.87106997673157283
leaf_weight=12316.073713302612 11795.268716812134 1321.3015651702881 3602.2345590591431 829.43017959594727 2536.5132236480713 1687.7939701080322 1099.4772148132324 5752.9663038253784 245.93569278717041 2170.0208187103271 241.11342430114746 3394.8770141601562 597.9612922668457 2367.7338266372681 1215.2116584777832 192.89073944091797
leaf_count=2554 2446 274 747 172 526 350 228 1193 51 450 50 704 124 491 252 40
internal_value=0.873244 0.875945 0.879367 0.871355 0.870064 0.869433 0.872916 0.872096 0.871549 0.874205 0.874678 0.874844 0.883754 0.875603 0.873393 0.881538
internal_weight=51366.8 21145.6 5714.39 30221.2 16540.4 14003.9 13680.8 10483.6 9384.13 3631.17 15431.3 15190.1 2112.15 3197.16 3385.23 1514.19
internal_count=10652 4385 1185 6267 3430 2904 2837 2174 1946 753 3200 3150 438 663 702 314
is_linear=0
shrinkage=1


Tree=1
num_leaves=17
num_cat=0
split_feature=86 85 85 90 39 12 81 90 15 85 62 13 80 14 12 38
split_gain=46.1148 27.2779 13.5443 13.4548 9.41611 7.22394 6.78355 6.60533 6.11304 6.00102 5.63088 4.87258 5.36532 4.62061 5.14827 4.42883
threshold=2.5170725880572449 2.0340299378865412 2.9488421282404151 15.409368275020361 -0.3847744065425186 4.8457789895193892 0.17632477339610289 11.520883599863501 72.530631510963744 2.9158900303927431 -1.4999999999999998 6.0073071400926805 2.7750000000000004 68.586610553808569 6.8226619697737751 0.082134173926506807
decision_type=2 2 2 2 2 2 2 2 2 2 2 2 2 2 2 2
left_child=1 7 5 9 -5 -2 -7 -1 11 -3 -10 -4 -13 -8 -15 -12
right_child=2 3 8 4 -6 6 13 -9 10 -11 15 12 -14 14 -16 -17
leaf_value=-0.0055892407698581552 0.0079743501734436967 -0.00098246253963420638 0.0058748662938488258 0.018824563268839606 0.0036094960277553798 -0.0060105752471878863 0.0085861497991700318 -0.0023795840652270713 0.019396996181715538 0.002963299799516339 0.002942064805297611 0.011589114677058872 0.029026970042640987 0.0029993173323987353 -0.0005201848013112948 0.010993823916792388
leaf_weight=6837.8651690483093 1124.0187654495239 17500.661244869232 214.80732822418213 237.19273710250854 2529.0867128372192 557.73921346664429 579.5407338142395 6838.6237244606018 159.97851276397705 2326.8965291976929 1352.1614828109741 204.40488815307617 175.51357650756836 6989.3164520263672 3240.3912734985352 499.01453161239624
leaf_count=1423 233 3628 44 49 523 116 120 1422 33 480 279 42 36 1449 672 103
internal_value=-2.314e-07 -0.00141142 0.00338996 0.000146015 0.00491537 0.00239092 0.00183852 -0.00398455 0.00817756 -0.00051925 0.00625216 0.014683 0.0196545 0.00224381 0.00188419 0.00511428
internal_weight=51367.2 36270.3 15096.9 22593.8 2766.28 12491 11367 13676.5 2605.88 19827.6 2011.15 594.726 379.918 10809.2 10229.7 1851.18
internal_count=10652 7525 3127 4680 572 2590 2357 2845 537 4108 415 122 78 2241 2121 382
is_linear=0
shrinkage=0.073


Tree=2
num_leaves=17
num_cat=0
split_feature=85 85 15 81 85 87 11 17 87 43 28 17 66 87 12 12
split_gain=43.0788 16.9027 10.5477 8.93491 6.52338 5.41279 5.25403 5.55414 5.0914 5.04544 4.75795 4.86548 4.67542 4.36366 4.58321 4.15489
threshold=2.2313518113411068 2.9318516125832943 78.537091015056305 0.28180624067103471 2.0246769041685186 1.9352327956317525 6.8598081189273712 34.87493147702763 2.8341674301792534 0.22387625701338101 1.4367164201652822 28.635155222415655 -3.4999999999999996 2.6827483778584544 7.011293532409117 6.2155956526052947
decision_type=2 2 2 2 2 2 2 2 2 2 2 2 2 2 2 2
left_child=3 5 13 8 10 9 7 12 -1 -2 -5 -12 -7 15 -15 -3
right_child=1 2 -4 4 -6 6 -8 -9 -10 -11 11 -13 -14 14 -16 -17
leaf_value=-0.0062083919001307709 0.0013790031735511959 0.011808100406137658 0.0032267599525683576 0.00017414288233695289 0.00014543096958275441 0.00097861177179614403 -0.0053177099953264509 0.00040578630148525635 0.0017291240681785755 -0.0037316119192923 0.0014137902819595226 -0.0036407063203075006 0.0045908783227625689 0.010608679426006819 0.022827782850704102 0.0033262749398576042
leaf_weight=3518.6055173873901 2023.2947506904602 534.60917901992798 3631.6641774177551 2927.9465827941895 8187.2124609947205 3005.8564686775208 538.16591358184814 6372.5938129425049 490.04992294311523 2094.5233068466187 1127.9324994087219 10053.536616802216 5245.92333984375 669.80639028549194 217.41114807128906 728.50313663482666
leaf_count=735 419 109 747 610 1698 622 112 1319 102 434 235 2096 1085 136 44 149
internal_value=-5.29347e-07 0.00216522 0.0056272 -0.00206406 -0.00149341 0.00112685 0.00176434 0.00202517 -0.00523731 -0.00121981 -0.00244458 -0.00313057 0.00327541 0.00967979 0.013607 0.00691871
internal_weight=51367.6 25062.4 5781.99 26305.3 22296.6 19280.4 15162.5 14624.4 4008.66 4117.82 14109.4 11181.5 8251.78 2150.33 887.218 1263.11
internal_count=10652 5176 1185 5476 4639 3991 3138 3026 837 853 2941 2331 1707 438 180 258
is_linear=0
shrinkage=0.073


Tree=3
num_leaves=17
num_cat=0
split_feature=88 86 88 66 37 48 86 7 83 58 14 6 12 10 20 86
split_gain=46.1213 24.4121 11.0607 7.32443 6.82423 6.53066 6.27151 5.65489 5.61649 5.1602 4.90432 5.94079 4.90162 4.86614 4.79509 4.66282
threshold=5.2760534762086397 2.5763751710154823 4.2886361671874669 -6.4999999999999991 15.777147013947447 0.95025028383435373 2.8294882725860822 1.8871634543004585 0.2920293265839275 0.33097220382384457 85.577968278881471 1.698377216292686 5.3277705268109532 4.0229957992668988 71.156787954442038 1.9734067795823373
decision_type=2 2 2 2 2 2 2 2 2 2 2 2 2 2 2 2
left_child=1 2 5 9 7 -1 13 14 10 -2 11 -3 -10 -5 15 -4
right_child=3 8 4 6 -6 -7 -8 -9 12 -11 -12 -13 -14 -15 -16 -17
leaf_value=-0.0017874844463337414 0.0054656001039045873 0.0062981465089257402 -0.0023488680116304978 0.0069616991953495144 -0.0071071997054084962 -0.0048546188897285233 0.0089292308592780704 0.0042481673276291709 0.0053414935233613995 -0.0009927557684635917 0.0025727712063810097 0.021385107183198887 -0.0003167181844710681 0.0025733032543296453 -0.007759895286218745 0.00040872650739134583
leaf_weight=6604.6304230690002 988.62729167938232 1041.340663433075 5120.574583530426 2140.3068113327026 861.77469396591187 8421.7151694297791 2016.3981928825378 1263.4898018836975 1009.1287088394165 1977.3670988082886 2323.9790124893188 160.79188299179077 4256.0775971412659 3640.1423072814941 515.11925601959229 9026.4866099357605
leaf_count=1373 204 214 1065 441 180 1756 414 262 208 410 479 33 881 752 107 1873
internal_value=-7.51763e-07 -0.00112697 -0.00206794 0.00424787 -0.000779936 -0.0035067 0.00542251 -0.000437356 0.00227785 0.001159 0.0045327 0.00831907 0.000767206 0.00419871 -0.000841331 -0.000589191
internal_weight=51368 40605.1 31813.8 10762.8 16787.4 15026.3 7796.85 15925.7 8791.32 2965.99 3526.11 1202.13 5265.21 5780.45 14662.2 14147.1
internal_count=10652 8431 6616 2221 3487 3129 1607 3307 1815 614 726 247 1089 1193 3045 2938
is_linear=0
shrinkage=0.073


Tree=4
num_leaves=17
num_cat=0
split_feature=85 90 89 81 90 84 89 64 37 7 57 6 26 90 84 90
split_gain=38.7778 15.9085 9.95092 9.31917 6.59247 5.69361 5.32153 5.13385 5.00383 4.67795 6.29219 4.67021 4.46552 6.05461 4.60803 5.7118
threshold=2.2313518113411068 14.337067293664036 14.381195978326977 0.25921146765234432 18.180943627713685 3.3100262828454761 9.9474086966634534 0.48684210526315791 15.777147013947447 1.4399083579732865 0.21911285061969993 2.2512411531314864 2.2983226873222287 10.769535736098913 2.4564292785947699 11.079856529975348
decision_type=2 2 2 2 2 2 2 2 2 2 2 2 2 2 2 2
left_child=2 6 3 -1 5 9 -2 11 12 -3 -11 -5 14 -14 -8 -16
right_child=1 4 -4 7 -6 -7 8 -9 -10 10 -12 -13 13 -15 15 -17
leaf_value=-0.0066182298125425105 -0.0029831744625571262 0.0025043439313665256 0.0011187562147628239 -0.00068347448019608938 0.014190368162546612 0.011996211205277888 -0.00022755156477980725 -0.0033171098632949155 -0.0053154418476835091 0.016561731095170638 0.0050356640278879598 -0.012057015705167078 0.013676044754404978 0.0029414026418375619 -0.0026026398739155544 0.0036208798845350693
leaf_weight=2717.3591957092285 1759.943657875061 4756.0742816925049 4598.3788824081421 9784.1108541488647 379.10778141021729 481.08097171783447 7242.6964702606201 8932.9097123146057 594.76080942153931 292.97127866744995 1837.0196967124939 196.2624831199646 328.91428995132446 1892.3437743186951 945.99748420715332 4628.3803024291992
leaf_count=573 364 976 956 2041 77 98 1497 1865 124 60 376 41 68 390 195 951
internal_value=-1.00724e-06 0.00204765 -0.00196466 -0.00262029 0.00479943 0.00431572 0.000821928 -0.00204572 0.00125049 0.00377866 0.00662263 -0.000907465 0.00151038 0.00453244 0.000986402 0.00256419
internal_weight=51368.3 25139.3 26229 21630.6 7746.25 7367.15 17393 18913.3 15633.1 6886.07 2129.99 9980.37 15038.3 2221.26 12817.1 5574.38
internal_count=10652 5176 5476 4520 1587 1510 3589 3947 3225 1412 436 2082 3101 458 2643 1146
is_linear=0
shrinkage=0.073


Tree=5
num_leaves=17
num_cat=0
split_feature=86 86 81 7 89 37 87 15 15 87 19 84 87 84 86 23
split_gain=38.0718 11.5658 9.61147 8.57016 5.24159 5.63486 5.05147 4.99363 4.55036 4.52518 4.43899 4.48979 4.20273 4.09021 4.0584 3.67507
threshold=2.2374896620615101 2.9721418958623351 0.27102877817048721 1.590274210225471 12.632329644104276 9.7954533706899181 3.1238329952938071 81.723188483075091 72.530631510963744 2.0150947063926359 14.179764492410966 1.9383459327890746 1.6260246039675921 2.4292079007030649 1.9854535672316516 5.4613936849092868
decision_type=2 2 2 2 2 2 2 2 2 2 2 2 2 2 2 2
left_child=3 2 -2 4 13 12 14 10 -3 -9 -4 -12 -6 -1 -5 -11
right_child=1 8 7 6 5 -7 -8 9 -10 15 11 -13 -14 -15 -16 -17
leaf_value=-0.0044222719293669204 -0.0027724187533032501 0.011693269523330741 0.008219765721700658 -0.0014578226467534053 -0.0092003381992542491 -0.0023490268008990061 0.011986203719663625 -0.0013759706881716074 0.0044785405113444768 0.0011851017913507814 -0.0012717027894603491 0.0039784185698128324 0.0028439385305691306 -0.00071352066876033513 0.0026620581582270514 0.0050596196070846122
leaf_weight=8841.7129745483398 2719.1938757896423 525.23143339157104 947.09561204910278 3241.6945281028748 167.43654155731201 7616.2550930976868 199.69521903991699 3077.0957627296448 4167.0754742622375 7435.2845487594604 1131.2197170257568 3719.863938331604 1964.2829656600952 1933.0710034370422 2099.1556210517883 1583.2574162483215
leaf_count=1850 567 106 194 675 35 1587 41 639 854 1536 234 762 407 403 435 327
internal_value=-1.22588e-06 0.00201562 0.00127082 -0.00195953 -0.00264735 -0.00142032 0.000587715 0.00188541 0.00528682 0.00104074 0.00364696 0.00275355 0.00189642 -0.00375717 0.000160906 0.00186564
internal_weight=51368.6 25305.3 20613 26063.3 20522.8 9747.97 5540.55 17893.8 4692.31 12095.6 5798.18 4851.08 2131.72 10774.8 5340.85 9018.54
internal_count=10652 5219 4259 5433 4282 2029 1151 3692 960 2502 1190 996 442 2253 1110 1863
is_linear=0
shrinkage=0.073


Tree=6
num_leaves=17
num_cat=0
split_feature=86 90 84 90 81 86 90 17 17 7 33 55 25 54 52 22
split_gain=35.6841 17.0915 9.98746 8.93687 6.42426 5.65438 5.43801 5.25922 4.75078 4.94422 3.89896 4.61552 3.86679 4.17345 4.10369 3.80015
threshold=2.5170725880572449 12.365560476334695 2.7524900759710484 16.313261145799324 0.30088354373695309 2.1545449472088873 10.29339747834956 32.363189185222488 25.975808030039868 1.5849502325158766 1.091849218203133 0.24264705882352941 47.807043133717542 0.066666666666666513 0.97486984833160839 6.03709001806478
decision_type=2 2 2 2 2 2 2 2 2 2 2 2 2 2 2 2
left_child=1 6 3 5 -2 -3 -1 -7 -8 -10 11 -5 13 14 -4 -11
right_child=4 2 12 10 -6 7 8 -9 9 15 -12 -13 -14 -15 -16 -17
leaf_value=-0.0046980864977281354 -0.00057454615367569684 -0.0021376020940417724 0.0073632779904180675 0.018615277743778243 0.0035925446558106714 0.0044498074457599507 0.0046699249741363634 -0.00051115480681679999 -0.0031760130684157211 -0.00036498147037284311 0.0021317515744139846 0.0043945271190875103 0.0017035269869962691 0.0030837999275366763 0.019888800151584934 0.0094625589909323026
leaf_weight=5987.6787214279175 2324.5464186668396 8827.3352112770081 463.56295299530029 212.81785726547241 12938.770783424377 1538.8233499526978 545.81060552597046 4377.2750024795532 8155.4151592254639 2219.4308681488037 747.37251424789429 285.49298620223999 1604.0105419158936 708.86776065826416 200.1873574256897 231.48122882843018
leaf_count=1260 482 1840 95 43 2645 318 114 908 1708 462 154 58 331 145 41 48
internal_value=-1.40767e-06 -0.00125244 0.000257306 -0.000465328 0.00295772 -0.000967158 -0.00292318 0.000778754 -0.00196995 -0.00231193 0.00547167 0.0104746 0.00413992 0.00698479 0.0111462 0.000562124
internal_weight=51368.9 36105.6 18965.7 15989.1 15263.3 14743.4 17139.8 5916.1 11152.1 10606.3 1245.68 498.311 2976.63 1372.62 663.75 2450.91
internal_count=10652 7525 3933 3321 3127 3066 3592 1226 2332 2218 255 101 612 281 136 510
is_linear=0
shrinkage=0.073


Tree=7
num_leaves=17
num_cat=0
split_feature=88 86 85 88 85 85 12 41 25 87 66 14 12 90 7 59
split_gain=39.7377 19.2975 14.2396 9.41118 8.45819 7.76114 5.81279 5.18922 4.96517 4.85787 4.67194 5.32043 4.52469 4.49723 4.48517 4.44608
threshold=5.2760534762086397 2.5763751710154823 2.0793424277771542 4.2886361671874669 2.9488421282404151 2.6330769647060213 4.8457789895193892 0.4140397797114343 44.933880502026945 2.6694987595898456 -5.4999999999999991 74.998628958846055 8.6031330948027911 10.097332166122905 1.8999761717939616 1.5435356180581643
decision_type=2 2 2 2 2 2 2 2 2 2 2 2 2 2 2 2
left_child=1 2 13 15 6 12 -3 10 -6 -9 -7 -12 -2 -1 -5 -4
right_child=5 4 3 14 8 7 -8 9 -10 -11 11 -13 -14 -15 -16 -17
leaf_value=-0.0060692853793591125 0.0028871060400259773 0.0077941309586772112 -0.0036392515492627816 0.0004029479842499628 0.013843112754418227 0.00054439630820798425 0.00044465174207043858 0.0070017888277571598 0.0041548732622311135 0.01929560836021842 0.01404900852745051 0.005267031509328203 -0.0047476810806233692 -0.0029386284342131923 0.0058649824800564689 0.00037796668587131171
leaf_weight=3190.3751111030579 6246.4874625205994 624.76811218261719 5370.196738243103 9691.1173315048218 434.19756364822388 855.00629186630249 6998.4579219818115 415.116868019104 807.510413646698 293.00660467147827 444.03049039840698 2153.8230590820312 442.68978214263916 10510.025785446167 873.51933193206787 2018.8016490936279
leaf_count=678 1288 127 1119 2007 86 174 1439 84 163 59 89 435 92 2214 179 419
internal_value=-1.58491e-06 -0.0010523 -0.00189542 -0.000542697 0.00195791 0.00392195 0.0010474 0.00639781 0.00754526 0.0120935 0.00522877 0.00676935 0.00238138 -0.00366788 0.00085486 -0.00254129
internal_weight=51369.1 40519 31654 17953.6 8864.93 10850.2 7623.23 4160.98 1241.71 708.123 3452.86 2597.85 6689.18 13700.4 10564.6 7389
internal_count=10652 8431 6616 3724 1815 2221 1566 841 249 143 698 524 1380 2892 2186 1538
is_linear=0
shrinkage=0.073


Tree=8
num_leaves=17
num_cat=0
split_feature=90 87 90 82 5 43 90 30 32 7 14 3 41 56 18 17
split_gain=24.6009 11.9509 7.88955 7.51669 6.67085 6.97852 6.62525 5.45635 4.58323 5.26348 4.07389 4.00816 3.9801 4.45966 3.96662 3.93679
threshold=11.50029759485018 2.7621403028381692 18.180943627713685 0.12857532405900288 0.87600674227887065 0.34242916738433188 15.520791957022139 1.5338798297722982 1.0604568912274572 1.3598864127198869 89.972492603653436 1.9120402295977204 0.44492885339662741 0.2264957264957265 28.879200486922944 31.299730061676019
decision_type=2 2 2 2 2 2 2 2 2 2 2 2 2 2 2 2
left_child=7 3 4 -2 5 10 15 -1 -8 -10 -3 -9 13 -6 -15 -5
right_child=1 2 -4 6 12 -7 8 11 9 -11 -12 -13 -14 14 -16 -17
leaf_value=-0.0034899023974567559 -0.008875064761616213 0.019481456741881325 0.019611685870165502 0.0016932031907579128 -0.00048934564125656139 -0.0022233958300616639 -0.0028699302730015798 -0.0011700777259274818 0.0024217477445082716 0.008809050404132027 0.0063268883820935635 0.0066486190226665229 0.0088440427544890492 0.0045487201207056625 -0.0035713746422914383 -0.00042733834794405186
leaf_weight=9661.8762459754944 458.77292776107788 320.84579944610596 163.28390121459961 6258.3401832580566 2233.2732338905334 182.44138240814209 524.94296884536743 5589.4335451126099 2119.7505550384521 1018.9528603553772 207.38294410705566 372.58984231948853 500.14199352264404 3072.0497026443481 357.50518321990967 18327.828709125519
leaf_count=2030 95 64 32 1293 458 37 107 1172 433 206 42 77 102 627 73 3804
internal_value=-1.78353e-06 0.00105432 0.00375041 0.000393362 0.00337311 0.0100714 0.000543993 -0.0024182 0.00344005 0.00449633 0.0143232 -0.000680933 0.00260018 0.00204816 0.00370138 0.000112322
internal_weight=51369.4 35745.5 7036.92 28708.6 6873.64 710.67 28249.8 15623.9 3663.65 3138.7 528.229 5962.02 6162.97 5662.83 3429.55 24586.2
internal_count=10652 7373 1435 5938 1403 143 5843 3279 746 639 106 1249 1260 1158 700 5097
is_linear=0
shrinkage=0.073


Tree=9
num_leaves=17
num_cat=0
split_feature=86 85 85 85 15 83 86 87 82 12 64 87 22 19 86 7
split_gain=31.0227 15.2595 14.9158 7.46643 7.24805 6.49928 5.01933 4.81803 4.4562 4.36357 4.24797 4.20556 4.15929 3.87068 3.84024 3.67505
threshold=2.2374896620615101 2.0340299378865412 2.731960517871777 3.0162902428586911 72.530631510963744 0.59273524382246545 2.7117754549030479 2.9086992440322397 0.12459966059471757 5.7367658861031874 0.47213622291021667 1.8966269104424389 4.0045989271387681 13.983196480846003 2.8294882725860822 1.590274210225471
decision_type=2 2 2 2 2 2 2 2 2 2 2 2 2 2 2 2
left_child=1 -1 5 8 -4 6 11 -5 -3 -8 -9 13 14 -2 -6 -10
right_child=2 3 4 7 12 -7 9 10 15 -11 -12 -13 -14 -15 -16 -17
leaf_value=-0.0039699462924753012 0.0069282470551428497 -0.010478842777587313 0.010041870305530946 0.0022194031686756906 -0.00090870231841500644 -0.0050063850881639036 0.0051214149589489518 0.019825030816965319 -0.0013170232042692728 0.0012898287918810373 0.0039533457160000262 0.00089769203321784401 0.0057026046050003875 -0.0035049427285298142 0.0052681537078552642 0.0015443478840511406
leaf_weight=10246.531895637512 207.87551164627075 252.22314596176147 1201.5473651885986 1121.3896641731262 1414.9712772369385 969.71430158615112 2501.9470930099487 180.88789415359497 10881.009450435638 4324.6306209564209 179.68203449249268 9229.949951171875 2606.4888529777527 2122.381157875061 863.21946716308594 3065.1620321273804
leaf_count=2176 43 53 236 228 287 205 509 36 2271 885 36 1912 526 443 173 633
internal_value=-1.92448e-06 -0.0017791 0.00180895 -0.00034727 0.00496116 0.000817653 0.00112498 0.004583 -0.000862082 0.00269455 0.0119249 0.000197849 0.00371074 -0.00257289 0.0014305 -0.000687925
internal_weight=51369.6 25926.9 25442.7 15680.4 6086.23 19356.5 18386.8 1481.96 14198.4 6826.58 360.57 11560.2 4884.68 2330.26 2278.19 13946.2
internal_count=10652 5433 5219 3257 1222 3997 3792 300 2957 1394 72 2398 986 486 460 2904
is_linear=0
shrinkage=0.073


Tree=10
num_leaves=17
num_cat=0
split_feature=88 86 85 88 85 90 21 3 12 1 12 43 90 37 23 16
split_gain=35.0398 16.4257 12.1421 8.57977 7.16551 6.43384 5.76268 5.38756 5.18101 4.49786 4.67062 4.37037 4.05673 4.04141 4.54202 7.16867
threshold=5.2760534762086397 2.5763751710154823 2.0793424277771542 4.2886361671874669 2.9488421282404151 11.520883599863501 48.529802350566619 1.5363410866149769 4.8457789895193892 0.88807282572438606 6.6136536104245218 0.26540046193253558 10.097332166122905 15.777147013947447 3.6659137208856447 40.351052746353922
decision_type=2 2 2 2 2 2 2 2 2 2 2 2 2 2 2 2
left_child=1 2 12 7 8 -2 -6 -4 -3 11 -11 -7 -1 14 15 -5
right_child=5 4 3 13 6 9 -8 -9 -10 10 -12 -13 -14 -15 -16 -17
leaf_value=-0.0057154817205206749 0.00028040791192214483 0.0072624202992537974 -0.0037700158724969677 0.00044972092197349172 0.016529008711724018 0.018158578211727613 0.0043466224019973751 0.00048968898489003764 0.00036302096684989884 0.0055657976470301074 0.001953877613378785 0.003833776556438078 -0.0027265198743952127 -0.006684342972753078 0.0021308137714412456 -0.0083965492197603884
leaf_weight=3153.4087009429932 2347.9169321060181 632.40289258956909 5068.1785607337952 2661.3044352531433 261.34148502349854 249.48822069168091 999.69424057006836 2298.7781004905701 7014.0611400604248 5036.3318576812744 3076.25261926651 209.35655117034912 10443.528380393982 370.45925235748291 6949.6691317558289 597.65530014038086
leaf_count=678 486 127 1061 548 51 50 198 477 1439 1017 626 42 2214 78 1436 124
internal_value=-2.07692e-06 -0.000992706 -0.00177447 -0.000527595 0.00177532 0.00366741 0.00687403 -0.00244043 0.000934048 0.00459484 0.00419655 0.0116297 -0.00341995 0.000804173 0.00107623 -0.00117175
internal_weight=51369.8 40450.5 31543 17946 8907.5 10919.3 1261.04 7366.96 7646.46 8571.43 8112.58 458.845 13596.9 10579.1 10208.6 3258.96
internal_count=10652 8431 6616 3724 1815 2221 249 1538 1566 1735 1643 92 2892 2186 2108 672
is_linear=0
shrinkage=0.073


Tree=11
num_leaves=17
num_cat=0
split_feature=85 90 90 87 12 11 25 10 33 89 11 16 16 41 58 71
split_gain=27.4167 10.532 9.04951 7.35016 5.32361 4.81024 4.50922 4.43688 3.98896 3.94573 3.74135 3.71093 3.6714 4.14134 3.58065 3.54526
threshold=2.3296177893952543 14.337067293664036 11.50029759485018 2.9762938338794513 5.7622776973042997 3.0543122404065692 49.799919253336469 2.8786530965260018 0.52757608044589521 13.271191024373673 7.2814925210918622 37.103366576765666 38.305394542892664 0.42274944813931853 0.38565092595557188 12.500000000000002
decision_type=2 2 2 2 2 2 2 2 2 2 2 2 2 2 2 2
left_child=2 8 9 12 11 -6 -5 -7 -2 -1 -10 14 13 -3 -4 -11
right_child=1 3 4 6 5 7 -8 -9 10 15 -12 -13 -14 -15 -16 -17
leaf_value=-0.0037715741372304806 0.010229954577855679 0.0033443096788265208 0.0055993693720536681 0.012368566925900146 0.0033068773636920519 -0.0059634836790298023 0.0034590638261105351 -0.0011113067635791438 0.00084319225144640437 0.0014910709241366207 -0.0080543370004496802 -0.0009491262289663035 -0.00013246910569497103 0.010149328864302082 0.00019410652420558716 -0.0037185870439691215
leaf_weight=8889.3341708183289 237.08220195770264 3945.3674578666687 1648.3091020584106 848.25731372833252 1195.7491240501404 1101.5897450447083 472.37634086608887 11413.533621311188 13858.418310642242 1686.5394330024719 256.42239284515381 1623.3810887336731 1382.5396661758423 542.70936870574951 1083.5575156211853 1184.8910803794861
leaf_count=1891 48 794 341 166 249 231 95 2388 2840 356 54 337 280 108 225 249
internal_value=-2.23934e-06 0.00198208 -0.00143556 0.00426239 -0.000409444 -0.00111584 0.00918411 -0.00153865 0.000839289 -0.00301156 0.000681327 0.0018137 0.00315467 0.00416791 0.00345654 -0.000657687
internal_weight=51370.1 21543.2 29826.9 7191.25 18066.1 13710.9 1320.63 12515.1 14351.9 11760.8 14114.8 4355.25 5870.62 4488.08 2731.87 2871.43
internal_count=10652 4385 6267 1443 3771 2868 261 2619 2942 2496 2894 903 1182 902 566 605
is_linear=0
shrinkage=0.073


Tree=12
num_leaves=17
num_cat=0
split_feature=88 86 88 48 7 82 79 23 83 14 6 8 74 41 86 86
split_gain=31.734 14.9383 8.23043 5.48977 5.19198 5.06628 6.55919 4.98395 4.33864 4.03111 5.32855 4.18708 4.02799 3.87292 4.49907 3.82579
threshold=5.2760534762086397 2.5763751710154823 4.2886361671874669 0.95025028383435373 1.8871634543004585 0.25522487368330221 1.5500000000000003 3.8626310369761039 0.2920293265839275 85.577968278881471 1.3493367293058536 11.269110394097909 2.5000000000000004 0.32000183661764398 1.743318849378116 1.9285314500465029
decision_type=2 2 2 2 2 2 2 2 2 2 2 2 2 2 2 2
left_child=1 2 3 -1 13 -2 7 -7 9 10 12 -12 -3 14 -4 -8
right_child=5 8 4 -5 -6 6 15 -9 -10 -11 11 -13 -14 -15 -16 -17
leaf_value=-0.0013676841641587195 0.0010350911526127529 -0.0028922750578714439 -0.0042964144147189243 -0.0042021410710510214 0.0038811906756715513 0.0033027898019562987 -0.00049533476803305984 0.016673302954717681 0.0003625709225434997 0.0018754945895937032 0.0057494064092652574 0.019687417234010574 0.0077728721518906139 -0.0016328326959091123 0.0021697197814440588 0.0045108316984694471
leaf_weight=6525.1464705467224 3202.9616460800171 323.96633291244507 696.87187194824219 8250.2565841674805 1280.5007743835449 239.85151481628418 935.15786170959473 393.045081615448 5323.3955473899841 2366.4820151329041 215.44908237457275 247.88863611221313 450.958664894104 11486.370866775513 3231.8730783462524 6200.0310664176941
leaf_count=1373 652 65 147 1756 263 49 192 79 1089 479 43 49 90 2405 672 1249
internal_value=-2.34458e-06 -0.000947915 -0.00169564 -0.00295059 -0.000584842 0.0034793 0.00448671 0.0116113 0.00168741 0.00364307 0.00701864 0.0132135 0.00331048 -0.000956023 0.001022 0.0038543
internal_weight=51370.2 40399.2 31471 14775.4 16695.6 10971 7768.09 632.897 8928.14 3604.74 1238.26 463.338 774.925 15415.1 3928.74 7135.19
internal_count=10652 8431 6616 3129 3487 2221 1569 128 1815 726 247 92 155 3224 819 1441
is_linear=0
shrinkage=0.073


Tree=13
num_leaves=17
num_cat=0
split_feature=88 85 88 66 85 66 20 85 15 17 12 13 31 37 28 65
split_gain=29.4709 14.3703 9.96109 6.18817 6.14793 5.71999 5.2194 4.15499 5.86837 4.14804 4.11717 4.22695 3.82374 3.76818 3.66429 3.58279
threshold=5.3444121870194854 2.0841194047967506 3.9002040692234616 -6.4999999999999991 2.5970049338408718 -24.499999999999996 71.761228202609047 2.9488421282404151 77.821656508512419 34.234409415212973 4.897641075346864 7.6396817724060302 1.5866373930111914 7.8004860144631518 2.0219407790264414 3.1095655487804881
decision_type=2 2 2 2 2 2 2 2 2 2 2 2 2 2 2 2
left_child=1 5 15 12 -2 -1 7 9 -9 -5 14 13 -4 -12 -7 -3
right_child=4 2 3 6 -6 10 -8 8 -10 -11 11 -13 -14 -15 -16 -17
leaf_value=-0.0081525120735700153 0.0020134078000734797 -0.0035117506749173066 -0.00020768104610914223 0.0028471863437956597 0.0056756537456656162 0.0050678947608382447 -0.0060106989320122131 0.0095420531657990047 0.0019725691539950376 0.0001744693360441511 -0.010117000599998231 -0.0046621793915517587 -0.0051855579136545638 -0.0015727949036018077 -0.0066137555982170651 0.0023241603757068064
leaf_weight=909.42392730712891 5854.9347496032715 4165.2809743881226 3465.4653310775757 5647.9225101470947 4196.0906019210815 696.02787685394287 456.3526930809021 857.57547092437744 1504.8679852485657 6849.9582433700562 282.2503662109375 3598.268413066864 1078.7029929161072 10980.209808349609 179.91508483886719 647.13094425201416
leaf_count=196 1197 870 715 1159 829 145 94 167 302 1416 60 766 226 2337 38 135
internal_value=-2.46515e-06 -0.000864888 0.000253212 0.000975334 0.00354262 -0.00252234 0.00167728 0.00191358 0.00472165 0.00138254 -0.00219677 -0.00248354 -0.00139001 -0.00178721 0.00266504 -0.00272637
internal_weight=51370.4 41319.4 24673.3 19860.8 10051 16646.1 15316.7 14860.3 2362.44 12497.9 15736.7 14860.7 4544.17 11262.5 875.943 4812.41
internal_count=10652 8626 5084 4079 2026 3542 3138 3044 469 2575 3346 3163 941 2397 183 1005
is_linear=0
shrinkage=0.073


Tree=14
num_leaves=17
num_cat=0
split_feature=86 90 90 86 87 17 7 90 81 32 81 10 20 72 82 35
split_gain=24.6212 10.8392 9.00248 6.16207 5.52422 5.51958 5.33465 5.03583 4.17972 6.09557 3.89022 4.07033 3.76202 3.82163 3.70028 3.58331
threshold=2.2440400521649795 15.469444286175776 12.612173595263327 2.9261748821422535 2.9762938338794513 25.540986100414454 1.590274210225471 11.520883599863501 0.29017675639622059 1.8152039777264106 0.25632353435578575 3.4889654650538406 51.200852133030928 0.12865000000000001 0.17147486174037357 1.7112070009899008
decision_type=2 2 2 2 2 2 2 2 2 2 2 2 2 2 2 2
left_child=1 5 3 8 15 -1 7 -7 9 -2 11 -4 -10 -14 -9 -3
right_child=2 4 10 -5 -6 6 -8 14 12 -11 -12 -13 13 -15 -16 -17
leaf_value=0.0046703121085477049 -0.0050929937507039648 0.0041819428528975713 0.004033757884924008 0.003515762351851884 0.0132145244977476 -0.0044112616170853408 -0.00011814244897285281 -0.0083510535473006325 0.0026071184906891762 0.0088573463656067431 0.0032038049701843319 -0.0054858648564427813 -0.0070147571644172853 -0.00035207705711757489 -0.0016165529041398828 -0.0025504451441099103
leaf_weight=636.7855339050293 1743.2297568321228 1285.4194893836975 407.64941644668579 2265.1977815628052 265.57317352294922 6594.0511908531189 5048.9032349586487 452.77216386795044 2177.269287109375 184.4190411567688 12896.033655643463 579.07299661636353 509.48032522201538 4620.199676990509 11078.392415046692 626.10764455795288
leaf_count=134 368 262 84 458 52 1419 1055 96 451 39 2594 120 106 958 2327 129
internal_value=-2.59133e-06 -0.00158208 0.00161446 0.000103664 0.0033478 -0.00203296 -0.00221729 -0.00280186 -0.000732999 -0.00375671 0.00286571 -0.00155001 6.43022e-05 -0.00101443 -0.00188126 0.00197526
internal_weight=51370.6 25988 25382.6 11499.8 2177.1 23810.9 23174.1 18125.2 9234.6 1927.65 13882.8 986.722 7306.95 5129.68 11531.2 1911.53
internal_count=10652 5474 5178 2380 443 5031 4897 3842 1922 407 2798 204 1515 1064 2423 391
is_linear=0
shrinkage=0.073


Tree=15
num_leaves=17
num_cat=0
split_feature=66 87 82 15 12 17 13 26 34 89 47 34 37 57 26 31
split_gain=12.8784 9.56103 5.57151 5.28397 5.24679 4.75204 5.4522 3.9649 4.40408 3.87821 3.95364 3.77859 3.74902 3.72857 3.50585 4.04066
threshold=-6.4999999999999991 2.6827483778584544 0.12459966059471757 78.03261851872422 6.5272567784037925 32.118447908541107 7.7660347897947659 2.3288020871469715 2.1448482907309145 12.194229952599692 0.94024297841343685 2.0460598956426517 12.556013982600646 0.25033333333333335 2.0394114541241959 1.6589682157028494
decision_type=2 2 2 2 2 2 2 2 2 2 2 2 2 2 2 2
left_child=4 2 -2 -3 14 7 -7 8 -4 -5 11 -11 13 -9 15 -1
right_child=1 3 5 9 -6 6 -8 12 -10 10 -12 -13 -14 -15 -16 -17
leaf_value=0.00014967413669245497 -0.007178784732921906 0.006206070687169927 0.0017366032029939649 -0.00079417579501456692 -0.0032151722304951977 0.00019399370039544726 -0.0028379549180654311 0.0097771013440594058 -0.0028140097446359537 0.0071357064689201426 0.00042652696209048507 0.00028781512428685579 -0.00071082902837866396 0.0013508092926845421 0.0038144083223079694 -0.00465327948091544
leaf_weight=3641.8575205802917 550.0202465057373 2006.4602007865906 6072.4725885391235 1945.703784942627 7575.0816421508789 16665.159143447876 3899.9461932182312 816.71802711486816 1392.9899969100952 1563.0195603370667 1560.3421587944031 593.29325199127197 478.67170190811157 427.03136491775513 927.33878612518311 1254.5973296165466
leaf_count=754 116 396 1252 400 1599 3463 818 167 288 315 317 120 100 88 194 265
internal_value=-2.69487e-06 0.00068384 0.000101012 0.00298647 -0.00194852 0.000235693 -0.000380844 0.00161599 0.000887099 0.00184506 0.00322751 0.00525295 0.00477346 0.00688646 -0.000300461 -0.00108039
internal_weight=51370.7 37971.8 30303 7668.82 13398.9 29753 20565.1 9187.88 7465.46 5662.36 3716.65 2156.31 1722.42 1243.75 5823.79 4896.45
internal_count=10652 7840 6292 1548 2812 6176 4281 1895 1540 1152 752 435 355 255 1213 1019
is_linear=0
shrinkage=0.073


Tree=16
num_leaves=17
num_cat=0
split_feature=84 83 64 17 3 11 13 72 89 83 82 16 13 7 89 19
split_gain=12.368 8.97277 6.72465 5.52387 5.28655 4.98989 4.88741 4.25064 3.98176 3.91043 3.91037 4.5297 3.64103 3.43386 3.41827 3.35693
threshold=2.7339256221397612 0.51008897887965221 0.48684210526315791 32.421994722320932 1.86067819893841 7.1620388580537586 7.6148280983505368 0.099900000000000017 12.967131461612032 0.23240241145966908 0.15442723142211459 31.403651366780839 4.3828274379695538 0.752376520182094 8.5821510071838372 20.745111867051325
decision_type=2 2 2 2 2 2 2 2 2 2 2 2 2 2 2 2
left_child=1 2 4 7 6 12 -1 -4 -3 10 -5 -12 -2 -10 -9 -14
right_child=5 8 3 9 -6 -7 -8 14 13 -11 11 -13 15 -15 -16 -17
leaf_value=0.00093531156531396055 0.013093547306306227 -0.0058471703810481918 -0.0036380987461946449 -0.0070873813271363998 0.0046298087544223519 -0.0074816888034089238 -0.002123057783002401 -0.0088126043831653587 0.0077743284326339404 -0.0028791899720352395 0.0078548204994498393 -0.00023207570237494029 0.003769542967132407 -0.00241699071924066 0.001693297770486899 0.00096584756570111284
leaf_weight=14689.815498352051 174.50145959854126 2300.2937955856323 1094.669201374054 338.03233766555786 1685.6170148849487 266.54234552383423 3435.3646769523621 170.39105892181396 207.1961817741394 9139.4355850219727 455.0860800743103 1949.7933669090271 4820.9558539390564 1173.8283686637878 5152.0898108482361 4317.1637721061707
leaf_count=3047 35 497 227 71 346 56 721 36 44 1912 93 403 967 249 1064 884
internal_value=-2.74634e-06 -0.000545096 -0.000212566 -0.00122157 0.000719317 0.00236308 0.000355478 0.000503916 -0.00398673 -0.00215368 0.000262686 0.00129712 0.0026452 -0.000885716 0.00135637 0.00244531
internal_weight=51370.8 41791.6 38110.3 18299.5 19810.8 9579.16 18125.2 6417.15 3681.32 11882.3 2742.91 2404.88 9312.62 1381.02 5322.48 9138.12
internal_count=10652 8710 7920 3806 4114 1942 3768 1327 790 2479 567 496 1886 293 1100 1851
is_linear=0
shrinkage=0.073


Tree=17
num_leaves=17
num_cat=0
split_feature=85 85 15 90 12 37 82 23 12 20 64 90 18 61 26 4
split_gain=21.7722 10.6979 6.46108 5.50615 4.86008 4.61421 4.29575 4.18239 3.98533 3.77147 3.64883 3.51372 4.19134 4.23065 3.26162 3.05105
threshold=2.0841194047967506 2.9318516125832943 78.537091015056305 11.50029759485018 7.4871778030780831 15.661251119928002 0.10302891331591552 3.8381343262521734 5.2672005671518498 71.761228202609047 0.55572755417956665 18.180943627713685 20.908195179243236 8.5000000000000018 2.5841871431319805 1.0857557071122172
decision_type=2 2 2 2 2 2 2 2 2 2 2 2 2 2 2 2
left_child=3 5 11 -1 -5 6 -2 10 9 -9 -8 12 -3 -14 -10 -7
right_child=1 2 -4 4 -6 15 7 8 14 -11 -12 -13 13 -15 -16 -17
leaf_value=-0.0033327876460936775 -0.011022586489066392 0.0088219231108387121 0.0020471416803463441 0.0001229718345243951 -0.00351282866287383 -0.010096978762056893 0.00075034885489188587 0.0056250106375548585 0.00071245459212616923 -0.0053386150632923268 -0.0021979596076921221 0.016674336369010331 -0.00048895954769433245 0.012075928380439097 0.0045057194761071243 -0.0016817821629160035
leaf_weight=8657.7420611381531 165.06502628326416 1248.6460938453674 3743.5245509147644 7499.87171459198 2651.3624925613403 318.31969690322876 5533.9486680030823 1774.5572576522827 12639.524886608124 184.29980373382568 3753.762218952179 183.38248682022095 671.66523885726929 181.19775438308716 1336.1059627532959 827.88107824325562
leaf_count=1866 35 239 747 1574 564 68 1136 359 2606 38 773 34 130 35 274 174
internal_value=-2.80318e-06 0.00113934 0.00391537 -0.00198023 -0.00082637 0.000508515 0.000713164 0.000790098 0.00150781 0.00459193 -0.000440942 0.00697489 0.00612686 0.00217749 0.00107532 -0.0040216
internal_weight=51370.9 32561.9 6028.42 18809 10151.2 26533.5 25387.3 25222.2 15934.5 1958.86 9287.71 2284.89 2101.51 852.863 13975.6 1146.2
internal_count=10652 6648 1185 4004 2138 5463 5221 5186 3277 397 1909 438 404 165 2880 242
is_linear=0
shrinkage=0.073


Tree=18
num_leaves=17
num_cat=0
split_feature=88 85 88 20 85 85 79 42 64 15 54 37 83 24 40 90
split_gain=25.4224 11.3277 8.74468 5.12233 5.23608 5.02716 4.56238 4.9304 4.83174 4.43585 4.74681 4.29216 4.1604 3.87408 3.28858 3.16068
threshold=5.2760534762086397 2.0841194047967506 3.8180359504202328 71.761228202609047 2.9318516125832943 2.0246769041685186 1.5500000000000003 0.11424295148621967 0.36068111455108359 75.784126454352574 -0.13333333333333339 14.278973031842193 0.44043098633173788 54.630160697685781 0.43027482930539024 11.50029759485018
decision_type=2 2 2 2 2 2 2 2 2 2 2 2 2 2 2 2
left_child=1 12 -3 4 14 -2 8 -8 -7 10 -6 -9 15 -14 -4 -1
right_child=5 2 3 -5 9 6 7 11 -10 -11 -12 -13 13 -15 -16 -17
leaf_value=-0.003096650491444961 -0.00012238545786485497 -0.0029199645657430003 9.9411274455963463e-05 -0.0060213707974938104 0.016995572919285929 0.017045751892068649 -0.00034131990044337874 0.0048501006865528619 0.0046078613924046136 0.002003360027191362 0.0048628063872486202 -0.001186952587943197 -0.0061100508041761594 0.002616487999970682 0.0033815219974389519 -0.00086169191600571696
leaf_weight=5995.7037606239319 2097.4370951652527 4095.7063627243042 14505.476448059082 572.42762804031372 237.1154260635376 275.24365091323853 1551.1793532371521 6031.6283884048462 423.36087608337402 2162.017707824707 628.47722578048706 699.60976648330688 2238.0095481872559 307.94574642181396 1832.6481585502625 7716.9650530815125
leaf_count=1295 435 858 2996 119 45 54 310 1195 84 432 120 143 491 67 377 1631
internal_value=-2.87034e-06 -0.000854458 0.000152154 0.00078338 0.000984681 0.00309409 0.0038456 0.00336717 0.00951303 0.00377323 0.00819028 0.0042222 -0.00234263 -0.00505337 0.000467751 -0.00183912
internal_weight=51371 40292.5 24033.9 19938.2 19365.7 11078.5 8981.02 8282.42 698.605 3027.61 865.593 6731.24 16258.6 2545.96 16338.1 13712.7
internal_count=10652 8431 4947 4089 3970 2221 1786 1648 138 597 165 1338 3484 558 3373 2926
is_linear=0
shrinkage=0.073


Tree=19
num_leaves=17
num_cat=0
split_feature=88 90 88 90 52 42 83 72 66 84 26 11 90 11 84 7
split_gain=23.7497 8.47969 8.45103 5.91691 4.85582 4.49139 4.36189 3.99332 4.78461 3.8777 3.40235 4.24258 3.95648 3.61759 3.4849 3.37738
threshold=5.0472998001893199 11.40461449566541 3.8037800179247414 12.612173595263327 0.75900488325977522 0.10281743679449405 0.4931188551555441 0.040400000000000012 -24.499999999999996 1.9694939264761617 2.4520104021559965 3.8922696157021313 9.6524589862220171 7.2814925210918622 1.683689842598078 1.6300164755725117
decision_type=2 2 2 2 2 2 2 2 2 2 2 2 2 2 2 2
left_child=2 -2 6 10 -5 -3 15 -7 -9 -10 12 -12 -4 -14 -13 -1
right_child=1 5 3 4 -6 7 -8 8 9 -11 11 14 13 -15 -16 -17
leaf_value=-0.0032686325456795107 -0.00090183905140184088 0.00018105202998731023 -0.0046941910562329917 0.0042525228162390242 0.00015631001905329033 -0.0010798607090687412 -0.0079285743548228489 -0.0057471489492059123 0.0012099822629877911 0.0053818255144176801 -0.0040660571785993268 0.010285945916465805 -0.001018388646064385 -0.0085127231353511693 0.0015712701276692537 0.00060423305038605419
leaf_weight=5891.9553084373474 3161.7953395843506 1975.612380027771 2176.9206418991089 1773.4117550849915 11842.080779075623 759.74686670303345 876.45814895629883 239.41813182830811 1418.5807137489319 7343.313892364502 539.91711282730103 316.79833555221558 10117.46503162384 355.40411949157715 1076.9137334823608 1505.2806901931763
leaf_count=1257 657 398 471 359 2437 153 192 49 288 1456 113 67 2135 77 227 316
internal_value=-2.95559e-06 0.00245285 -0.00100619 -0.000404169 0.000690063 0.00335684 -0.00305769 0.0039993 0.00442833 0.00470673 -0.00142597 0.00142508 -0.00186201 -0.00127302 0.00355446 -0.00248014
internal_weight=51371.1 14898.5 36472.6 28198.9 13615.5 11736.7 8273.69 9761.06 9001.31 8761.89 14583.4 1933.63 12649.8 10472.9 1393.71 7397.24
internal_count=10652 3001 7651 5886 2796 2344 1765 1946 1793 1744 3090 407 2683 2212 294 1573
is_linear=0
shrinkage=0.073


Tree=20
num_leaves=17
num_cat=0
split_feature=88 86 85 90 81 20 81 10 0 79 53 87 88 14 90 9
split_gain=22.1239 11.8181 7.20276 5.38087 5.33045 4.55298 4.3298 4.37779 5.25221 4.13654 5.16078 4.0207 3.90387 3.8531 3.79551 3.67038
threshold=5.3444121870194854 2.3372364752577943 2.0340299378865412 11.40461449566541 0.17222729809123502 51.281371299364771 0.45673585114850762 3.3778047548010326 1.5719438499830349 1.5500000000000003 0.30384615384615393 3.0225397692603218 3.8180359504202328 92.381220174510204 9.2520290742573046 9.0881374701314979
decision_type=2 2 2 2 2 2 2 2 2 2 2 2 2 2 2 2
left_child=1 2 -1 11 -3 6 -6 -8 -9 10 13 -2 -4 -5 -7 -16
right_child=3 4 12 9 5 14 7 8 -10 -11 -12 -13 -14 -15 15 -17
leaf_value=-0.003220845089695416 -0.0017190151922107048 -0.0056836708064559229 -0.003078241336898531 0.019564775392193593 0.0012632482324525555 -0.0060037680555427809 -0.0037825989540523014 0.010500464642575008 0.0019569520137578066 0.0033882713582667457 -0.00013077544584291404 0.0079977512875746507 -0.00014477930214365096 0.0053871095283036163 0.0053895153705219943 0.0001147203138688738
leaf_weight=10246.207521438599 1682.8292980194092 642.52531862258911 3008.337149143219 262.82007026672363 3107.5895590782166 497.27703428268433 224.92965221405029 960.22650480270386 639.97646284103394 7602.1337361335754 200.16428422927856 262.2421498298645 12323.119912147522 168.23405838012695 764.28234148025513 8778.2798848152161
leaf_count=2228 348 139 640 51 639 105 45 192 129 1502 39 53 2561 33 153 1795
internal_value=-3.02752e-06 -0.000756134 -0.00172228 0.00304455 0.00082624 0.00110581 0.00292196 0.00574452 0.00708555 0.00386039 0.00954129 -0.000407348 -0.000720579 0.0140391 0.00021321 0.000537512
internal_weight=51371.2 41192.8 25577.7 10178.4 15615.1 14972.6 4932.72 1825.13 1600.2 8233.35 631.218 1945.07 15331.5 431.054 10039.8 9542.56
internal_count=10652 8626 5429 2026 3197 3058 1005 366 321 1625 123 401 3201 84 2053 1948
is_linear=0
shrinkage=0.073


Tree=21
num_leaves=17
num_cat=0
split_feature=88 85 90 25 66 87 86 82 86 5 85 84 82 41 34 57
split_gain=20.6131 9.4969 7.3537 6.40789 6.29715 6.26946 5.94663 4.54985 5.02283 4.85741 4.46613 4.40389 4.29818 4.0662 3.76329 3.49281
threshold=5.0472998001893199 2.9596506826431885 11.40461449566541 46.963686303047702 -24.499999999999996 2.5942889998645833 2.2348305935201549 0.22423175688250102 2.0457907128161255 0.79540482725998862 2.0340299378865412 2.4679853448121616 0.12459966059471757 0.4188646093003327 1.628854395181788 0.14784456587735273
decision_type=2 2 2 2 2 2 2 2 2 2 2 2 2 2 2 2
left_child=1 4 -2 5 -1 -3 10 14 9 -9 -6 -7 -12 -10 -4 -14
right_child=2 3 7 -5 6 11 -8 8 13 -11 12 -13 15 -15 -16 -17
leaf_value=-0.0058858099872715237 -0.00085123884875514834 0.0031143649476310905 -0.0078622204458767986 -0.00011030764046399647 -0.0032538871744481781 0.022815225190815677 2.6795892040048894e-05 0.010204977782253093 0.0038194572752691144 -0.0007999458607107745 -0.01197555543428193 0.008131416184710475 -0.0086457263384957413 0.0083830396426862446 0.0011962165076621505 -0.00044924874781074276
leaf_weight=1509.8712120056152 3157.2758078575134 821.4378604888916 298.4017276763916 1468.5475244522095 7902.5454349517822 176.6724591255188 14598.904075622559 241.92385339736938 6860.835747718811 1830.7056679725647 183.57502412796021 286.12434244155884 285.71653699874878 1228.21368932724 1348.9229173660278 9171.6026568412781
leaf_count=329 657 161 60 295 1725 33 3026 48 1354 372 40 54 60 240 270 1928
internal_value=-3.09922e-06 -0.000940741 0.00227749 0.00318137 -0.00127802 0.00694765 -0.00106148 0.00311423 0.00369119 0.000483317 -0.00196726 0.0137445 -0.000912309 0.00451277 -0.00044301 -0.000697212
internal_weight=51371.3 36405 14966.3 2752.78 33652.2 1284.23 32142.3 11809 10161.7 2072.63 17543.4 462.797 9640.89 8089.05 1647.32 9457.32
internal_count=10652 7651 3001 543 7108 248 6779 2344 2014 420 3753 87 2028 1594 330 1988
is_linear=0
shrinkage=0.073


Tree=22
num_leaves=17
num_cat=0
split_feature=86 85 85 15 81 85 17 16 23 86 79 21 21 39 11 64
split_gain=18.0385 8.67213 8.13681 4.75542 4.4213 4.32285 4.13306 3.81112 4.43919 3.81918 4.18703 3.78355 3.81452 3.60831 3.58121 4.32519
threshold=2.2440400521649795 2.0156350823104181 2.731960517871777 72.530631510963744 0.17222729809123502 3.0162902428586911 25.975808030039868 40.450701751924306 3.0087567979276715 2.8118066854581643 3.1000000000000005 48.336532642121448 74.365302313513979 0.084014980264621758 4.9746180806832561 0.30495356037151705
decision_type=2 2 2 2 2 2 2 2 2 2 2 2 2 2 2 2
left_child=1 -1 4 -4 -2 6 13 8 -6 -9 -11 -10 -13 -3 15 -7
right_child=2 5 3 -5 7 14 -8 9 11 10 -12 12 -14 -15 -16 -17
leaf_value=-0.0031023000240271033 -0.0043093953978031174 0.012072955679586 0.0077087278648147696 0.0026587674080347495 -0.001869889279738949 0.01087033176099232 -0.00094381665214549125 -0.002577685055014373 -0.00094920436060080241 -0.0014620902600807472 0.0082099312751210216 0.002732457383968722 -0.0044732641347922679 -0.00081775287275024462 -0.0040802912113436906 0.0018949944302776415
leaf_weight=9603.9555940628052 918.84278345108032 247.67734718322754 1242.0723977088928 4990.4783964157104 1911.0349149703979 436.80515050888062 14204.385011672974 2775.0093016624451 2074.1867594718933 547.76415395736694 421.89679098129272 10258.038029193878 406.70545673370361 216.40709257125854 283.74047088623047 832.38738441467285
leaf_count=2097 199 51 231 979 392 85 2975 577 423 110 84 2099 84 45 57 164
internal_value=-3.17719e-06 -0.00136374 0.00137215 0.00366567 0.000631861 -0.000334232 -0.000722144 0.000878851 0.00141018 -0.00119905 0.0027433 0.00190248 0.00245738 0.00605597 0.00332791 0.00498645
internal_weight=51371.4 25825.4 25546 6232.55 19313.5 16221.4 14668.5 18394.6 14650 3744.67 969.661 12738.9 10664.7 464.084 1552.93 1269.19
internal_count=10652 5474 5178 1210 3968 3377 3071 3769 2998 771 194 2606 2183 96 306 249
is_linear=0
shrinkage=0.073


Tree=23
num_leaves=17
num_cat=0
split_feature=86 86 81 89 25 1 70 42 11 17 11 89 81 20 17 38
split_gain=16.7534 6.23871 5.29928 4.89191 4.36778 3.83531 3.49256 3.43614 3.86693 3.36248 3.74468 3.37566 3.2103 3.04035 3.03776 3.01636
threshold=2.2440400521649795 2.9721418958623351 0.27102877817048721 12.943776898027481 41.613395750078958 1.1382349228412718 -7.4999999999999991 0.59349493976240297 6.0898300054369345 32.118447908541107 6.6234370222908323 9.3406988596312761 0.23875736394954869 71.156787954442038 25.540986100414454 0.33811957094290956
decision_type=2 2 2 2 2 2 2 2 2 2 2 2 2 2 2 2
left_child=3 2 -2 12 -3 -6 -4 8 -5 10 11 -8 -1 -11 -14 -7
right_child=1 4 6 7 5 15 9 -9 -10 13 -12 -13 14 -15 -16 -17
leaf_value=-0.0052049344976321226 -0.0022748001187341896 0.010269652016185855 -0.005746615649509147 0.00063384643119555938 -0.0010547526003500745 0.0034166477867491815 -0.0046657217526960308 -0.0088402348667416322 -0.0042052597074516123 0.00088378499201787158 -0.0040109716583070915 0.0036538368728940328 0.005763096596764705 -0.0050252546584285858 -0.0019185469948485884 0.010966683656481542
leaf_weight=1613.1361904144287 2660.0302920341492 481.67580413818359 375.82178640365601 8826.9167146682739 989.43004512786865 3100.834557056427 272.82167196273804 231.81676578521729 977.36314344406128 11144.189783573151 405.4017186164856 5356.3035893440247 279.66723299026489 484.03065347671509 13861.338841915131 310.68450927734375
leaf_count=357 563 92 76 1845 192 614 56 49 211 2263 84 1076 58 100 2954 62
internal_value=-3.23099e-06 0.00132038 0.000766514 -0.00131623 0.00366775 0.00294445 0.00121516 -5.62847e-05 0.000151138 0.00136347 0.00276177 0.00325008 -0.00211869 0.000637554 -0.00176641 0.00410518
internal_weight=51371.5 25581.2 20698.6 25790.2 4882.62 4400.95 18038.6 10036.1 9804.28 17662.7 6034.53 5629.13 15754.1 11628.2 14141 3411.52
internal_count=10652 5178 4218 5474 960 868 3655 2105 2056 3579 1216 1132 3369 2363 3012 676
is_linear=0
shrinkage=0.073


Tree=24
num_leaves=17
num_cat=0
split_feature=88 86 90 7 25 88 90 61 16 81 20 12 20 39 12 37
split_gain=18.2618 8.91653 5.53064 5.16027 4.60457 4.53661 4.42375 3.96276 4.37574 3.75868 4.01688 4.18463 5.4481 3.94297 3.93358 5.56067
threshold=5.3444121870194854 2.3372364752577943 15.409368275020361 1.4186463264001292 42.185801610352392 4.4846563070120453 11.40461449566541 10.500000000000002 34.121207945644549 0.17222729809123502 51.281371299364771 4.8457789895193892 60.78477830217053 -0.053513354930854747 5.8043208099050192 10.960091585870639
decision_type=2 2 2 2 2 2 2 2 2 2 2 2 2 2 2 2
left_child=1 2 5 -4 -3 -1 -2 8 -7 -6 14 12 -12 -13 15 -11
right_child=6 4 3 -5 9 7 -8 -9 -10 10 11 13 -14 -15 -16 -17
leaf_value=-0.0027059299957476919 -0.00038119524233669875 0.0038152995519846089 -0.00012526771696737613 0.0081752703413402079 -0.0053046133319574673 0.00049167941644311498 0.0034859818399921214 0.0022227137897103616 -0.0030013813625643974 -0.00024543215584661617 0.01047988775866842 -0.0030939660729723153 -0.0010099963914244386 0.00028491411841033909 0.0012827493506963274 0.012649903223425863
leaf_weight=13701.409695148468 1943.6532602310181 2151.6971173286438 1461.0727434158325 548.7509913444519 634.65465211868286 3524.5122961997986 8310.9289422035217 2032.05131483078 4171.60142993927 308.25821781158447 410.77426862716675 2923.899049282074 472.37820816040039 4963.073431968689 3391.8797163963318 420.90791845321655
leaf_count=2961 401 429 301 110 139 741 1625 431 885 61 81 597 95 1018 693 84
internal_value=-3.25919e-06 -0.000690673 -0.00153462 0.00213971 0.000678581 -0.00184993 0.00275271 -0.000644018 -0.00140132 0.000179365 0.000449591 -0.000433457 0.0043311 -0.000967359 0.00232953 0.00719457
internal_weight=51371.5 41116.9 25439.4 2009.82 15677.5 23429.6 10254.6 9728.17 7696.11 13525.8 12891.2 8770.12 883.152 7886.97 4121.05 729.166
internal_count=10652 8626 5429 411 3197 5018 2026 2057 1626 2768 2629 1791 176 1615 838 145
is_linear=0
shrinkage=0.073


Tree=25
num_leaves=17
num_cat=0
split_feature=86 85 66 89 66 81 85 24 14 7 17 85 89 40 59 12
split_gain=14.7594 10.4152 5.31042 4.72434 4.43024 4.2118 4.94707 4.01344 3.92745 3.73151 3.78658 3.5965 5.49764 3.3571 3.93246 3.26842
threshold=2.7117754549030479 2.0156350823104181 -11.499999999999998 14.440015032398319 -20.499999999999996 0.80930249088839201 3.6503189852307529 47.876058894287588 68.586610553808569 1.5849502325158766 33.246303558416777 2.9596506826431885 13.206034421749935 0.37617167832314785 1.3670526309189719 5.8523273419952941
decision_type=2 2 2 2 2 2 2 2 2 2 2 2 2 2 2 2
left_child=1 3 13 -1 7 6 9 -2 -6 10 -4 15 -13 -3 -15 -10
right_child=4 2 5 -5 8 -7 -8 -9 11 -11 -12 12 -14 14 -16 -17
leaf_value=-0.0028124077570463126 -0.0099238352475117982 -0.00355391627990775 0.0014987292337943468 0.00093036239318526539 0.0084821540007367011 -0.0068474044489696632 0.0097631953345327909 0.002035393538615096 0.0036140732530072798 0.0022504515146360318 -0.00075573899641269329 0.0098951144027353399 0.0014551057395446711 0.0066382601261626472 -0.0025964453166197588 0.00048581302994102674
leaf_weight=11812.974450588226 282.95203351974487 2882.422914981842 6336.9927253723145 2118.3900227546692 620.05395793914795 394.85829544067383 320.39776277542114 316.43354225158691 3037.8669757843018 5663.4111790657043 10628.738434791565 800.39180421829224 847.90679788589478 428.8481068611145 574.90472555160522 4304.0270900726318
leaf_count=2577 59 608 1296 451 120 84 60 65 600 1148 2199 150 159 90 120 866
internal_value=-3.30685e-06 -0.000619608 0.000210864 -0.00224308 0.00248113 0.000626902 0.000755638 -0.00360557 0.00286107 0.00062796 8.61729e-05 0.00247303 0.00555535 -0.00228752 0.00134621 0.00178061
internal_weight=51371.6 41161.9 27230.6 13931.4 10209.6 23344.4 22949.5 599.386 9610.25 22629.1 16965.7 8990.19 1648.3 3886.18 1003.75 7341.89
internal_count=10652 8633 5605 3028 2019 4787 4703 124 1895 4643 3495 1775 309 818 210 1466
is_linear=0
shrinkage=0.073


Tree=26
num_leaves=17
num_cat=0
split_feature=88 88 86 66 15 20 70 90 79 64 81 80 7 57 82 22
split_gain=16.4632 8.0228 6.89534 6.87965 4.46412 4.13569 4.04576 4.00799 3.67831 4.86489 3.60232 3.41612 2.92976 3.50734 2.86598 2.88248
threshold=5.3444121870194854 3.8037800179247414 1.9285314500465029 -19.499999999999996 67.5900166746937 72.594848275830017 24.500000000000004 11.40461449566541 1.5500000000000003 0.36068111455108359 0.25378659156649575 2.3666666666666671 1.6300164755725117 0.22882684235694173 0.14775005550284454 6.5484752875611063
decision_type=2 2 2 2 2 2 2 2 2 2 2 2 2 2 2 2
left_child=1 10 14 -4 11 6 -6 -2 9 -9 -1 -5 -12 -14 -3 -16
right_child=7 2 3 4 5 -7 -8 8 -10 -11 12 -13 13 -15 15 -17
leaf_value=-0.0069803744148128743 -0.00037715237035040378 -0.0092609741125684753 -0.0043012536355258573 0.00072204658716363472 0.00058485274833566651 -0.0054559189347028999 0.0073743774131905249 0.015584249317781891 0.0028586043402133443 0.0028284522956268628 -0.0029027314330025257 0.0093107602530492165 0.0065669102291033808 -0.0014099565197517444 -0.0019180579300107901 0.0067322717871206453
leaf_weight=930.36632108688354 1943.4342083930969 276.00199508666992 1508.1019072532654 440.21734380722046 20834.368873596191 590.3625020980835 478.50513696670532 291.45505094528198 7705.0917081832886 352.97533893585205 5755.0689835548401 563.91426563262939 400.57939481735229 1100.089515209198 7990.5521278381348 210.52178812026978
leaf_count=208 401 61 325 89 4295 124 99 55 1502 68 1241 110 84 232 1713 45
internal_value=-3.33201e-06 -0.000657543 -0.000148507 0.000474188 0.000788711 0.000570364 0.000737436 0.0026073 0.00330231 0.00860252 -0.00270253 0.00554847 -0.00215358 0.000717491 -0.00194232 -0.00169562
internal_weight=51371.6 41078.7 32892.5 24415.5 22907.4 21903.2 21312.9 10293 8349.52 644.43 8186.1 1004.13 7255.74 1500.67 8477.08 8201.07
internal_count=10652 8626 6861 5042 4717 4518 4394 2026 1625 123 1765 199 1557 316 1819 1758
is_linear=0
shrinkage=0.073


Tree=27
num_leaves=17
num_cat=0
split_feature=85 85 12 15 81 64 13 36 81 54 60 30 59 39 16 2
split_gain=13.1574 5.07028 5.02792 4.64543 3.74271 3.62355 4.12037 3.84015 3.88295 3.55645 4.36394 3.44431 3.33304 3.26914 3.18399 3.0116
threshold=2.2313518113411068 2.9318516125832943 5.0511209871696003 78.537091015056305 0.28180624067103471 0.5688854489164088 7.377319549775021 12.13252202328615 0.50097821021483513 -0.066666666666666693 7.5000000000000009 1.4519308345169069 1.4213748821633596 -0.10820694286928349 37.01530844164585 0.87601631627189258
decision_type=2 2 2 2 2 2 2 2 2 2 2 2 2 2 2 2
left_child=2 -2 14 9 12 6 -6 8 -8 11 -11 13 -4 -3 -1 -5
right_child=1 3 4 15 5 -7 7 -9 -10 10 -12 -13 -14 -15 -16 -17
leaf_value=0.0047468845377366979 0.00058698069952181902 0.0076203940037590815 -0.0020629582270175937 -0.0068139815967787195 0.00054106967442471186 -0.002300899904268437 -0.0010947555797227366 -0.0041223796115574425 0.010010093325644516 0.00061428440792701399 0.0089982507849072444 0.0050159280098532062 -0.006741127939009872 0.020922635149759179 -0.0010255331385236304 0.0019210392350843862
leaf_weight=1185.7989130020142 19562.918068408966 197.93951749801636 2434.2912907600403 223.2972674369812 8749.9684572219849 7872.0870637893677 768.37461614608765 2301.7696723937988 214.53898763656616 1005.8605217933655 493.59751224517822 468.70565271377563 1219.6757497787476 197.84369993209839 891.20740461349487 3583.7748618125916
leaf_count=246 3991 36 538 44 1850 1684 164 492 45 188 91 87 270 36 187 703
internal_value=-3.36218e-06 0.00116267 -0.00117389 0.0029872 -0.00147749 -0.00108309 -0.000286252 -0.002491 0.00132637 0.00552936 0.00337624 0.0092603 -0.00362535 0.0142785 0.00226866 0.00140788
internal_weight=51371.6 25733.9 25637.7 6171.02 23560.7 19906.7 12034.7 3284.68 982.914 2363.95 1499.46 864.489 3653.97 395.783 2077.01 3807.07
internal_count=10652 5176 5476 1185 5043 4235 2551 701 209 438 279 159 808 72 433 747
is_linear=0
shrinkage=0.073


Tree=28
num_leaves=17
num_cat=0
split_feature=86 90 86 90 64 7 87 41 11 57 57 30 39 4 6 90
split_gain=13.0704 7.49124 5.07095 5.21139 6.2663 4.32514 4.28523 4.14369 3.82726 3.54959 3.17444 4.34699 3.1174 2.90592 2.89273 2.87726
threshold=2.2440400521649795 15.469444286175776 2.9721418958623351 12.612173595263327 0.48684210526315791 1.590274210225471 2.9762938338794513 0.31040323140533516 2.9965512015666871 0.29911947736721151 0.29856446184490698 1.3797686281743309 -0.3847744065425186 0.67613964737281573 0.73883705286224677 11.25106252977662
decision_type=2 2 2 2 2 2 2 2 2 2 2 2 2 2 2 2
left_child=1 5 3 14 8 15 12 9 -5 -7 -6 -12 -3 -9 -2 -1
right_child=2 6 -4 4 10 7 -8 13 -10 -11 11 -13 -14 -15 -16 -17
leaf_value=-0.0034079966946283253 0.0040077432464046712 0.01060077276064272 0.003264923169682936 0.0095809847042958619 -0.00059327337159031132 0.0024059879106432531 0.011418463572760426 -0.0091334282558343197 0.002878950693788566 0.01382256248256639 0.011548935148969205 -0.00024543766131155824 0.00071388537937572228 -0.00040493251271651756 -0.00094471954577356936 -0.0014469261987478123
leaf_weight=5865.8348245620728 676.27874135971069 188.46206045150757 4932.3994708061218 500.06344747543335 5046.5728893280029 1157.522057056427 275.58057880401611 215.47947692871094 4988.5149998664856 166.12896728515625 287.04593753814697 395.43989944458008 1737.7987198829651 3596.5427575111389 8864.0424766540527 12477.946570396423
leaf_count=1299 140 37 960 97 1006 243 52 46 995 34 56 77 354 757 1847 2652
internal_value=-3.36543e-06 -0.00116804 0.00116078 0.000660661 0.00172742 -0.00154992 0.00290286 0.000322096 0.00349016 0.00384138 3.81448e-05 0.00471118 0.00168288 -0.000899163 -0.000593339 -0.00207419
internal_weight=51371.7 25681.3 25690.4 20758 11217.6 23479.5 2201.84 5135.67 5488.58 1323.65 5729.06 682.486 1926.26 3812.02 9540.32 18343.8
internal_count=10652 5474 5178 4218 2231 5031 443 1080 1092 277 1139 133 391 803 1987 3951
is_linear=0
shrinkage=0.073


Tree=29
num_leaves=17
num_cat=0
split_feature=88 85 88 66 82 83 85 28 84 87 57 57 87 84 67 32
split_gain=14.6989 6.65551 5.05579 4.48554 4.71519 4.42299 4.02181 4.27442 4.58612 3.88092 3.76702 4.19875 3.71015 3.70097 3.59414 3.57276
threshold=5.0472998001893199 2.9596506826431885 4.3216846856836968 -6.4999999999999991 0.24581765388266308 0.51008897887965221 2.0901821461849237 1.6701485732346824 2.7610233856753594 2.9217530561821534 0.32315462315462323 0.27180347616589229 2.8975454791830271 1.8072277037005826 8.5000000000000018 0.89331780711259845
decision_type=2 2 2 2 2 2 2 2 2 2 2 2 2 2 2 2
left_child=1 2 5 15 9 -1 7 -4 -9 -5 11 -3 -13 -6 -15 -2
right_child=3 10 6 4 13 -7 -8 8 -10 -11 -12 12 -14 14 -16 -17
leaf_value=-0.0015768585399718504 -0.0062567713692977447 0.0039709865593478841 0.0011825988349594928 -0.0011356297202924654 -0.0014785424261578954 -0.0055407524360461926 0.00075083664953965227 -0.0037467834096745543 0.0036510103032066799 0.0057338210129436185 0.011943321296478335 -0.004990699733747125 0.0059272665387122879 0.004674466355168938 -0.0002048726619159324 0.0006137554441559451
leaf_weight=15501.644124031067 452.79544162750244 1698.7080502510071 2010.5090575218201 2345.0584940910339 701.27801942825317 1661.6784319877625 9947.2297286987305 3842.7965760231018 504.86421728134155 538.93376922607422 213.50532293319702 658.63936758041382 221.46345853805542 6465.9908289909363 917.49598455429077 3689.0809197425842
leaf_count=3317 93 332 431 468 143 374 2045 833 108 104 41 129 41 1264 178 751
internal_value=-3.37809e-06 -0.000800558 -0.00108628 0.00190942 0.00268231 -0.00196081 -0.000165569 -0.00159972 -0.00288704 0.000147108 0.00262309 0.00185017 -0.00223994 0.0035863 0.00406775 -0.000136679
internal_weight=51371.7 36261 33468.7 15110.6 10968.8 17163.3 16305.4 6358.17 4347.66 2883.99 2792.32 2578.81 880.103 8084.76 7383.49 4141.88
internal_count=10652 7651 7108 3001 2157 3691 3417 1372 941 572 543 502 170 1585 1442 844
is_linear=0
shrinkage=0.073


Tree=30
num_leaves=17
num_cat=0
split_feature=85 85 17 39 62 14 17 34 89 89 66 64 47 66 17 58
split_gain=11.3207 5.71733 4.37674 3.98338 4.04994 3.97702 4.39549 5.46929 4.11978 3.86669 3.86635 3.85304 3.83851 3.74636 3.7066 3.59036
threshold=2.0156350823104181 2.7405433189338906 34.87493147702763 -0.37797213946807956 -1.4999999999999998 106.58934778091724 39.51818901505554 1.9017990244281409 10.768805152556888 14.440015032398319 -11.499999999999998 0.096749226006191916 0.93300612873834188 -7.4999999999999991 27.597699176419024 0.8357169644367729
decision_type=2 2 2 2 2 2 2 2 2 2 2 2 2 2 2 2
left_child=9 2 10 -3 -5 6 11 -8 -7 13 -2 -6 -11 -1 -15 -16
right_child=1 3 -4 4 5 8 7 -9 -10 12 -12 -13 -14 14 15 -17
leaf_value=-0.004165406473128022 -0.0017659079081383841 0.0075113663009789338 -0.00089479061563528149 0.0068270738801381563 -0.0072758931682965124 0.0031799555735480974 0.002375576690504728 0.011657563633791031 -0.0063370013583133548 -0.0018867572263706711 0.0015213881076263183 0.0014460493228145295 0.0038474014989651364 0.0040776151577290969 -0.0012593104511257097 -0.0059498457311700911
leaf_weight=3522.0797281265259 2258.7903881072998 710.54261350631714 11616.180748939514 786.22524452209473 284.80439472198486 381.30141115188599 1037.479585647583 502.76674270629883 663.88016176223755 1230.0669112205505 12206.49219751358 5123.9137783050537 1257.9128932952881 618.99259757995605 8196.8662095069885 973.40786218643188
leaf_count=784 477 136 2412 150 56 75 201 97 131 262 2491 996 264 132 1775 213
internal_value=-3.40043e-06 0.000718746 0.000160346 0.00225294 0.00182705 0.00133491 0.00196662 0.00540748 -0.00286226 -0.00162951 0.00100786 0.000986201 0.00101125 -0.0021233 -0.00138826 -0.00175754
internal_weight=51371.7 35572.4 26081.5 9490.91 8780.37 7994.15 6948.96 1540.25 1045.18 15799.3 14465.3 5408.72 2487.98 13311.3 9789.27 9170.27
internal_count=10652 7222 5380 1842 1706 1556 1350 298 206 3430 2968 1052 526 2904 2120 1988
is_linear=0
shrinkage=0.073


Tree=31
num_leaves=17
num_cat=0
split_feature=86 85 82 66 89 85 66 24 14 24 31 2 37 16 22 21
split_gain=11.5969 7.62598 4.39674 4.60088 3.9735 3.97228 3.67689 3.75615 3.44483 3.31495 3.41967 3.37824 3.36897 3.16591 3.47324 3.34695
threshold=2.7117754549030479 2.0156350823104181 0.12459966059471757 -11.499999999999998 14.440015032398319 3.6503189852307529 -20.499999999999996 47.876058894287588 68.586610553808569 48.903593200519907 0.84054103917172196 1.76415495426928 9.3477668989718179 31.937310097980511 4.0167662721233208 51.185556135278148
decision_type=2 2 2 2 2 2 2 2 2 2 2 2 2 2 2 2
left_child=1 4 -3 -4 -1 13 7 -2 -8 -10 12 -12 -11 15 -15 -5
right_child=6 2 3 5 -6 -7 8 -9 9 10 11 -13 -14 14 -16 -17
leaf_value=-0.0024766569909065368 -0.0095530486472028397 -0.0074588398130457185 -0.002065686473627969 -0.00036097200804604808 0.0009595607701405538 0.0086294855650602235 0.0077503009294277395 0.0020612512718308413 0.0003394324293280252 0.0021370699650447291 0.0033896878103495793 0.011085146868025844 -0.008684852241829551 -0.0013130024816160549 0.00092051185166547268 0.0028524365766515419
leaf_weight=11695.5403881073 279.02183389663696 398.17348480224609 3854.5511593818665 2625.9842491149902 2116.7277274131775 328.49209880828857 630.36764144897461 316.21995258331299 3341.6653594970703 437.30067300796509 4721.6702513694763 325.32861328125 235.80628681182861 6677.9094953536987 8348.3913669586182 5038.5689234733582
leaf_count=2577 59 86 816 532 451 60 120 65 657 84 924 64 46 1373 1715 1023
internal_value=-3.41173e-06 -0.000552308 0.000155385 0.000268318 -0.00194984 0.000659273 0.00218841 -0.00337832 0.0025306 0.00216715 0.00323438 0.00388638 -0.00165002 0.000543748 -7.19012e-05 0.0017511
internal_weight=51371.7 41084.3 27272.1 26873.9 13812.3 23019.3 10287.4 595.242 9692.14 9061.77 5720.11 5047 673.107 22690.9 15026.3 7664.55
internal_count=10652 8633 5605 5519 3028 4703 2019 124 1895 1775 1118 988 130 4643 3088 1555
is_linear=0
shrinkage=0.073


Tree=32
num_leaves=17
num_cat=0
split_feature=88 88 20 12 28 72 90 21 7 43 12 33 83 45 41 48
split_gain=13.1107 6.65833 5.81392 7.2189 4.5781 4.20068 3.80806 4.33652 4.20781 4.17734 3.71943 3.48037 3.19959 3.08591 3.51305 3.01622
threshold=5.3444121870194854 3.8037800179247414 72.594848275830017 4.9218486123414653 1.9015094460997271 0.15790000000000001 15.124601872089494 57.180474838799476 1.8800388728102631 0.053251318462149005 8.6031330948027911 0.94233965873503645 0.4931188551555441 1.4142857142857144 0.31590796811871341 1.1189225749329592
decision_type=2 2 2 2 2 2 2 2 2 2 2 2 2 2 2 2
left_child=1 12 3 4 5 -3 7 -5 15 -9 13 -7 -1 -2 -15 -8
right_child=10 2 -4 6 -6 11 8 9 -10 -11 -12 -13 -14 14 -16 -17
leaf_value=-0.0019683266974201445 0.0029964639477066037 -0.0022290990853761484 -0.0060561455431215674 0.00013874435371063568 -0.0011478027830723269 0.0012380134401617066 0.0021597859208121579 0.0041587864613575358 0.011961600107610734 -0.002220604429781739 -0.003564798537248854 0.010905636836689474 -0.0067262997900851846 0.0069703901146453027 -0.0050557723702966033 -0.0045326424692111724
leaf_weight=7286.7996873855591 9136.2711744308472 229.6772403717041 858.36988830566406 17244.138173103333 555.33714723587036 260.85269737243652 2995.1437602043152 583.42555332183838 211.91022872924805 8687.9790549278259 542.80353307723999 838.96884346008301 840.76624727249146 172.20401525497437 519.60603523254395 407.46689653396606
leaf_count=1573 1781 46 183 3607 112 52 595 122 41 1852 111 168 192 33 101 83
internal_value=-3.41224e-06 -0.000589992 -0.000127337 3.15381e-05 0.00441432 0.0067398 -0.000242541 -0.000545634 0.00198007 -0.00181884 0.00231532 0.00861546 -0.00246091 0.00264038 -0.00205783 0.00135746
internal_weight=51371.7 41000.8 32873.3 32014.9 1884.84 1329.5 30130.1 26515.5 3614.52 9271.4 10370.9 1099.82 8127.57 9828.08 691.81 3402.61
internal_count=10652 8626 6861 6678 378 266 6300 5581 719 1974 2026 220 1765 1915 134 678
is_linear=0
shrinkage=0.073


Tree=33
num_leaves=17
num_cat=0
split_feature=88 88 90 82 83 3 64 82 6 42 53 57 0 79 4 90
split_gain=12.1797 5.31304 5.01444 4.34386 4.15433 4.79084 3.85443 4.48372 3.81249 3.50573 3.32846 3.61905 3.24617 3.20179 4.40247 3.43434
threshold=5.0472998001893199 3.8037800179247414 11.40461449566541 0.12857532405900288 0.22865863978566933 1.86067819893841 0.4032507739938081 0.22423175688250102 0.73883705286224677 0.067108299589693915 -0.33333333333333304 0.32151830581478824 1.0844340493581954 1.9000000000000001 1.170499769218851 12.582126620302994
decision_type=2 2 2 2 2 2 2 2 2 2 2 2 2 2 2 2
left_child=1 -1 8 -3 5 10 13 -8 -2 12 -5 -12 -9 14 -4 -16
right_child=2 3 6 4 -6 -7 7 9 -10 -11 11 -13 -14 -15 15 -17
leaf_value=-0.0023776987069663532 0.009555088906024951 -0.0076577218989338806 0.015380360905472155 -0.0024699663037602479 -0.00060727526481624381 0.0064773240576369868 -0.0032742540675575527 -0.0099207775895400908 -0.001474857989310177 0.002702052005490967 0.001078832987979511 0.0089335168079942174 0.00048106970761149998 0.0031592559870694393 -0.004074425183207238 0.0082580055988187157
leaf_weight=8107.6009750366211 176.82830190658569 416.26168870925903 292.60612010955811 1305.3288426399231 21830.375489234924 902.00383758544922 958.62368202209473 224.69649457931519 2980.8879218101501 5695.2031469345093 3283.297306060791 345.6688404083252 552.41141986846924 3749.0240740776062 177.05746507644653 373.87736082077026
leaf_count=1765 36 91 56 268 4603 182 191 45 621 1105 672 70 109 732 35 71
internal_value=-3.43541e-06 -0.000731499 0.001732 -0.000256131 -0.000144656 0.00158524 0.00241198 0.00138384 -0.000856176 0.00207422 0.000690327 0.00182789 -0.0025231 0.00407487 0.00814049 0.00428935
internal_weight=51371.8 36190.5 15181.2 28082.9 27666.7 5836.3 12023.5 7430.93 3157.72 6472.31 4934.29 3628.97 777.108 4592.57 843.541 550.935
internal_count=10652 7651 3001 5886 5795 1192 2344 1450 657 1259 1010 742 154 894 162 106
is_linear=0
shrinkage=0.073


Tree=34
num_leaves=17
num_cat=0
split_feature=88 66 88 85 9 28 12 89 23 49 90 65 27 33 14 29
split_gain=11.4281 6.28168 5.07058 4.39509 4.27477 4.24835 3.43784 3.20907 4.87337 3.19332 2.927 2.90727 4.88274 3.47116 4.29372 2.8317
threshold=5.3598196344009343 -24.499999999999996 3.8037800179247414 2.0793424277771542 9.140953672119748 1.4367164201652822 8.6031330948027911 11.874927348754399 3.5912045524409968 1.1095011927521081 11.47549369499969 3.1282618561379629 1.4367164201652822 0.77590590695952677 75.379618317076691 2.9756877962815689
decision_type=2 2 2 2 2 2 2 2 2 2 2 2 2 2 2 2
left_child=1 9 11 5 7 10 -2 -5 -9 -1 -4 13 -13 14 -3 -6
right_child=6 2 3 4 15 -7 -8 8 -10 -11 -12 12 -14 -15 -16 -17
leaf_value=-0.0060054062524862823 0.0024945244071708445 0.010957532811169957 -0.0012099560933528616 -0.00058508077748136822 0.00016618242800014131 -0.0017999760620828035 -0.0035572321820751922 0.0017162250522902637 0.010660713104600634 0.0036996666769590829 0.0040843670557575802 0.0126707153976832 -0.00072025358965918413 -0.0032651008374863445 -0.0010268631505009858 0.0046308234834061702
leaf_weight=1523.082471370697 9687.9741954803467 200.95462942123413 997.97917652130127 560.90219306945801 17692.195217609406 9118.0008988380432 527.04788398742676 676.72072505950928 625.49194812774658 204.57765626907349 1255.9520721435547 176.00997495651245 823.96716785430908 5743.0477685928345 766.89353895187378 790.96625852584839
leaf_count=340 1879 43 218 113 3609 1982 108 134 121 45 266 37 180 1254 164 159
internal_value=-3.44302e-06 -0.000545934 -0.00035707 5.10103e-05 0.00069353 -0.00109831 0.00218199 0.00402642 0.00601494 -0.00485446 0.00173891 -0.00203606 0.00163416 -0.00258339 0.00145873 0.000357408
internal_weight=51371.8 41156.7 39429.1 31718.2 20346.3 11371.9 10215 1863.11 1302.21 1727.66 2253.93 7710.87 999.977 6710.9 967.848 18483.2
internal_count=10652 8665 8280 6602 4136 2466 1987 368 255 385 484 1678 217 1461 207 3768
is_linear=0
shrinkage=0.073


Tree=35
num_leaves=17
num_cat=0
split_feature=86 90 17 85 22 15 20 72 85 21 31 90 16 47 23 21
split_gain=10.0945 6.20912 4.65849 4.57674 4.79169 4.52965 4.51518 4.08717 3.28247 3.57029 3.03871 4.51839 4.12223 3.97438 3.91995 4.0181
threshold=2.2440400521649795 16.313261145799324 25.540986100414454 2.731960517871777 4.0045989271387681 87.937181512195579 50.559043218591846 0.10360000000000001 2.0156350823104181 56.759408271207342 1.427927043313822 9.3915716650194181 38.103402794464607 1.0221469054214503 3.058017798972688 48.336532642121448
decision_type=2 2 2 2 2 2 2 2 2 2 2 2 2 2 2 2
left_child=1 2 -1 10 6 -3 -5 -6 9 -4 11 -2 14 -12 -13 -16
right_child=3 5 8 4 7 -7 -8 -9 -10 -11 13 12 -14 -15 15 -17
leaf_value=0.0049091055249353673 -0.0052031969130383838 0.008030787142814827 -0.0012044515726493323 0.0038043710823780909 -0.0027077926779381293 -0.0017154665020121841 -0.0021071112808567641 0.0053266640422714086 -0.00076592693003319358 -0.0041201238073478525 -0.0028677332678299179 -0.0012348672939528306 -0.00072630573849721662 0.0012723997921275103 -0.00080777555546577141 0.0034508030843664658
leaf_weight=633.0909595489502 599.66417551040649 677.47942733764648 4922.1195902824402 1213.7020416259766 376.59225368499756 405.93226861953735 1590.7802391052246 3204.1910357475281 14832.630943775177 4110.1019620895386 2869.0960063934326 1601.1875996589661 3937.3179931640625 2169.1166143417358 1427.4191131591797 6801.3490748405457
leaf_count=134 128 130 1093 231 72 83 304 603 3111 923 606 326 803 448 288 1369
internal_value=-3.4483e-06 -0.00103098 -0.00127024 0.00101564 0.002711 0.00437643 0.000450188 0.00448084 -0.0014343 -0.00253156 0.000457623 0.000998689 0.00126905 -0.00108469 0.00206857 0.00271173
internal_weight=51371.8 25581.4 24497.9 25790.4 6385.27 1083.41 2804.48 3580.78 23864.9 9032.22 19405.2 14366.9 13767.3 5038.21 9829.96 8228.77
internal_count=10652 5474 5261 5178 1210 213 535 675 5127 2016 3968 2914 2786 1054 1983 1657
is_linear=0
shrinkage=0.073


Tree=36
num_leaves=17
num_cat=0
split_feature=88 85 85 42 43 43 88 16 83 25 60 41 85 35 44 23
split_gain=10.4485 5.99965 5.78528 5.07671 5.28751 4.2374 4.19658 4.13683 3.75107 3.72944 3.66321 3.64102 3.42404 3.38963 3.28863 3.38217
threshold=4.308297016096545 2.0841194047967506 3.0162902428586911 0.11424295148621967 0.24855802284252068 0.31603651181265735 6.0983717680155012 33.994053429080161 0.51008897887965221 42.396087196708358 6.5000000000000009 0.42191097256357307 2.1403750891251012 2.3934211600494084 0.89444444444444449 3.3983710748070042
decision_type=2 2 2 2 2 2 2 2 2 2 2 2 2 2 2 2
left_child=2 -2 8 5 6 -3 14 11 -1 -4 -7 12 -6 -13 15 -5
right_child=1 3 9 4 7 10 -8 -9 -10 -11 -12 13 -14 -15 -16 -17
leaf_value=-0.0013643111993960231 -0.00074655297877556021 -0.0022261412065177851 0.013854879362835304 0.00034086319087411361 0.0093355960223491033 0.0071736516572963246 0.0078799667158641271 -0.00082880754961157455 -0.0050492669063559488 0.0019374745675594721 -0.00028936358656587541 0.0088063969676236056 0.00070321579536308972 -0.0028597900499045046 -0.00388918398261887 0.0038183043881833086
leaf_weight=15407.199339866638 9955.7010645866394 3246.2406268119812 180.59102296829224 1974.9638605117798 262.55181503295898 554.68480968475342 906.41720199584961 4688.564281463623 1628.4842476844788 625.01021194458008 950.10105657577515 686.87893390655518 3650.5186176300049 164.05692148208618 390.34134435653687 6099.4973955154419
leaf_count=3317 2128 651 33 392 54 111 170 937 373 124 192 133 720 34 78 1205
internal_value=-3.47051e-06 0.00075589 -0.00143076 0.0013905 0.00192873 -0.00074136 0.00315759 0.000710124 -0.00171675 0.00461307 0.00245976 0.00222529 0.00128324 0.00655375 0.00265154 0.00296811
internal_weight=51371.8 33530.5 17841.3 23574.8 18823.8 4751.03 9371.22 9452.57 17035.7 805.601 1504.79 4764.01 3913.07 850.936 8464.8 8074.46
internal_count=10652 6805 3847 4677 3723 954 1845 1878 3690 157 303 941 774 167 1675 1597
is_linear=0
shrinkage=0.073


Tree=37
num_leaves=17
num_cat=0
split_feature=88 86 66 66 90 81 86 39 90 26 86 41 20 30 3 90
split_gain=9.75461 5.3942 4.92938 4.52626 4.10335 3.60535 5.11618 4.14499 3.87755 3.85996 3.19862 5.6302 4.74562 3.57653 3.55744 3.48803
threshold=4.9051480717460132 2.9721418958623351 -6.4999999999999991 -24.499999999999996 18.180943627713685 0.59227927818234571 2.0358460572435382 0.0035157533818161004 15.520791957022139 1.3502906642763335 1.7521888754134596 0.31040323140533516 45.681925001132008 2.4186140657415822 1.4855702345986972 14.741838832733
decision_type=2 2 2 2 2 2 2 2 2 2 2 2 2 2 2 2
left_child=1 3 -2 -1 5 6 8 9 -4 -7 -5 12 -12 15 -14 -13
right_child=2 -3 4 10 -6 7 -8 -9 -10 -11 11 13 14 -15 -16 -17
leaf_value=-0.0052177771031238166 -0.00061869475806360064 0.0027417801617276752 -0.0015402235063925237 -0.0024077853708970244 0.013301657865659186 -0.008028948083107508 0.0034102029125731266 -0.004066220920285404 0.0080859302741185281 0.0034429155346772729 0.0076293215038686531 -0.0016273652434371003 -0.0007226875598628854 0.0043087706697486341 0.0034209107222810285 0.0012114967544944459
leaf_weight=1291.5334205627441 4837.106635093689 2214.6816244125366 2046.4114065170288 5425.0011825561523 172.29525899887085 178.59203672409058 8139.0670046806335 1036.649555683136 250.19506978988647 1244.9844093322754 625.4511833190918 15889.010865688324 2893.1217365264893 646.061692237854 1784.8259081840515 2696.824414730072
leaf_count=293 990 435 421 1187 30 35 1574 206 48 243 129 3398 609 138 370 546
internal_value=-3.47802e-06 -0.00073932 0.00137171 -0.000986106 0.00210867 0.00195886 0.00255156 -0.000554032 -0.000490166 0.00200153 -0.000803584 -0.000448757 0.00165685 -0.00102956 0.000857651 -0.00121528
internal_weight=51371.8 33466.5 17905.3 31251.8 13068.2 12895.9 10435.7 2460.23 2296.61 1423.58 29960.3 24535.3 5303.4 19231.9 4677.95 18585.8
internal_count=10652 7105 3547 6670 2557 2527 2043 484 469 278 6377 5190 1108 4082 979 3944
is_linear=0
shrinkage=0.073


Tree=38
num_leaves=17
num_cat=0
split_feature=90 66 87 20 34 17 90 13 37 20 46 0 66 51 90 36
split_gain=7.0088 4.09027 4.33746 4.08152 3.96627 3.91832 3.48605 2.92697 3.33611 3.90804 2.89759 3.1826 3.49637 3.12308 2.81035 2.75836
threshold=14.226030146434789 -6.4999999999999991 1.9199779895027582 68.634978926600709 2.4087417266470337 25.041352975866992 18.180943627713685 7.6148280983505368 9.4806403438532829 51.676794514634885 6.5000000000000009 1.6339448756519008 -5.4999999999999991 0.822972834996474 11.604028592382431 11.295798778391609
decision_type=2 2 2 2 2 2 2 2 2 2 2 2 2 2 2 2
left_child=1 4 -3 6 -1 -4 10 8 14 -10 11 12 15 -14 -7 -2
right_child=3 2 5 -5 -6 7 -8 -9 9 -11 -12 -13 13 -15 -16 -17
leaf_value=-0.0020959860936347872 -0.0053386767232410492 -0.0015492444784448464 0.0074855192443460975 -0.0041196790284792235 0.003221473192003554 -0.00045402352991303111 0.0084440920911467935 -0.0013286786425426968 0.0021130700721036168 -0.00056993390181941613 0.00011888912535307385 -0.0023915078634594131 0.0010841437340525582 0.0052673448332402027 0.0042948900314019149 0.0018110835074438114
leaf_weight=9902.3438062667847 382.66940975189209 7348.1578078269958 420.53981351852417 645.3277153968811 808.11237907409668 934.07860803604126 411.5197606086731 4295.7950735092163 4275.5937080383301 8944.8386669158936 4309.3134393692017 631.79244136810303 1343.1958680152893 3273.8250985145569 2288.2852573394775 1156.4352693557739
leaf_count=2141 78 1568 84 131 174 198 74 899 879 1855 858 124 263 640 453 233
internal_value=-3.48558e-06 -0.000478223 -2.11536e-05 0.00152811 -0.0016945 0.000509386 0.00184507 0.000367771 0.00081116 0.000297553 0.00160007 0.00253996 0.00304655 0.00405101 0.00291741 3.14567e-05
internal_weight=51371.8 39217.7 28507.3 12154.1 10710.5 21159.1 11508.8 20738.6 16442.8 13220.4 11097.2 6787.92 6156.13 4617.02 3222.36 1539.1
internal_count=10652 8251 5936 2401 2315 4368 2270 4284 3385 2734 2196 1338 1214 903 651 311
is_linear=0
shrinkage=0.073


Tree=39
num_leaves=17
num_cat=0
split_feature=88 20 66 83 13 57 29 23 38 82 19 25 90 60 36 84
split_gain=9.07751 5.19729 4.69652 4.18889 3.679 3.30707 3.27569 3.27151 3.21118 3.20267 5.19681 4.06347 3.35245 3.19789 3.19093 2.88834
threshold=4.308297016096545 71.156787954442038 -6.4999999999999991 0.51008897887965221 7.377319549775021 0.21911285061969993 2.742450374797119 7.0994289373010417 0.41114149613798207 0.27505707152536379 22.517437845683293 40.713849866993954 11.633144472029878 8.5000000000000018 8.6304028898690142 2.3062149668087826
decision_type=2 2 2 2 2 2 2 2 2 2 2 2 2 2 2 2
left_child=3 2 7 5 -4 6 -1 8 14 11 13 12 -6 -11 -2 -16
right_child=1 -3 4 -5 9 -7 -8 -9 -10 10 -12 -13 -14 -15 15 -17
leaf_value=0.0003298274939492799 0.0096374479738654401 -0.0041384255700313479 0.0018866040922120213 -0.0048199087608299896 0.0078413580677806991 -0.0014767568699934636 0.0078349569455775699 -0.0084942305295152495 0.0095854538655018775 -0.00091015266126926006 0.012655931395310372 -0.0026184153761765801 -0.00026038769469253364 0.0085966814582089535 -0.0024884322638133085 0.00041112101908987792
leaf_weight=2656.0578370094299 159.01181364059448 1141.2777872085571 18459.839598655701 1667.6969213485718 397.27813196182251 13118.432130336761 350.97156000137329 273.63684844970703 168.74799537658691 1022.5626082420349 235.76876258850098 3121.3140158653259 862.11825180053711 231.06789588928223 3163.3513751029968 4342.6634020805359
leaf_count=570 34 235 3679 384 82 2819 74 59 35 208 47 643 170 47 673 893
internal_value=-3.4664e-06 0.000702857 0.000873287 -0.00133658 0.00138038 -0.000976143 0.00120685 -0.000648125 -0.00037365 -0.000211038 0.00271263 -0.00120574 0.00229314 0.000839988 -0.000593325 -0.00081049
internal_weight=51371.8 33578.6 32437.4 17793.2 24329.9 16125.5 3007.03 8107.41 7833.77 5870.11 1489.4 4380.71 1259.4 1253.63 7665.03 7506.01
internal_count=10652 6805 6570 3847 4876 3463 644 1694 1635 1197 302 895 252 255 1600 1566
is_linear=0
shrinkage=0.073


Tree=40
num_leaves=17
num_cat=0
split_feature=86 90 82 90 84 26 57 39 29 1 64 16 55 39 84 21
split_gain=8.36859 6.10945 4.35496 4.30907 4.13994 4.21164 4.08886 3.80016 3.945 3.56572 3.05184 2.92876 2.90817 2.90495 2.64528 2.64355
threshold=2.7117754549030479 15.409368275020361 0.15723439809887843 10.29339747834956 2.7610233856753594 2.4430783478565439 0.31742581090407179 -0.3847744065425186 2.7255220393559569 1.1115692086813014 0.77708978328173384 26.520232997588248 0.15192307692307691 -0.019971685729086797 2.7890245088967838 46.429008355783161
decision_type=2 2 2 2 2 2 2 2 2 2 2 2 2 2 2 2
left_child=1 2 -1 11 5 6 -5 -3 10 13 -9 -4 -2 -6 -11 -7
right_child=12 7 3 4 9 15 -8 8 -10 14 -12 -13 -14 -15 -16 -17
leaf_value=-0.0047862252769537584 0.003978951060075407 0.008902025875325582 0.0049080877891083761 -0.0012764729295650795 0.0099701197560986086 -0.0051506268593880635 0.0023022873920335858 0.0019114901348583411 0.010469403718955416 0.0084277748978137008 -0.0035009676394006724 -0.0027830662429347433 0.0011467087806009133 0.0021144214193606443 0.00012688489218977501 0.0024850615522739434
leaf_weight=1385.1825153827667 2569.3705019950867 405.72910833358765 276.60947227478027 20173.352588176727 451.63064575195312 262.99239826202393 1857.442403793335 2781.2591695785522 242.11692667007446 218.87040710449219 693.31915473937988 5594.8938908576965 7809.8948488235474 566.9471116065979 3140.4501090049744 2941.7239637374878
leaf_count=304 500 76 60 4269 89 55 387 546 47 45 138 1245 1519 113 642 617
internal_value=-3.45813e-06 -0.000472348 -0.000770403 -0.000613555 -0.000255246 -0.000614836 -0.000974608 0.00219267 0.00145939 0.00181686 0.000830622 -0.00242021 0.00184812 0.00560066 0.000668661 0.00185749
internal_weight=51371.8 40992.5 36870.1 35484.9 29613.4 25235.5 22030.8 4122.42 3716.7 4377.9 3474.58 5871.5 10379.3 1018.58 3359.32 3204.72
internal_count=10652 8633 7826 7522 6217 5328 4656 807 731 889 684 1305 2019 202 687 672
is_linear=0
shrinkage=0.073


Tree=41
num_leaves=17
num_cat=0
split_feature=86 90 11 17 7 72 58 55 90 17 26 67 47 84 84 12
split_gain=7.85587 4.93358 4.49729 4.32596 4.13548 3.87383 4.4293 4.0208 3.66186 4.49276 3.71173 3.24237 3.67769 4.90396 3.15435 3.11609
threshold=2.2440400521649795 16.313261145799324 5.0043478957030043 25.540986100414454 1.590274210225471 0.056250000000000001 0.56828139595109395 0.29705882352941176 10.29339747834956 32.421994722320932 2.4115496084134542 14.500000000000002 0.79291731875589455 2.9392444131490456 2.1707243394097495 10.210283186753367
decision_type=2 2 2 2 2 2 2 2 2 2 2 2 2 2 2 2
left_child=1 3 -3 -1 15 7 8 -2 10 -10 -7 12 14 -14 -6 -5
right_child=5 2 -4 4 11 6 -8 -9 9 -11 -12 -13 13 -15 -16 -17
leaf_value=0.0048194396056160504 0.00037351805892527599 0.0064432011600147011 -0.0046311509944867227 -0.001671194863030316 0.0015262019833169004 -0.0028911893659018632 -0.00068599600652051137 -0.0066045719274833584 0.0036238482732634499 0.0011261236777834907 0.0058420717566599134 -0.0085690814057100221 0.0015127651164433225 0.011960755393521863 -0.0046748281102063213 -0.0089050568053631509
leaf_weight=634.47322034835815 1138.045777797699 842.88021230697632 254.05378007888794 18235.555321455002 815.39262819290161 1529.6979146003723 5462.0388336181641 716.65744733810425 5975.4607486724854 10741.863849163055 312.09345817565918 200.53731203079224 2988.4691081047058 260.36712789535522 941.03652858734131 323.1302695274353
leaf_count=134 231 161 52 3958 174 322 1115 147 1168 2130 65 43 631 52 197 72
internal_value=-3.43578e-06 -0.000912924 0.00387562 -0.00112833 -0.00128726 0.000892584 0.00114086 -0.00232131 0.00167867 0.00201909 -0.00140967 0.000530548 0.000895765 0.0023511 -0.00179447 -0.00179732
internal_weight=51371.8 25495.9 1096.93 24399 23764.5 25875.9 24021.2 1854.7 18559.1 16717.3 1841.79 5205.8 5005.27 3248.84 1756.43 18558.7
internal_count=10652 5474 213 5261 5127 5178 4800 378 3685 3298 387 1097 1054 683 371 4030
is_linear=0
shrinkage=0.073


Tree=42
num_leaves=17
num_cat=0
split_feature=88 66 86 64 90 12 41 87 12 84 20 88 16 81 23 11
split_gain=8.30195 4.97719 4.5302 3.61994 3.65418 4.00535 3.50833 5.71966 3.82726 3.73504 3.27922 3.06888 3.05699 3.0422 2.99148 3.74425
threshold=5.3598196344009343 -24.499999999999996 2.9587495560176298 0.48684210526315791 10.504882534383411 5.2459526221588453 0.42002559775238635 2.6011819969854346 5.6298501400921692 3.0013710440712811 59.634525047991552 3.6749485808249682 26.668360162882276 0.78158275002197775 3.8193217942500719 3.0717949309919046
decision_type=2 2 2 2 2 2 2 2 2 2 2 2 2 2 2 2
left_child=1 -1 3 4 12 10 -2 9 -9 -8 -6 -5 -3 -7 15 -13
right_child=6 2 -4 11 5 13 7 8 -10 -11 -12 14 -14 -15 -16 -17
leaf_value=-0.0043362188834069103 0.0012597176519717754 0.008008835052627129 0.0023358921529810484 -0.0036663166053202485 0.0073842157765194281 0.00034987510313629403 -0.0011124778134850115 0.0018613009154278171 0.013510694159430106 0.010189463698551532 0.00092679960257804504 0.0019766605182082084 -0.0024124297735990275 -0.0076493272831016056 -6.9168383278137702e-05 -0.0031810320618319093
leaf_weight=1699.6051645278931 8650.444965839386 156.61735916137695 3189.577244758606 2547.3543853759766 792.91581630706787 14248.647190093994 752.14210319519043 218.27803421020508 486.97632312774658 196.41916990280151 891.37315654754639 906.99409151077271 3477.6867880821228 257.89550304412842 8580.9437928199768 4317.881507396698
leaf_count=385 1670 34 618 565 160 2983 148 41 91 37 184 189 770 56 1808 913
internal_value=-3.43509e-06 -0.000468339 -0.000301276 -0.000533858 0.000129204 0.000598897 0.00184915 0.00493035 0.00990957 0.00122502 0.00396859 -0.00133787 -0.00196246 0.000207448 -0.000908026 -0.00228513
internal_weight=51371.8 41067.5 39367.9 36178.3 19825.1 16190.8 10304.3 1653.82 705.254 948.561 1684.29 16353.2 3634.3 14506.5 13805.8 5224.88
internal_count=10652 8665 8280 7662 4187 3383 1987 317 132 185 344 3475 804 3039 2910 1102
is_linear=0
shrinkage=0.073


Tree=43
num_leaves=17
num_cat=0
split_feature=86 82 86 67 32 17 24 43 13 65 10 6 57 84 15 52
split_gain=7.07202 4.289 3.75889 3.72134 3.33991 2.97265 4.71208 3.43929 3.4058 3.32508 3.07023 2.95082 2.62884 2.79817 2.58528 2.57049
threshold=2.7117754549030479 0.14775005550284454 1.881666279424022 -8.4999999999999982 1.0005426278599361 32.421994722320932 41.893576954929571 0.053251318462149005 4.7582146944522856 2.9200638977635784 4.0886202619167538 2.2512411531314864 0.27061521856449006 2.6726807331384821 64.320716965955469 0.97486984833160839
decision_type=2 2 2 2 2 2 2 2 2 2 2 2 2 2 2 2
left_child=1 -1 11 4 -4 6 9 10 -9 -5 -7 15 -6 -14 -8 -3
right_child=-2 2 3 5 12 7 14 8 -10 -11 -12 -13 13 -15 -16 -17
leaf_value=-0.004800921330092604 0.0016943686983197329 -0.00013071311607638195 -0.005557755544535848 0.009266493137821007 -0.0021469706396623641 0.0068259773492154608 0.0099624287380093383 0.0040730168394814718 -0.00071221178133977654 -0.0010281221719045581 0.0001090655198752292 -0.0091071575251163665 -4.2719658476340777e-05 0.0083812835706577899 0.00078710489161727736 -0.002425391668692425
leaf_weight=1165.3196997642517 10421.320987224579 5171.9227981567383 999.02687215805054 654.27488803863525 2256.2027912139893 686.26082849502563 167.3711986541748 839.92561721801758 14025.542100906372 223.91739463806152 770.88108682632446 263.68015098571777 764.19343161582947 289.42911434173584 7432.4019107818604 5240.066278219223
leaf_count=257 2019 1109 218 132 487 139 32 172 2927 46 157 58 164 60 1522 1153
internal_value=-3.42421e-06 -0.000435562 -0.000307621 0.000121994 -0.00185805 0.000466126 0.0015751 -0.000109697 -0.000441633 0.00663835 0.00327457 -0.00147933 -0.000740411 0.00226876 0.000989601 -0.00128585
internal_weight=51371.7 40950.4 39785.1 29109.4 4308.85 24800.6 8477.97 16322.6 14865.5 878.192 1457.14 10675.7 3309.83 1053.62 7599.77 10412
internal_count=10652 8633 8376 6056 929 5127 1732 3395 3099 178 296 2320 711 224 1554 2262
is_linear=0
shrinkage=0.073


Tree=44
num_leaves=17
num_cat=0
split_feature=84 15 26 70 57 87 3 16 38 6 0 31 17 82 35 5
split_gain=4.95859 4.17946 3.63415 3.87056 4.13932 3.51243 3.36627 3.05652 3.63036 2.95862 2.9094 2.81744 2.79492 4.6702 3.46633 2.69569
threshold=2.7339256221397612 110.68931527293653 2.5631781669320342 25.500000000000004 0.31589473684210528 3.5867350581851318 1.8479200550017305 40.677406908969282 0.34808802772042363 1.0356993401095249 1.495802611300286 0.80912412208279128 32.421994722320932 0.22735216887917606 1.7245055689554694 0.87600674227887065
decision_type=2 2 2 2 2 2 2 2 2 2 2 2 2 2 2 2
left_child=2 -2 3 4 5 12 10 15 9 -9 11 -6 13 -1 -14 -4
right_child=1 -3 7 -5 6 -7 -8 8 -10 -11 -12 -13 14 -15 -16 -17
leaf_value=-0.0032667036915199625 0.0019443202019341407 -0.0033492150849026765 -0.0026583461739593936 0.0045041835808254686 -0.0058994460257860495 0.0070415437355604111 0.010224691052907369 0.0087272237394653163 -0.0069303409299774485 -0.0021492404567398276 -0.0031029600513772441 0.0032370844080642129 -0.00076465354483282579 0.00055740167517094737 -0.0026897925460385675 0.0031403727997900903
leaf_weight=2069.4269804954529 8933.0695824623108 872.05811524391174 486.86658382415771 773.72102880477905 197.32658672332764 289.95585870742798 235.53833484649658 209.29792976379395 453.23921012878418 366.14212942123413 660.76916456222534 2007.5808215141296 12470.49619102478 9579.0542027950287 8309.1550319194794 3458.0140323638916
leaf_count=442 1760 182 101 162 40 56 47 44 96 78 136 413 2609 1981 1791 714
internal_value=-3.40629e-06 0.00147321 -0.000351796 -0.000603497 -0.000713912 -0.000955574 0.00183468 0.0014995 -0.0020428 0.00180193 0.00114395 0.00241802 -0.00102718 -0.000121732 -0.0015346 0.00242395
internal_weight=51371.7 9805.13 41566.6 36593 35819.3 32718.1 3101.21 4973.56 1028.68 575.44 2865.68 2204.91 32428.1 11648.5 20779.7 3944.88
internal_count=10652 1942 8710 7677 7515 6879 636 1033 218 122 589 453 6823 2423 4400 815
is_linear=0
shrinkage=0.073


Tree=45
num_leaves=17
num_cat=0
split_feature=88 66 86 9 89 15 87 41 70 72 41 87 28 13 47 51
split_gain=7.37002 4.42841 3.97005 3.50365 3.78297 3.56584 3.86086 3.33065 4.12924 3.2286 3.2241 5.15964 3.07769 4.40811 3.03099 2.98137
threshold=5.3598196344009343 -24.499999999999996 2.0002046172334174 9.2074340897660445 12.318011918148168 92.427227732135336 2.4302118566102671 0.31782050924533395 24.500000000000004 0.14075000000000001 0.42002559775238635 2.6011819969854346 1.0597574026216952 5.6286805791972938 1.0472598197505716 0.8090842709689533
decision_type=2 2 2 2 2 2 2 2 2 2 2 2 2 2 2 2
left_child=1 14 12 4 15 6 -6 -5 9 -9 -2 -12 13 -3 -1 -4
right_child=10 2 3 7 5 -7 -8 8 -10 -11 11 -13 -14 -15 -16 -17
leaf_value=-0.0054173213492345164 0.0011736561078260943 0.012817772613510569 -0.0083487273962232419 0.0013850659883501747 0.0040887187765780734 -0.0031927220934665937 0.013145246619664371 -0.0034037552104103784 0.0056974135255614703 -0.00037402356876568182 0.0011568200931542977 0.0093748072395619716 -0.0016051661750107805 -0.00051193718323699498 0.0031831884432585115 0.0015449991403863126
leaf_weight=1430.1079483032227 8670.3376960754395 193.33497142791748 206.80221939086914 6441.4753513336182 779.88044261932373 216.49901008605957 370.87326812744141 2138.0671610832214 546.36252450942993 15226.090408325195 950.29063606262207 713.52086210250854 12060.85168838501 416.77227687835693 257.23986077308655 753.18116044998169
leaf_count=327 1670 42 43 1318 156 44 69 450 113 3162 185 132 2639 90 58 154
internal_value=-3.38918e-06 -0.000442221 -0.000285109 0.000220116 0.00292621 0.00539256 0.00701035 -3.83797e-05 -0.000550483 -0.000747252 0.00173895 0.00468295 -0.00134911 0.00370775 -0.00410439 -0.000583506
internal_weight=51371.7 41037.5 39350.2 26679.2 2327.24 1367.25 1150.75 24352 17910.5 17364.2 10334.1 1663.81 12671 610.107 1687.35 959.983
internal_count=10652 8665 8280 5509 466 269 225 5043 3725 3612 1987 317 2771 132 385 197
is_linear=0
shrinkage=0.073


Tree=46
num_leaves=17
num_cat=0
split_feature=88 85 86 37 52 90 43 29 4 6 48 9 90 21 90 26
split_gain=7.08677 4.89357 4.64706 3.49329 3.77339 3.60571 3.04408 3.28399 3.03564 2.92416 2.90425 3.12072 3.06451 2.93407 2.89512 3.13728
threshold=4.308297016096545 3.0162902428586911 1.9226416371866926 14.046422697427381 1.1613488003394516 18.180943627713685 0.24610310932556337 2.1516285585185808 1.2721037488632378 2.2512411531314864 0.94707876921977452 14.122765617974379 14.280258390690841 56.598218671801369 9.3915716650194181 1.6701485732346824
decision_type=2 2 2 2 2 2 2 2 2 2 2 2 2 2 2 2
left_child=1 10 9 4 5 14 7 -6 -5 -2 11 12 -1 -13 15 -4
right_child=2 -3 3 8 6 -7 -8 -9 -10 -11 -12 13 -14 -15 -16 -17
leaf_value=-0.0014210556167295215 -0.00087379486639405036 0.0043539772500945789 -0.010162305022811468 -0.0030435335587597912 0.0048976374247029142 0.0091659216461324865 0.0018939050346374164 0.014942165970644204 0.0011485389583734634 -0.010625779194473672 -0.0022888022372055138 0.011960767343000915 0.0027256347294198863 -2.8574364039091056e-06 0.0010655469796875823 0.00040437760665320801
leaf_weight=5761.7530689239502 6392.780104637146 810.7419261932373 257.5569863319397 1932.4132342338562 929.53678226470947 286.03558206558228 1682.1244215965271 213.83020687103271 1756.63987159729 168.20602607727051 9569.5104560852051 205.8572416305542 1136.791323184967 231.68037748336792 19679.806219100952 356.40510940551758
leaf_count=1247 1361 157 56 408 185 49 341 41 360 37 2114 44 235 50 3890 77
internal_value=-3.37609e-06 -0.00118518 0.000618645 0.00104082 0.00136995 0.00102631 0.00387183 0.00677908 -0.00104658 -0.00112431 -0.001451 -0.000357735 -0.000737301 0.00561972 0.000911422 -0.0040239
internal_weight=51371.7 17716.3 33655.3 27094.3 23405.3 20579.8 2825.49 1143.37 3689.05 6560.99 16905.6 7336.08 6898.54 437.538 20293.8 613.962
internal_count=10652 3847 6805 5407 4639 4072 567 226 768 1398 3690 1576 1482 94 4023 133
is_linear=0
shrinkage=0.073


Tree=47
num_leaves=17
num_cat=0
split_feature=86 90 90 84 87 53 83 26 11 42 28 52 87 27 89 55
split_gain=5.99359 4.9092 2.96847 3.76063 3.57317 3.39602 3.04957 4.09246 3.0811 2.88475 2.8458 3.60252 2.82921 2.75912 2.70674 2.66581
threshold=2.7117754549030479 15.409368275020361 10.29339747834956 2.7610233856753594 2.6159709355226695 0.76666666666666694 0.099742611467738926 2.4430783478565439 3.0133491496268419 0.28629720115595153 2.8569841058188188 0.76551347050719365 2.2250051695517232 1.3502906642763335 11.341198489431681 0.15192307692307691
decision_type=2 2 2 2 2 2 2 2 2 2 2 2 2 2 2 2
left_child=1 2 5 6 10 14 13 8 -8 -3 11 -5 -9 -4 -1 -2
right_child=15 9 3 4 -6 -7 7 12 -10 -11 -12 -13 -14 -15 -16 -17
leaf_value=-0.00089895881968677478 0.0035853797634644836 0.00043079950871506616 0.0035162158695620795 0.0063738293217906316 0.004410372873408651 0.0062123624168157095 0.0018847879250728796 -0.00011971763328210947 -0.0011680858605449896 0.0043763578578810778 0.0079088564789596191 -0.0016026039978963877 0.0042898743509552856 -0.0061762069805113588 -0.0040229130999937255 0.00088614719948146422
leaf_weight=2917.8724172115326 2594.7556037902832 2519.3898425102234 189.00029516220093 345.87737464904785 1551.0877604484558 249.20172047615051 1931.3759794235229 1666.9316658973694 19977.856061697006 1626.0564942359924 228.05511617660522 2359.809579372406 1447.6583032608032 900.63360834121704 3001.3842198848724 7864.6912381649017
leaf_count=657 500 493 40 68 306 55 401 353 4247 314 47 486 299 194 673 1519
internal_value=-3.35376e-06 -0.000402098 -0.000670668 -0.00037604 0.00157658 -0.00213167 -0.000711504 -0.000546751 -0.000898829 0.00197918 7.73054e-05 -0.000581804 0.00192894 -0.00449229 -0.00248348 0.00155606
